3217 10
NN -0.08987225 0.039851133 0.021003697 -0.1360459 0.0013008569 0.033420328 -0.05531409 0.10568737 -0.17138617 -0.03099595
RR 0.015979486 0.04313533 -0.053692054 -0.08213802 -0.04832849 0.0018834416 -0.0834165 0.070929326 0.024363281 -0.0669868
DD -0.04813104 -0.013652822 0.16068493 -0.19179477 -0.058668006 0.08319847 0.021818494 0.039548177 -0.30663425 -0.013919409
Emark -0.07776695 -0.01125212 0.16113678 -0.18724252 -0.0740622 0.077070676 0.0054748235 0.0021513507 -0.2980703 -0.03355947
Qmark -0.08193011 0.010686282 0.11986749 -0.10209689 -0.043001257 -0.016327305 -0.01997255 0.07462793 -0.17507249 0.0013916814
long -0.038654085 -0.050586067 0.11621933 -0.07433585 -0.07018658 -0.028655399 -0.032468118 0.05736729 -0.19400498 0.0051911282
today -0.0944762 -0.046913765 0.07358 -0.099785216 -0.090121716 0.030691374 0.011122954 0.013492657 -0.22010581 0.004824544
buy -0.1095391 -0.029238792 0.10740669 -0.17276324 -0.09554392 0.04517244 -0.020682026 0.056851964 -0.18575914 0.03053769
short -0.10862114 -0.035899073 0.051970076 -0.09801276 -0.10232732 0.015872734 -0.0060268785 -0.0096041355 -0.15679061 0.04133775
stocks -0.047431603 0.04345707 0.059353277 -0.1692564 -0.079158515 0.07552211 0.037071556 0.06530313 -0.2386171 -0.037748013
day -0.050293066 0.0025593375 0.082640395 -0.14411724 -0.06029047 -0.011028387 0.007664819 -0.006525059 -0.23474665 0.0027657936
good -0.08913594 -0.049163885 0.092563875 -0.11126354 -0.107430555 0.049070794 -0.031501703 -0.00057825533 -0.1907657 0.006978371
stock -0.030855492 0.043616604 0.12893309 -0.12807542 -0.101549886 -0.022597685 -0.031596735 0.039941765 -0.22087236 0.0022470586
still -0.09910835 -0.013050994 0.066836454 -0.13303666 -0.070213094 0.0018388487 -0.0042237747 0.0297105 -0.21749146 -0.022995664
new -0.110185474 -0.042631038 0.114624195 -0.1736112 -0.1035993 0.06656952 -0.033836674 0.07525595 -0.21324012 0.008892401
like -0.04567284 -0.048443813 0.07123172 -0.15739171 -0.09229215 0.013127254 0.013919693 0.06320036 -0.14487413 0.03597073
market -0.087256566 0.04306904 0.12766594 -0.072141565 -0.028031541 0.055350848 -0.015687453 0.03667654 -0.19349876 0.04169857
rt -0.0056501073 -0.00055189076 0.023117894 -0.13496377 0.0007854748 0.017598037 -0.040044416 0.025889276 -0.19275184 -0.03230393
looking -0.057234194 0.011491236 0.10166309 -0.07013041 -0.0512498 0.06226535 0.043375712 0.042635016 -0.1858422 -0.04125477
week -0.049907573 -0.026394542 0.061658405 -0.16902487 -0.06850886 0.04220705 0.051274125 0.08060682 -0.20239963 -0.00471804
nice -0.04451731 -0.039692014 0.075797506 -0.14035623 -0.03151838 0.059625905 0.03414408 0.040625744 -0.16488445 0.008112424
back -0.047934007 -0.039719433 0.097331755 -0.09718455 -0.07125715 0.020552373 0.050519627 0.07593242 -0.21926545 -0.0035541472
sell -0.07324759 -0.0069550206 0.08522815 -0.100874506 -0.038499482 -0.023284024 0.029584788 0.014967064 -0.17734659 0.030957391
& -0.019219497 0.040266965 0.11886357 -0.10116702 -0.010796278 0.073706634 -0.013303292 0.0417315 -0.22588813 -0.04887407
may -0.06299242 0.025375497 0.06288425 -0.10526451 -0.1003063 0.06242624 -0.035143193 0.08615483 -0.19552323 -0.011890374
see -0.04782667 -0.04146241 0.1174172 -0.09873672 -0.07648347 -0.0039511253 0.029550802 0.050522104 -0.16456015 0.02464763
would -0.097651415 -0.04046632 0.023867387 -0.13985068 -0.06352427 -0.029731274 -0.0030157461 0.0013784694 -0.16069628 -0.008939312
next -0.0726231 -0.0009731344 0.116717 -0.13802946 -0.0193225 0.016455112 0.020282997 0.05057275 -0.21234563 0.012828066
watch -0.05135773 -0.013177951 0.06317509 -0.113821305 -0.04782622 -0.014317021 -0.028430818 0.05972463 -0.18536769 0.004034285
high -0.10154015 -0.037693616 0.06780038 -0.15053265 -0.015138056 0.043584224 -0.0009486636 -0.020532595 -0.16911241 0.036991145
looks -0.00413456 0.04452903 0.093219474 -0.09750182 -0.087581135 0.0009441755 -0.04312417 0.012767382 -0.17829344 0.031686332
time -0.09931998 0.016887417 0.09937125 -0.1160298 -0.08750787 0.046736285 -0.036370624 0.00628778 -0.21198481 0.024604978
one -0.06389492 -0.016625574 0.0318605 -0.14795312 -0.0383289 0.049941525 0.011214487 0.07923854 -0.15061806 0.004928987
bullish -0.09492896 -0.039361265 0.034992527 -0.08818575 -0.026896046 -0.015421141 0.0033855848 -0.013259484 -0.20559618 0.03724302
u -0.04577727 -0.006921229 0.13938951 -0.12777351 -0.046380207 0.020320738 -0.037252363 0.030347362 -0.19028024 0.03612479
call -0.08915825 -0.030870026 0.043187823 -0.11188814 -0.033504 0.052896377 -0.04826133 -0.03603645 -0.15231633 0.041246172
NNx -0.14989978 0.03390855 0.029165993 -0.12217514 -0.06251261 0.10650994 0.025138332 0.09053288 -0.18783522 -0.024016721
go -0.04532177 0.042593926 0.03469234 -0.12926187 -0.09610577 -0.007480796 -0.011130117 0.04009321 -0.16856848 0.010907563
could -0.09829637 -0.017625332 0.118218735 -0.13596565 -0.036549997 0.072303906 -0.028387234 -0.008883016 -0.19601013 0.04927064
via -0.0063031404 -0.03658835 0.08269087 -0.1484376 -0.023749996 0.0749263 -0.037293524 0.04196072 -0.19399238 0.03005056
get -0.019465746 -0.029053299 0.10210798 -0.07348861 -0.045635447 0.0053132228 -0.03447339 0.032035362 -0.16118313 -0.051622048
year -0.04830713 -0.042591617 0.029398466 -0.10952602 -0.0642043 0.06006138 -0.020505695 0.01585351 -0.11542786 -0.009274517
shares -0.03860423 0.027622126 0.034332342 -0.05747908 -0.0058352854 0.05911571 -0.0043462003 0.006723185 -0.12642893 -0.018104626
term -0.02025446 0.02747072 0.10098981 -0.09140185 -0.039623927 -0.0164362 -0.021587804 0.058385164 -0.19599438 0.026406573
close -0.004775651 0.043922357 -0.032249056 -0.037052266 0.01918405 -0.03894165 -0.028206741 0.03513369 -0.04913381 -0.048783142
china -0.016004115 -0.021665651 0.09599815 -0.04961974 -0.0750927 0.026681526 0.045917958 -0.016124519 -0.10900165 0.039860923
top -0.06060448 -0.008120952 0.0860096 -0.036408197 -0.062350906 0.004739267 -0.017451206 -0.00844192 -0.12815711 -0.006284981
RR/NN 0.015450698 0.046597328 -0.0053319694 -0.05325524 0.0004572315 -0.037769053 0.046797533 0.03160565 -0.14159866 0.041143846
support -0.050846398 -0.031178987 0.051631045 -0.09232118 -0.04627513 -0.008357569 -0.019060047 0.06738208 -0.07895003 -0.041028753
big -0.038993686 0.012419698 0.040812895 -0.09252474 -0.008582243 -0.013050549 -0.023450071 0.05208648 -0.10767747 -0.034144647
higher -0.045114767 0.029478295 0.07057807 -0.07395539 -0.021654215 0.014727959 0.02877736 0.017815938 -0.15623069 0.013268286
take -0.06248141 -0.026384093 0.0097866515 -0.08099289 -0.018999657 -0.020688862 -0.051085617 0.044816196 -0.114819914 -0.04423269
run -0.059173178 0.0041512605 0.04375478 -0.026831679 0.0053425627 0.027398197 0.011678302 0.009888357 -0.120288976 -0.0408361
earnings -0.02560775 0.021171935 0.006922884 -0.11009563 -0.05602565 0.010290161 -0.03612884 0.054211866 -0.0893322 0.0040368675
buying -0.095193304 -0.041458383 0.010042753 -0.08172658 -0.03532241 -0.026683345 -0.010622929 -0.011006242 -0.14770657 -0.02563917
going -0.006024453 0.044142857 0.064014256 -0.10530149 -0.024816958 0.04016766 -0.029090295 0.03336738 -0.1386704 0.0395809
chart -0.003945672 -0.04958747 0.0205166 -0.03980787 -0.08094039 0.05663883 -0.028819302 -0.019114202 -0.1577846 0.03368895
last -0.01049509 -0.049120635 0.050831966 -0.06332904 -0.004317724 0.06491871 0.048304707 -0.006455128 -0.11630981 0.0017941316
oil -0.036398076 -0.039579213 0.09397214 -0.03261369 0.0014561357 0.037377894 -0.033131782 0.06928281 -0.085960135 -0.033749387
trade -0.06798859 0.018651947 0.062205654 -0.017525584 -0.01558084 0.007947393 -0.040642984 0.0057314443 -0.11658155 0.02739633
days -0.08593659 -0.023444545 0.022867478 -0.02880973 -0.037530106 0.015815308 0.038655665 0.068080686 -0.12287632 -0.031209702
lol -0.050015297 0.022259505 0.029867942 -0.055252004 -0.027463859 0.011245196 -0.021557936 -0.031419557 -0.107681625 -0.009911693
well -0.08655582 -0.009799033 0.0780428 -0.10848177 -0.05581261 0.025426235 0.027894434 0.021018576 -0.11709988 0.013989393
#stocks -0.07091744 -0.042509682 0.0007607 -0.027377171 -0.025594613 0.06456213 -0.041378617 0.048246503 -0.16239718 -0.019462312
morning 0.011192843 -0.00519834 0.016599387 -0.09287597 -0.055370696 -0.016511338 -0.00967568 -0.004724912 -0.056200646 0.03458484
unusual 0.021441067 0.043601517 0.019329889 -0.02790756 0.003622685 -0.027149651 0.01900542 0.018177275 -0.012713008 0.061049536
holding -0.0752573 -0.005739107 0.03669415 -0.06612277 -0.026416706 -0.012089219 -0.0023793315 0.0481986 -0.1637398 -0.014032014
highs -0.04602285 -0.053756814 0.05641182 -0.02933021 -0.0050957752 0.0007241288 0.04055006 -0.023055412 -0.14429337 0.02091472
news -0.0015167617 0.029311957 0.0029029616 -0.07986424 -0.06622788 0.039833274 0.01906687 0.0062639653 -0.1188552 -0.0029482995
end -0.02747961 -0.014798826 -0.01519944 -0.07214766 0.023566008 0.05701085 -0.0516805 0.0070490977 -0.08587099 0.013690079
puts 0.012632531 -0.025696723 0.04726157 -0.060644537 -0.038391568 0.04975248 0.011324781 -0.031906646 -0.07654452 -0.010620562
volume -0.089433 0.005069183 0.012887103 -0.11202459 -0.043099828 -0.0146905705 -0.040198 0.025953723 -0.093539596 -0.03590849
potential -0.083689064 -0.015890123 0.09197024 -0.12261484 -0.07678265 0.06451247 0.04310749 0.012685019 -0.17639181 0.010957723
breakout -0.020196497 -0.050033916 -0.0005267408 -0.0910832 -0.031045703 -0.032963865 0.034114487 0.0044823634 -0.09036728 0.016371561
upside -0.05601201 -0.043893743 0.080724254 -0.081351936 -0.018572591 -0.027064137 0.048674244 0.063562445 -0.11709038 -0.0031615624
lower -0.021533139 -0.04412302 0.035774063 -0.060448978 -0.004259496 0.04036823 -0.0338957 0.01452304 -0.065198794 0.0038677903
rally 0.00022179628 0.02763388 0.04747002 -0.08451981 -0.026387217 0.00063268695 -0.038681425 -0.03866425 -0.062496822 0.028066091
getting -0.026854595 0.02414868 0.007336992 -0.086552456 -0.06597922 0.045324694 0.05092378 -0.003660903 -0.0970189 0.0020404821
activity -0.013327163 0.045683928 0.046919532 0.007811546 0.013869869 0.039545916 0.043861352 0.053738758 -0.09199593 0.05299626
@ -0.05955614 -0.02197626 0.08865056 -0.08690681 -0.026287226 -0.0052121696 0.012776814 0.024755992 -0.10365295 -0.02354037
gap 0.012842988 0.032931775 0.013104023 -0.084672675 -0.072297536 -0.0069302632 -0.013873487 -0.012817551 -0.13672988 0.033977177
calls -0.009067324 0.032224588 0.0639387 -0.030185776 -0.057164345 -0.025569296 0.032035355 -0.014953209 -0.11300218 -0.008011626
since -0.047875334 -0.03827725 0.0446225 -0.061946258 -0.03273202 0.040784817 -0.052505642 0.015377857 -0.069785535 -0.03548512
price -0.00795586 0.043947816 0.022051206 -0.106680915 -0.036249563 -0.03390483 -0.010945266 0.05948621 -0.120410606 0.008645143
apple -0.0017012658 -0.0009745622 0.086172014 -0.069353886 0.0011692606 0.05583082 -0.048486896 0.05137568 -0.11705124 -0.008303879
bought -0.07179764 0.0075527043 -0.012834239 -0.07707839 -0.05827249 -0.0071225655 -0.022834396 0.002882302 -0.12987186 -0.019036835
friday -0.04808962 0.036657024 0.030419514 -0.010929501 -0.03242404 -0.02539711 -0.031938802 0.039476622 -0.058955215 -0.008453435
small -0.03658049 -0.033745904 0.06933386 -0.11191476 -0.033181995 0.008524159 -0.050427575 0.0050941785 -0.1429338 -0.016311094
play -0.019362811 -0.041124195 0.002109957 -0.0028970188 -0.023788676 0.033417694 0.048440054 0.014992806 -0.028113443 -0.03642428
longs -0.0017530883 -0.0357414 0.03788394 0.006324001 -0.023014009 -0.023635661 0.010111424 0.015356523 -0.041007265 -0.038845517
selling -0.062068067 -0.03459802 0.08208289 -0.045886442 -0.05162838 0.050804846 0.024200605 0.012641775 -0.07363869 -0.020918265
make -0.08475003 0.012515054 0.0013121488 -0.10307802 -0.07706405 0.03041231 0.02100689 -0.0071616797 -0.067552514 0.0016156341
money -0.060699046 0.0050695525 0.070378676 -0.10080865 0.0035241623 0.014294194 -0.041716263 0.005924185 -0.06998286 -0.023502085
target 0.0079203285 0.0031624367 0.08658915 -0.08330706 0.011103002 0.058345877 -0.0058795623 -0.01868833 -0.12851281 -0.018262478
break -0.050217085 0.014171299 0.0058108596 -0.03451533 -0.045086294 0.04650816 0.03782875 0.049092256 -0.05814948 -0.030779459
resistance -0.023411168 0.04389956 -0.013606112 -0.035071816 -0.018970605 -0.032924958 0.024233086 0.055715684 -0.12509441 -0.008168391
near -0.03167233 0.0051411283 0.06759112 -0.09468296 0.0037483624 0.008349236 0.035448644 -0.021500928 -0.09705995 0.036882147
vs -0.0018125967 0.020239025 0.014554931 -0.019301826 -0.0505906 0.013070458 -0.0434066 -0.020431986 -0.056381468 -0.033925164
sector 0.011244539 0.015587951 -0.02103667 -0.01163216 0.010403152 0.038794406 0.049318075 -0.034956314 -0.08831322 0.012809056
positive -0.019968254 0.044946432 0.01843488 -0.09774889 -0.070956305 0.011303573 0.040463425 0.010087981 -0.1206046 -0.03626923
companies -0.07248519 -0.032594055 -0.012045505 -0.030158414 -0.061142437 -0.014251489 0.038548782 -0.024672398 -0.08347447 -0.030026378
around -0.04643588 -0.018439535 0.07092921 -0.051279493 -0.040346447 0.057681948 0.008271327 0.024003224 -0.08060725 0.039803617
soon -0.025264464 -0.013352727 0.015067599 -0.032441366 -0.004380212 -0.00664637 0.043492094 0.0041183047 -0.11214343 -0.04472444
think -0.042897638 0.03173871 -0.0020693017 -0.034430347 -0.07831093 0.004996269 -0.040069036 0.012855758 -0.1204965 0.04026937
gold -0.060519047 -0.010723837 0.06510835 -0.0739935 -0.017131692 -0.0050145937 0.04331495 -0.022909965 -0.036878526 -0.04671049
much -0.06943412 -0.03352691 -0.014998393 0.0009961238 -0.05088812 0.014099672 0.029022023 0.009083148 -0.055644825 -0.047047984
tomorrow -0.025392428 0.03247499 -0.019192839 -0.03101378 0.020228269 0.04146855 0.0048430483 0.004320845 -0.032967094 -0.019125901
facebook 0.0027270871 0.036264937 0.038451813 -0.045841523 -0.014185718 0.02362744 -0.012099479 0.05093454 -0.12889 -0.012882672
trades -0.011326722 -0.026549961 -0.005753019 -0.04504063 0.02839916 -1.5040279e-05 0.03205528 0.05415182 -0.024977311 0.008170441
bottom -0.052414555 -0.0035361997 -0.023005519 -0.03810483 -0.048840947 0.01259797 0.03780763 0.046199348 -0.016068708 -0.041233093
overbought 0.02402223 0.0018367607 0.05225868 -0.0021987383 0.012858194 0.035906777 0.012725229 0.039260294 -0.077809446 -0.034228224
sold -0.06729443 0.036233183 -0.005496621 -0.008063583 -0.019328116 -0.0040988866 -0.014608321 0.052380826 -0.07486665 0.0051567573
know -0.032373406 0.03759563 0.01619432 -0.000535907 -0.04068614 0.044873614 -0.023050414 0.035755888 -0.035879027 0.032918714
shorts -0.023486257 0.0043939953 0.07802622 -0.021090608 -0.04285519 0.0351777 0.027278129 -0.024575237 -0.104559995 -0.034852814
position -0.010845024 0.024892373 0.03835137 -0.08328001 -0.012096035 -0.02681404 0.03717984 0.041364733 -0.08530691 0.0040583755
cash -0.028693136 -0.023382131 0.040758573 -0.053480763 -0.05765324 0.055059325 -0.014094818 0.053436663 -0.07239043 0.03039898
coming -0.03619639 -0.018563204 -0.009900709 -0.08474806 -0.04153106 0.04995391 -0.050540727 0.02304816 -0.07192902 -0.023841886
right -0.023429416 0.036884114 0.064777866 -0.04813699 0.0043940805 0.0021028158 0.027337085 0.056292355 -0.10323218 0.036092754
great -0.055659913 -0.013923304 0.044186287 -0.0899007 -0.028762074 -0.0017398729 0.048959073 -0.0057716724 -0.108660616 -0.023072643
sales 0.0066981 -0.0048672976 0.05210595 -0.09086438 -0.02748266 0.049494352 -0.045093525 0.046705898 -0.03885371 0.049142722
google -0.061561786 0.0061938567 0.062363807 -0.0649016 -0.029442957 0.038605683 0.02073116 0.02630737 -0.103751875 0.0046382747
look -0.017312108 -0.0019236584 0.04571709 -0.009853792 -0.054000705 0.048575945 0.018747851 0.006372524 -0.049377374 0.018870577
added -0.047311287 0.011994407 -0.008953752 -0.023130128 -0.02260061 -0.01875979 -0.02938407 -0.024282377 -0.062659726 0.017211173
growth -0.0319315 0.024688816 0.010956981 -0.077501096 -0.052941423 -0.017935814 0.042282302 0.0023148952 -0.107525505 -0.012233228
another -0.05926242 0.00682338 0.0881531 -0.021567697 -0.015771473 0.019656 -0.0058008144 -0.010369172 -0.07576676 -0.031405948
strong 0.012714776 0.044090826 0.015904412 -0.08170576 -0.07307161 0.03118766 0.038924932 -0.020263992 -0.12405086 0.014043111
yesterday -0.03993034 0.011226686 0.06097545 -0.015486817 0.012190349 0.011514121 0.01019411 0.031495318 -0.08213929 -0.048823617
weekly -0.0017493177 0.0015896405 0.03802974 -0.08296978 -0.04677643 -0.033454165 0.045916762 0.021320105 -0.11915259 -0.027241642
qNN -0.071881995 0.023440136 0.0074943253 -0.01875507 -0.0010374936 0.04802981 0.0350231 0.035396144 -0.112332456 0.010784996
weeks 0.0077172737 0.027658071 0.047657255 -0.04385039 -0.056965675 -0.039364107 -0.026808122 -0.022178505 -0.11200482 -0.037529133
better -0.011027764 0.023278696 0.029226705 -0.061575707 0.017563406 0.040293023 0.02322525 -0.008842639 -0.05918998 0.0071776323
watching -0.023002187 0.017689923 0.0034804936 -0.080148794 0.017594501 0.0046409494 0.029474929 -0.007948702 -0.021800932 -0.016651409
need -0.035648998 -0.045131274 0.069841385 -0.08084635 -0.028800907 0.04534302 0.032294486 0.05053542 -0.091251485 -0.015609587
ready -0.022947261 0.025512533 0.05647749 -0.0016151732 0.015268573 0.026585693 0.018682433 -0.0042051645 -0.042489946 -0.00083300786
setups 0.014034153 -0.011104837 0.03590659 -0.07305683 -0.06501318 -0.030140571 0.015363286 0.013563293 -0.11474754 -0.02323281
| -0.060883988 -0.002092652 0.03196203 -0.074451044 0.012204177 -0.00081745244 -0.041478198 -7.732636e-05 -0.041843783 -0.02807963
stochastic 0.041658957 -0.047513988 0.01928613 -0.047703158 -0.059752036 -0.026948558 -0.011637975 -0.001944606 -0.056458212 0.045989346
add -0.026176423 0.037770756 0.056438725 -0.00012312984 -0.05920257 0.055202983 0.048983507 0.033078432 -0.023301115 -0.010533011
prices -0.08118032 0.013017132 0.03166431 -0.089697756 0.0072353613 0.0068964143 -0.0060147564 0.024913289 -0.1280929 -0.014961937
start -0.045401193 0.010981431 0.07802571 -0.077510715 -0.009588551 -0.03765205 -0.036552634 -0.02737677 -0.043791186 -0.02775691
got -0.046754953 0.03602628 0.006619555 -0.0016241389 -0.0017778986 0.014912874 0.012097636 -0.019275567 -0.06941648 -0.04465611
way 0.016298782 0.013653962 0.00023679758 -0.044946704 -0.050564498 0.03314826 0.047601297 0.012188972 -0.08750522 0.019518392
— -0.05453847 -0.018458465 0.045975164 0.00652284 -0.041371323 -0.019425565 0.020079885 0.01768821 -0.031574454 -0.03238047
march 0.011644577 -0.050647065 0.015794711 -0.09798277 0.0034818824 -0.03073195 -0.024244398 0.029161941 -0.07987961 0.028071476
best -0.017610112 -0.01224054 0.030350015 -0.043551162 0.039076794 -0.012358908 -0.036926135 -0.002449667 -0.07719614 0.040803235
company -0.038419064 -0.021475334 0.05465529 -0.008781802 -0.04285703 0.04042237 -0.027883107 -0.011733647 -0.09011317 0.018412666
technical -0.06448633 0.04555261 -0.008571473 -0.090011336 0.0019059079 -0.018251602 -0.029563632 0.021922184 -0.11800215 0.047272213
stop 0.02959356 0.028597882 0.035477307 -0.0011594194 -0.046192355 0.04711557 0.0036880025 0.013761231 -0.048567783 0.008252383
even 0.0019107207 0.036319673 0.06204981 -0.0044316216 -0.0056279735 0.008262276 0.0016723378 0.043475583 -0.070511974 0.032965712
also -0.06962796 -0.035028443 0.020833787 -0.0881888 -0.061842993 -0.00014744423 0.018590597 0.0012879937 -0.039039787 0.010532282
swing -0.068776324 0.041348897 0.04505737 -0.07284389 -0.016587814 -0.01986061 -0.011032901 0.049217444 -0.07546733 -0.03520675
might 0.010202266 -0.044694964 0.021991389 -0.06382417 0.009600747 0.004835047 0.0031926853 0.04021805 -0.061571408 0.0047607836
eps -0.029473145 0.042224694 0.06397682 -0.10024448 -0.06949287 -0.0024579177 -0.01189158 0.054620694 -0.12881094 0.014753895
scan 0.018895581 -0.003128448 0.07327128 -0.047029924 -0.06259249 -0.005884785 -0.01690413 -0.0030237117 -0.07867922 0.02477517
japan -0.034830995 0.026326878 0.0031618874 -0.08327437 -0.022549082 0.058796834 0.040543806 0.019780463 -0.062932394 -0.003553505
hold -0.059631154 -0.010557405 0.04608706 -0.065690905 0.015520592 0.009359698 0.019435333 0.05309833 -0.0639654 0.02919042
/ -0.039289 -0.010279337 0.018205319 -0.08017575 -0.059742488 0.004404571 0.017217899 -0.0029653008 -0.048956588 0.02005741
fall -0.01938626 0.0262111 0.062832244 -0.09405486 -0.062413085 -0.021360168 -0.0013158389 0.04402597 -0.044793762 0.047816347
moved 0.016098678 0.03286951 0.0041482477 0.026594024 0.020574693 0.04951463 0.01359394 -0.034856025 0.009379109 0.03168833
names -0.02417366 0.008334411 0.01207319 -0.06679237 -0.013327416 -0.009392033 0.0022854062 0.017356636 -0.069533385 0.0028184126
signal 0.025938174 0.001860873 0.012835741 0.005638352 -0.027799403 -0.003807829 0.012494416 -0.036373302 -0.09946228 -0.018086232
dividend -0.06470192 -0.0018029369 0.015858343 -0.03698925 0.020857625 -0.02013272 0.012178862 -0.019751787 -0.08667512 0.010165704
losers -0.04286266 0.015912771 0.03048721 -0.012610794 0.020305118 0.013408108 -0.004362342 0.030034393 -0.047416385 0.044341497
needs -0.0587605 0.036190435 0.04021062 -0.071791425 -0.016909027 -0.016928669 -0.036759734 0.054244045 -0.09525547 -0.021800522
weak 0.006639817 0.032455128 -0.0032391208 -0.06787603 0.010046788 -0.040855464 -0.04010359 -0.012530656 -0.058275245 -0.007698711
deal -0.0757519 -0.0006387294 -0.0056680404 -0.088677436 -0.033281524 0.0006137478 0.0148369055 0.042336028 -0.122925475 -0.034877762
move 0.0130964415 0.00790604 0.00031490045 -0.07680718 -0.0488097 0.049946368 -0.029228449 0.048708614 -0.09575961 0.03321187
really -0.06755422 -0.0078348555 0.06046518 -0.09070334 -0.01958028 0.025518367 0.042935845 -0.0056902003 -0.07437697 0.041744687
tech -0.01649924 0.0010794621 0.010509652 -0.040460728 -0.035866886 0.045386273 0.011762313 -0.016197622 -0.099064894 -0.030788101
markets -0.040948533 0.013755941 0.03874546 -0.06499024 0.0058171125 0.016029077 -0.008948647 -0.012269553 -0.07589242 0.008394119
says -0.073151685 -0.0053543816 0.05953893 -0.041870043 -0.045440987 0.010171364 -0.047588006 0.038267203 -0.10870786 -0.006142978
trading -0.07041501 -0.03908784 0.014724271 -0.09033285 0.01342331 0.011053747 0.049554687 0.05893504 -0.0773943 -0.051188942
keep -0.010977605 0.046156775 0.05064732 0.015840264 -0.0056788423 -0.015373638 -0.041556306 0.0121885 -0.04584733 0.04508952
bad -0.069656976 0.008952254 0.053281184 -0.089046724 -0.0015385029 0.040133066 0.016916942 0.038815692 -0.047227673 0.023038898
gains -0.017812718 -0.005606055 0.031355165 -0.033236455 -0.01564121 -0.036981758 -0.049261898 0.014587552 -0.110818595 -0.0392142
$$ 0.0005724434 -0.012023016 0.053986177 0.007645096 0.0214508 -0.0052104453 -0.025700524 -0.04079895 -0.035409942 0.004768282
red 0.017697742 -0.02839883 -0.03286522 -0.054693505 -0.034820125 0.011151011 -0.03974778 0.013467399 -0.081620075 0.0018343745
large -0.036247678 0.04573517 0.021033246 -0.07446837 -0.035874296 -0.026841158 -0.02522347 0.051259156 -0.06571545 -0.017332578
cap 0.02739428 0.00072320044 0.02297982 -0.03884393 0.0083242785 0.012091144 0.029225994 0.011476118 -0.06014486 -0.019292269
business -0.05407874 0.012355465 0.034384266 -0.06371525 0.025867106 0.0019799327 -0.04794151 0.025694419 -0.034861144 0.020832727
drop 0.027273148 -0.0054560085 0.020228958 -0.08004008 -0.0553944 0.019700248 -0.028057907 -0.004669217 -0.027210683 0.033145584
setup -0.047499716 0.010926746 -0.0078124255 -0.06659038 -0.0090219285 0.02030479 -0.04686974 0.046181034 -0.07239578 -0.045148112
open -0.008747315 -0.0012098228 0.042545162 -0.047550336 -0.058062635 -0.028245792 -0.01814519 0.027204134 -0.08636216 0.019877896
point 0.01713206 0.007061553 -0.022361862 -0.038502924 -0.026947318 0.0344627 0.045005847 8.843289e-05 -0.03350468 -0.046161316
inc -0.047313385 -0.02234089 -0.020377377 -0.01888154 -0.021975074 -0.01120832 0.04886857 0.017294252 -0.016762162 -0.047008857
every -0.016537901 -0.0039445953 0.052514117 -0.072327875 0.014626617 0.055569567 -0.017178794 -0.021901738 -0.015823526 -0.01667042
daily 0.009173278 0.032023635 0.052449703 -0.06927853 -0.026950337 -0.03750066 -0.015175911 -0.0026738348 -0.0696488 0.007080837
bull -0.024575688 -0.029717218 0.07385465 -0.014162505 -0.058535054 0.014952418 0.023097089 0.0058916262 -0.031992376 0.006839828
low -0.06428591 0.047947865 -0.003878419 0.01136762 0.0025107723 0.04029956 0.0155878635 -0.03891434 -0.0665398 -0.019893207
us -0.0027231914 -0.0354199 0.07225117 -0.08065451 -0.06390638 0.0021869224 0.036098443 0.010223578 -0.018587258 0.040876184
put -0.0018465031 0.012485242 0.059036482 -0.062944815 0.0075512305 0.036002003 0.04024084 0.0035026874 -0.06698435 0.016154405
little -0.054729447 0.012941114 0.048195638 -0.042568196 -0.058727864 0.04556753 0.0123058455 0.0096214 -0.040235378 -0.035600167
debt 0.0005328518 -0.02269684 0.0412222 -0.036848824 0.00949185 -0.03855353 0.02241078 -0.01479599 -0.024488825 -0.02330037
&quot; -0.05026423 0.01675238 0.004085909 -0.061906155 -0.056088965 0.028486842 0.015287252 -0.03814938 -0.06209171 0.029678361
indexes -0.047719244 -0.029625174 -0.020450432 -0.07283785 -0.037444733 0.053656314 -0.01780205 0.005649649 -0.010075272 0.0046737916
breaking -0.025993401 0.0020325943 0.041408937 -0.034127384 -0.027271168 0.0373475 -0.037189487 -0.01882545 -0.07767639 0.020606615
less -0.021718537 -0.038959198 0.050390426 -0.034337882 -0.027465606 -0.029660184 0.04084028 0.028746441 0.008018188 -0.008215424
opportunity -0.041557316 0.0095724985 0.049031828 0.022354683 -0.027262565 -0.042809725 0.04582675 0.045765936 -0.020992959 -0.045414675
ahead -0.035673223 -0.00907775 0.030327996 -0.029104337 -0.040288363 0.039967526 0.0006968379 0.032330733 -0.08975094 0.0088912845
follow 0.0042605987 -0.005328081 0.043788802 -0.02127265 0.009391951 0.023012133 0.03229091 0.05161746 -0.034115788 0.006110149
closed 0.016636332 -0.048987046 0.03330937 -0.026668724 -0.03078924 0.055664606 0.011524475 0.043327343 -0.078343585 -0.01642849
band 0.028994549 -0.026829937 0.050872486 0.022015069 -0.02492641 -0.00046598475 0.050496925 -0.0005024937 -0.0057287593 -0.0130144125
range -0.048621442 0.001014735 -0.008726238 0.007470093 0.011494887 -0.029754246 -0.01537814 0.033908084 -0.03861017 0.017098185
intel -0.067831665 0.030975632 0.052377883 -0.06563335 0.030596033 0.01285193 0.013408879 -0.010769893 -0.011976539 0.03176788
yet -0.048622634 0.03674148 0.03159131 -0.07380932 0.026721401 0.05362797 0.027728057 -0.03258409 -0.024014616 -0.03898041
people -0.0456938 -0.0019810018 0.0006881539 -0.07011918 -0.010090726 0.035984926 0.005941125 0.03617918 -0.07499313 0.047744315
pre -0.026094696 0.006748465 -0.020084783 -0.018875673 0.007625484 0.04883377 -0.008855693 0.031787932 -0.08130507 -0.0014519838
w -0.031909484 -0.045696296 0.013791682 0.0070574465 -0.04315796 0.050289858 0.036755495 -0.035111707 -0.022766363 0.020532949
sure -0.0071836994 0.0004602432 0.008198244 -0.028979437 -0.060736526 0.03276501 0.018264603 0.007237972 -0.009286435 0.01638177
retailers -0.021501688 0.038401555 -0.018763674 -0.06821235 -0.04821612 0.0004962372 -0.0045383275 0.047925808 -0.031678025 0.034523252
seems -0.018335452 -0.010085994 0.057661302 0.017566307 0.0412645 0.038010236 0.0022847722 -0.015040147 0.0051205824 0.022849884
hope -0.06435383 -0.049190424 0.046099905 -0.021444045 -0.057588927 -0.015923942 -0.044177398 0.0011298213 -0.08684777 0.03270009
jan 0.011879803 -0.0030783878 0.04973818 -0.050531447 -0.008638128 0.0023823092 0.024801115 -0.00040108708 -0.08244952 -0.04790503
entry 0.03816187 0.01969251 0.025826806 0.027183892 -0.052337587 0.050766107 0.038228378 -0.04504989 -0.05512514 -0.0009071905
record -0.013893088 0.039115533 0.04143404 -0.060310256 0.01837707 -0.011032623 0.013146475 0.007602531 -0.053238265 -0.008301909
split -0.012637599 0.010161618 -0.0001978946 -0.0031093722 -0.00772366 0.017339936 -0.032347754 0.015097986 -0.035880286 0.035265252
sees 0.011088733 -0.01186152 -0.019914303 -0.012358532 -0.055126313 0.010864683 0.04278382 0.005241821 -0.0032156506 0.0027164088
major -0.06430789 0.046555813 0.032038823 -0.021293925 -0.00043020974 0.026521591 0.04571817 0.05897879 -0.07446611 -0.0122898435
average -0.036957536 -0.007086853 0.034968056 -0.0046843453 -0.010720014 0.058990102 -0.037315372 -0.027440585 -0.048127055 0.0048190155
c -0.059129674 0.0045113373 0.016337048 -0.042944137 -0.06380362 -0.010523542 0.0042220484 0.04445283 -0.11808873 0.0021891112
commented 0.028345283 -0.009710183 0.05299698 0.0037260847 -0.022469757 -0.03165681 0.013448541 0.040026635 0.0006491571 -0.0081346035
lots 0.018066103 0.015393927 0.013345509 -0.0015642766 -0.04164134 0.028243808 0.038232327 -0.023456402 -0.08613151 0.04469884
total -0.029106757 0.029955601 0.021428356 0.0065322313 -0.042697825 -0.026911374 -0.0034918878 -0.040199604 -0.0039296374 0.02873876
NNRR 0.02339346 -0.018838016 0.01855851 -0.0061821784 -0.018839272 -0.02916692 0.008524464 0.036585018 0.0084273005 0.012132273
ah -0.017702833 0.0054355245 -0.027242584 -0.029991189 -0.025732828 0.023988975 0.036364123 0.036969256 -0.028354786 -0.030270772
taking -0.0045436444 -0.017515806 0.035814658 0.019176979 -0.044382367 -0.03619196 -0.04210858 0.041528698 -0.0501203 -0.024269782
wait 0.015069909 0.032134023 0.06093951 -0.0021729588 -0.008650811 0.048946667 -0.01217181 -0.01705129 -0.0841357 0.008279177
million -0.006699187 0.006037167 0.015068791 0.009549257 -0.055909853 -0.029312206 -0.007428253 -0.042851567 -0.03676133 0.016438043
bear 0.029963037 -0.043413147 0.019345887 -0.040760644 -0.0024510745 -3.4392255e-05 -0.018254291 -0.02432793 0.0023119065 0.0011208556
fill 0.007211317 0.031868584 0.013039551 -0.07033256 -0.03031348 -0.0047493647 0.034734715 0.04009326 -0.042211924 0.029244736
longer -0.058029152 -0.045977253 -0.00571161 0.011604413 -0.0340771 -0.042970385 0.0049104104 0.019717257 -0.019499933 -0.018341782
report 0.034060575 -0.0267441 0.018416308 0.029711654 0.028485697 0.024922786 -0.016216742 -0.003367672 0.009124616 -0.021457003
green -0.020781433 -0.007994933 0.058966756 -0.009043727 -0.056503717 -0.035451237 -0.04838935 -0.011750402 -0.07422946 -0.03610088
rs -0.018242516 0.010228854 0.020476475 -0.0725909 -0.03842686 -0.0017121077 -0.030926267 -0.0062536853 -0.07952324 -0.038420614
nov 0.01101014 -0.0146391 0.020852078 -0.063501656 -0.05635814 0.015864927 -0.0070574437 0.030784326 -0.034989092 0.04648322
cheap -0.0413249 0.039527077 -0.0144882025 -0.04979203 -0.012564214 0.00095967617 -0.02666339 0.011069236 -0.049247716 0.004617013
line -0.030524459 -0.034281433 -0.0138535695 -0.019315207 -0.008932733 0.037392404 -0.0014731842 0.049936548 -0.034241155 -0.03318771
charts 0.021499401 -0.0029381083 0.045612928 -0.008428112 -0.011400898 -0.009950286 -0.024554113 -0.044304244 -0.048123043 -0.007227988
channel -0.014365803 0.03699273 0.003572487 -0.044337265 0.009712611 0.03564606 -0.01342531 -0.00068192923 -0.10379811 0.016830381
level -0.026596181 0.03766258 0.017310342 0.007591729 -0.028411191 -0.004903941 -0.041944962 0.051307663 -0.0571926 -0.0076419255
squeeze 0.023611633 0.038125988 -0.032989472 -0.05629018 0.01672824 -0.0008460249 -0.020261819 0.021290978 0.015886683 -0.04116539
possible -0.034005623 0.033225887 0.04876009 -0.0640279 0.027246263 -0.018255485 -0.028998584 0.014722162 -0.10931721 -0.01416934
index 0.021700809 0.040286124 0.04927347 -0.03779723 -0.024582077 -0.037839815 0.0031805802 -0.019248147 -0.08925582 -0.051522993
upper -0.05106614 -0.014293845 0.015876485 -0.046542335 0.028304119 -0.000801138 0.0027551386 0.0056376634 0.02475843 0.045898646
bollinger 0.01882175 0.03255146 0.029339897 -0.061449565 -0.038600504 0.0017434318 0.049307 0.015569089 -0.066066146 -0.024923738
bring 0.023003941 -0.030922431 -0.012792396 -0.076423444 -0.03972255 0.031004071 -0.050012723 0.058636963 -0.08360824 -0.024444109
real -0.07171095 -0.012534689 0.0039664633 -0.013140156 0.024129752 0.018065073 -0.020569555 -0.004223769 -0.095708564 0.03549622
NNk -0.009433488 0.0054916088 0.03943913 0.019220857 -0.04519624 0.049173385 -0.01004785 0.018824847 -0.06906313 -0.037926976
loss 0.03050595 0.016576452 -0.0061187698 -0.01667836 -0.029533613 -0.033233356 0.026761018 0.02921257 -0.0675687 -0.02720653
momentum -0.05775316 0.04178619 -0.012689041 -0.045218 -0.024947952 0.026466953 0.032277457 0.04247766 -0.077584825 0.030202037
#investing 0.039493013 0.011624275 0.04594683 0.027987516 0.033509016 0.055385087 -0.007865087 -0.037016667 -0.07036668 0.029481357
#tradeideas 0.01603545 -0.021676404 0.053900864 -0.0048305294 -0.0033592016 0.02347004 -0.029300654 -0.015299199 -0.045121707 -0.047956966
years -0.052317962 0.015992414 -0.032013845 -0.067375965 -0.04602756 -0.0448619 0.0014917016 0.04292702 -0.07603382 -0.006755826
model -0.0051060347 -0.01702685 -0.016734244 -0.050967384 0.011325819 0.028442742 0.035646714 0.037899647 -0.066224225 -0.030117193
yahoo -0.04855918 -0.031816762 -0.01868768 -0.035992734 0.010567256 -0.03480109 0.027570363 -0.038343538 -0.037495397 -0.038223673
found 0.0008831149 0.04276454 0.043745853 -0.043098316 -0.008900247 -0.035470232 0.046852518 -0.01329983 -0.00876709 -0.019391945
revenue -0.06154736 0.023264294 -0.0026392043 -0.007380694 0.015862929 -0.009551435 0.017000908 0.04296306 -0.026910448 0.03638273
NN⃣NN⃣biggest -0.018557679 0.025910642 0.0067432304 -0.016090907 -0.030761588 -0.020413727 -0.01037396 0.00495527 0.017071294 0.034196127
rating -0.052644316 -0.015511276 -0.028636856 -0.026585767 0.03574253 0.0048082867 0.01844447 0.033375286 -0.030852929 -0.011485644
energy 0.008405011 0.037496652 0.03885488 0.013411141 0.014753873 0.02023032 -0.03129043 -0.019393537 -0.024977723 -0.022378564
trying -0.018568201 -0.028955003 0.038235445 -0.03690618 -0.010121339 0.028944608 -0.023954688 -0.036877636 -0.07793707 -0.006225473
talks 0.022127956 0.01923725 0.052084476 -0.040306594 -0.019829389 -0.024113744 0.0051615327 0.038652267 -0.0701786 0.029184086
class 0.035452403 0.028122937 0.040073253 0.007227554 -0.006570897 0.026447484 -0.022644395 0.05080652 -0.07394531 0.02316254
hod -0.041218728 0.042413604 0.055673514 -0.036973204 -0.015801687 0.010712004 -0.029079724 0.0349656 0.016119746 -0.015158751
twitter 0.01511598 0.04696325 0.0039793146 -0.05969408 -0.050737247 -0.03405942 0.006744694 -0.045241088 -0.01647331 -0.007963059
x -0.0043266495 -0.0048227794 0.013454315 -0.004844961 -0.035415508 -0.011305895 0.031567123 0.050068337 -0.056882292 -0.04220313
w/ 0.03511603 0.013081766 0.0058055823 -0.027904266 -0.027042063 -0.013461317 -0.0134132225 0.024801698 -0.00062217313 0.006942522
DDm 0.016957633 0.042661764 0.057723712 0.01608867 -0.04945641 -0.027699057 -0.036966823 0.0005111953 -0.047723453 0.047299102
let -0.002274355 -0.049159072 0.01955833 -0.070060246 0.028979516 0.014379335 -0.029190753 -0.0217252 -0.08596629 -0.01974595
mkt -0.05357537 -0.009071217 0.04189847 -0.032573592 -0.013451027 -0.03458267 0.0076694414 0.026461707 -0.04110829 0.03045818
interest 0.035903376 0.02803219 0.047455296 -0.032593623 -0.03467258 0.017562794 0.021182215 0.024300488 -0.029445412 0.03757883
vol 0.009412079 -0.045810454 0.038544588 -0.050754678 -0.00047657173 -0.042130005 -0.038906045 0.043130178 -0.021620853 -0.0013580895
bot 0.033683095 0.03649576 -0.016091775 0.024684703 -0.017077122 0.022030525 0.031859588 -0.041448638 -0.05701539 -0.01804066
online 0.00813703 -0.03822792 0.06852644 -0.053273425 -0.051149093 0.0066789505 -0.03922683 0.007930023 -0.076273896 0.010994369
gonna 0.025951589 -0.023770455 0.06426863 0.018035194 0.038886327 -0.041104116 0.036048114 -0.0083935615 -0.07832454 -0.038632482
hot -0.03856378 -0.006850095 0.06331914 -0.022455012 -0.042121574 -0.028924089 -0.032283373 0.048730336 0.004663693 -0.011551815
beat -0.043862164 0.01871136 0.012868205 -0.06559684 -0.043047134 0.00138857 0.016538227 -0.008481855 -0.026479945 0.029235357
broke -0.04559871 -0.012970968 -0.019678023 0.0068450714 -0.0016633328 0.0031382572 0.01767869 -0.016388511 -0.014460892 0.045940448
gets 0.035385072 -0.0011610198 0.027479678 -0.06702886 0.037647873 -0.028099034 -0.03301389 -0.035263654 -0.042187847 -0.030029034
goes -0.06307889 0.0066309925 0.06793999 0.010430569 -0.032471225 0.029164555 0.036258735 0.015246966 -0.07942746 0.046127908
two 0.011861104 0.01761166 0.0013625206 -0.060761657 -0.032403465 0.0139855025 0.0031262026 0.027609477 -0.09442149 0.011109953
happened 0.0055437586 -0.025360499 0.057461735 0.024947437 0.0033084347 -0.021221532 -0.047815137 0.017336061 -0.026695192 -0.00672034
biotechs -0.03808573 0.00800415 0.06355144 0.009069634 -0.052891202 -0.0029074484 -0.006296001 0.053125598 -0.08263345 0.02046413
load -0.05979948 0.045605782 0.060700137 -0.0060040364 -0.053507045 0.050120696 0.016359685 0.045610625 -0.04168823 -0.031621166
investment -0.039211497 0.006253177 0.060785662 -0.07366897 -0.016043473 -0.0076964633 0.043459576 -0.040472526 -0.056519642 0.03095512
rate 0.0139686875 0.014535517 0.04148715 -0.08098311 0.018010268 0.034852486 -0.0291032 0.038713794 -0.098917864 0.03861209
work -0.050870866 0.008216759 0.056927748 -0.0415951 0.028453385 0.021120187 0.03704336 -0.02499135 -0.06693625 -0.03563939
name 0.013553661 0.012361708 0.020363595 -0.06618263 -0.00862018 0.003736885 -0.020247089 0.0524797 -0.08046267 -0.03671081
tmrw -0.030838601 -0.0018371043 0.02970299 -0.03298098 -0.047150232 0.011071331 -0.03542376 0.02399661 -0.042594213 -0.021876698
lot -0.044888064 -0.030158738 0.01378449 -0.036090214 -0.008171082 0.0018305582 0.030989183 -0.009173308 -0.051348995 0.025676623
buyer 0.03135934 0.03704207 0.055288386 -0.021515533 0.010316206 0.041809242 0.006916318 -0.04058739 0.006659243 -0.029911248
quality -0.0007335416 -0.012692481 0.04577268 -0.043835208 -0.0382178 0.05293234 0.009699175 0.04683352 -0.025766825 0.037818342
winners 0.007373696 -0.010468053 0.005511727 -0.013037914 -0.01888742 0.043010674 0.021638945 0.048146427 0.009673113 -0.007407047
track -0.007625339 -0.038591456 -0.035900053 -0.070668004 -0.007663184 -0.03563431 0.009822285 -0.029186508 -0.056783285 -0.03821846
bulls 0.010630598 -0.0031237435 -0.007195365 -0.062245227 -0.050215892 -0.04356897 -0.047881376 0.025028203 0.01869234 -0.010505917
alert -0.011055714 0.031025788 0.011195486 -0.01414993 -0.03589341 0.008224586 -0.029148633 -0.03338389 -0.061894577 -0.027144568
NNc -0.0326521 -0.010324614 0.024722192 0.0147778215 0.019711766 -0.025815051 0.037742965 -0.038645383 -0.07195535 -0.039450236
breakouts 0.030821767 -0.02549723 0.012717792 -0.054737467 0.037658773 0.03734419 0.0266356 0.00046065223 -0.0323341 -0.0415105
tesla -0.037402716 0.04007182 0.029241376 -0.04187461 -0.009041672 0.03914186 0.04777139 0.02621955 -0.00841646 0.048387658
cautious -0.050852608 -0.032810792 -0.03253834 0.005461876 0.03181042 0.006834312 -0.027995592 0.056879178 -0.0050475653 0.007848484
caps -0.01968375 0.006618539 0.05286158 -0.072156645 0.03447796 -0.023361966 -0.043605637 -0.009535746 -0.06267236 0.04323735
first 0.03243909 -0.02322713 0.008899622 -0.03839144 -0.012923573 -0.03696495 -0.0008438047 0.0077442704 -0.016440645 0.022453927
among -0.03496283 0.026724784 -0.021375626 0.008468606 -0.00964217 -0.0173079 0.0075818137 0.0081504565 0.0033492525 -0.03447041
strategy -0.036793727 0.025130194 0.03994883 -0.084896326 0.029165654 0.055986166 -0.04393173 0.05195068 -0.018507028 -0.01740049
anyone 0.0081936605 -0.039695494 -0.007515439 0.030135566 -0.03307219 0.02764587 0.026796589 0.046151884 0.029372165 -0.002598588
side -0.013509063 0.01764627 0.0023877362 -0.029463766 -0.028202467 -0.038762484 0.02416132 -0.0073370542 -0.0551388 0.045123987
moving 0.039590575 0.014512278 -0.03901522 0.007790849 -0.031714026 -0.031334087 0.009677949 0.03593525 -0.041456208 0.028071988
reasons 0.0021019706 0.03807983 0.03454968 -0.050688345 0.039780747 -0.020523788 -0.012178333 0.05187521 -0.045280665 -0.020762496
worth -0.0048535066 -0.04329331 0.01695425 0.0071257665 -0.009802155 0.038303364 0.038941316 -0.03819322 -0.064748794 -0.0070020095
share -0.011665587 -0.038138717 0.044117026 -0.0099148825 0.0071617574 0.056244295 0.03554421 -0.0009827822 -0.0740984 0.009235658
worst -0.025111485 0.012163188 -0.026789472 -0.04965707 -0.049376804 -0.0026834647 -0.048604842 -0.03130762 0.029947724 0.04802482
performers 0.0010319113 0.047079455 0.025103731 -0.02107628 -0.0046349876 -0.03158681 0.021375855 0.05168615 -0.050555784 -0.033265267
NNst 0.024900671 0.015033575 -0.029968716 -0.026356937 -0.013697474 -0.019562135 -0.030803857 0.011469364 -0.0034050224 0.010277954
quarter -0.060504988 -0.052236915 0.0043489793 -0.019812291 0.020293277 0.047668286 0.034820776 -0.024162455 -0.067899875 -0.026060188
results -0.023595484 -0.0031382665 0.051865906 0.009911796 -0.038483407 0.053155906 0.037019033 -0.037170965 -0.01596577 0.010268837
cloud 0.03770831 -0.012396108 0.03460711 -0.010509854 -0.029908381 0.05134763 -0.01592829 0.011167131 0.018264538 0.03666156
keeps -0.04298352 0.015332369 -0.0030915882 0.0016490961 0.028001165 -0.02655994 -0.0008441736 0.020648196 0.00088676746 0.019249713
internet 0.02058937 0.048080597 0.022094455 0.02914036 -0.0040614996 0.0395987 0.019193254 0.055432573 -0.080382936 0.014787177
users 0.017496033 -0.05201196 -0.014035495 -0.043311637 -0.0068388954 0.0013839689 0.012860315 -0.025860239 -0.07509033 0.00037217344
reported -0.027760845 -0.05074139 0.06068643 -0.029244546 -0.060785934 -0.025066085 0.006820075 0.013332046 0.010056962 0.044824917
offer 0.025676772 0.036464997 -0.00906929 0.0016859564 0.013248321 -0.01047466 0.022485798 0.030574422 -0.083356366 0.0037781047
spy -0.0030293372 -0.011129471 -0.01759015 0.008047712 0.012127558 0.047571268 -0.02491478 0.0052086757 -0.04616821 -0.0025805437
dip 0.031418458 0.03853976 0.042567864 -0.007483666 -0.020633401 0.00026247522 -0.024600837 0.011734439 -0.062073693 -0.047874168
black 0.0033458082 0.03738797 -0.0113104815 0.010518125 0.028858501 -0.042004198 0.0030943241 -0.044680394 0.02003782 -0.012753652
order 0.028256232 -0.00017441541 -0.009634057 -0.04437288 -0.003805211 0.018217456 -0.03786407 0.03372645 0.0087962635 0.021069642
recall -0.043056145 0.0005000121 -0.022911664 -0.02233192 -0.022821257 0.022187954 0.011567481 -0.026177924 0.0077245096 0.0007379623
hit -0.051768694 0.0076267403 0.058861673 -0.0042754975 -0.0634678 0.011698435 0.007273623 0.015577693 -0.02877434 -0.00020611777
lows 0.035813242 -0.026408989 -0.007959716 -0.072882675 0.0023958832 -0.032182604 0.04148076 -0.03680514 -0.017544685 0.022187945
dont -0.016775578 0.015110921 0.017561061 -0.014546111 0.005714221 -0.019543855 0.04453954 0.026546774 -0.0017875803 0.030247249
guess -0.031657744 0.014885555 0.026006147 -0.04955331 -0.003123725 0.025118912 -0.042459995 0.029425954 -0.043680888 0.048466515
production -0.040327545 -0.0389101 0.0077838115 -0.038590685 0.014501341 -0.016019182 -0.04996034 -0.0147943655 -0.03299669 -0.03788796
stores -0.06532139 -0.015201301 -0.0312875 0.01203541 0.0062772594 -0.0006140632 0.032979492 0.022077316 -0.021218803 -0.04661868
macd -0.04644065 -0.047267295 0.00867715 -0.019248197 -0.029328467 0.04720476 0.04592915 -0.008019533 -0.009784849 0.03661224
percent -0.025115568 0.0073906984 -0.019341297 -0.025218206 -0.030441638 0.015913144 -0.027493246 0.021397233 -0.074620694 -0.049305607
er 0.019576924 -0.037459925 0.021368671 0.008308786 -0.010509093 0.040037435 0.037501574 -0.036333542 -0.079233445 0.035649974
outlook 0.033651914 -0.0024145313 0.061185595 -0.004215571 0.020861225 -0.044219553 0.016740574 -0.005219568 -0.018051215 -0.017917367
running -0.036585696 -0.05015847 -0.03647221 -0.063696496 -0.05367118 0.051972765 -0.026468493 0.006463152 -0.070244715 -0.008333647
@montisumo -0.00072806055 0.04672853 -0.012910203 -0.013056924 -0.018241933 0.011960742 -0.046400465 0.015707595 -0.01786406 0.032706298
confident -0.059345644 0.043753996 -0.015309869 0.005390365 -0.020177778 -0.018975938 -0.010365282 0.019666515 -0.02184245 0.034758504
agreed 7.50232e-05 -0.026708523 0.05725364 -0.035812195 -0.019005552 -0.010578973 0.012871752 0.039133016 -0.06642301 0.046594497
downness 0.0135668805 -0.018508611 0.054177362 0.025607646 -0.007588568 0.0073859245 0.012212416 0.054746304 0.007443672 -0.029769918
ca -0.03190364 0.048960853 0.027912663 -0.019599622 0.005486307 0.014690955 -0.030126445 0.030789617 -0.007293126 0.040823564
find -0.009096484 0.019569619 0.009651653 -0.027355162 0.0032118633 0.0023715391 0.016251057 0.04076406 -0.04711194 -0.019458871
without 0.0116432775 0.030036552 0.0034765515 0.013412818 -0.053721394 0.04642808 0.02956444 0.048551187 -0.07483269 -0.023218624
gain -0.06018406 0.024732541 -0.016314883 -0.046459988 -0.05279053 -0.03604951 -0.019544864 0.043603227 -0.018369786 -0.029177405
capital -0.064642504 -0.0067717335 0.065536186 -0.010888588 0.02841953 0.042197604 0.0020557593 0.016044352 -0.07326594 0.017827008
waiting -0.030784931 -0.005025098 0.017370727 0.0069639394 0.03610705 -0.0226006 0.03747425 0.00746531 -0.020204747 0.043197233
downgrade -0.01645043 0.037122026 0.034632515 -0.0649984 0.0033061472 0.025375936 -0.01799084 -0.038911264 -0.07600152 0.009281626
early -0.009111578 -0.024114769 -0.031106075 -0.05846297 -0.005491874 0.025672587 -0.017863242 -0.036515877 -0.008938773 -0.011593896
continue -0.0014532825 0.015354606 -0.0047953855 0.0038479913 0.026315363 -0.01929952 0.02648509 0.032522067 -0.022535644 0.0109844245
second -0.048307654 -0.020130822 -0.0030124646 -0.0012462137 -0.011130961 0.03485934 -0.013641136 0.034531858 -0.022325218 -0.023607792
possibly 0.02719745 -0.02920383 0.046517596 0.0043785507 -0.06469124 -0.037341826 0.0487362 -0.02412593 -0.021659832 -0.008196216
least -0.007107326 0.0022298777 0.060702562 0.018659359 -0.054069273 0.011799372 -0.048038334 0.04212353 -0.055032663 -0.024983197
european 0.030023135 -0.03995311 0.020363916 -0.0077970624 -0.021177482 -0.040980022 0.03256233 -0.018864403 -0.0062533417 0.032155827
phase 0.0006288327 0.0010010352 0.0005873176 -0.033247385 -0.043530054 -0.028841006 -0.0027393182 0.014547998 -0.023691721 -0.023070807
area 0.00705653 -0.039872665 0.030403996 0.011691945 0.007779056 0.019425835 -0.0033226684 0.0120183015 0.009201299 -0.019406244
seem -0.021573737 -0.017393822 0.046188686 -0.046355374 0.033354234 0.052878227 0.020512776 -0.0035783625 0.00207674 0.03408363
month 0.008803765 -0.050609604 -0.017466445 -0.05443271 -0.0524342 -0.021306694 -0.021722645 -0.02528679 -0.05436678 -0.04710021
highest -0.05291287 0.015268164 0.040184435 -0.017678944 0.004087733 0.03114545 0.03728016 0.04956654 -0.043143384 0.049438305
rise -0.03948207 0.016666567 0.06780116 -0.029419556 0.013293453 0.04492274 0.024646562 -0.013213022 -0.09757248 -0.00048945355
^ 0.011206673 0.036645398 -0.0108047975 0.02832965 -0.054499358 0.004428433 0.005161964 -0.015004364 -0.022529677 -0.04587065
fast -0.012591296 0.017433915 -0.012742033 -0.05914692 0.010267461 0.004120457 0.027851319 -0.024651172 0.0070697567 0.010400564
bearish 0.0006883135 -0.023316676 0.014196683 -0.05064375 0.02314021 -0.007738817 0.005821349 0.023854349 -0.067093246 -0.0077145505
bears -0.025209224 -0.0059942924 0.06442678 -0.060365386 -0.03649635 -0.031739324 0.008421244 -0.033907592 -0.05818227 -0.012739725
triangle -0.03847353 -0.04779077 -0.011231028 -0.06663217 -0.013207593 0.009271829 0.0076401327 -0.010013784 0.01026495 -0.034050204
active -0.031426664 0.03522227 0.008257432 -0.020017348 0.009199872 0.009335937 -0.027004959 -0.030932272 -0.07405242 0.008065035
NNdma 0.028154042 -0.005219538 0.06231726 -0.012883942 -0.02393758 0.024400344 0.014559969 0.044773575 0.0006700645 0.0047076945
whole 0.009793139 0.012793956 -0.008318414 -0.013721723 0.00768512 -0.022856181 0.005191495 0.015790585 0.008934344 0.014455675
feel -0.006873454 -0.039967414 0.045930937 0.021659609 -0.019098917 0.00010131056 -0.035109606 -0.013700926 0.0073558623 0.032090757
competition -0.037321657 -0.049597614 0.05784975 -0.0011351645 -0.062377397 -0.020322077 0.031110955 -0.026281148 -0.025967335 0.015260804
turn -0.038289387 0.012005483 0.05002401 -0.03466749 0.009838809 0.026702523 -0.038530428 0.042568713 -0.029849904 -0.022987096
amazing 0.030474143 0.034406926 0.011306597 -0.040962324 -0.046500053 0.04225608 -0.019590462 -0.029898858 -0.0021854332 0.020146308
investors -0.0064661866 0.018097918 -0.016123075 0.010778708 -0.009579507 0.03101223 -0.0015163218 0.009216919 -0.02960917 -0.014788464
guy 0.03189323 -0.039637543 0.02671741 -0.026475374 -0.012369389 -0.0434618 -0.018402554 -0.0132469395 0.022823427 -0.031788457
supply -0.044165205 -0.022873405 0.0034191231 -0.06230944 -0.04987913 0.0010396945 0.01659133 -0.023837984 -0.047228243 0.008836665
chain -0.04109253 -0.050563518 0.014273846 -0.007017693 -0.0063867536 0.008792399 -0.026209243 -0.02785048 -0.059255846 0.021807782
chinese -0.052222844 -0.039745446 -0.017533809 0.013752061 -0.0033179682 -0.00019695611 0.04266271 -0.02769667 -0.05232709 -0.021155512
rated 0.021556579 -0.0077150995 0.011075651 0.020800432 -0.007937748 0.028377011 -0.016472278 0.02636819 -0.06020011 -0.013071145
numbers -0.031011203 -0.02876055 0.06316609 0.016470324 -0.023790374 -0.034851056 -0.013720519 -0.026632825 -0.04426745 -0.01677154
fine -0.034926347 0.04155082 0.013418337 -0.027852854 -0.031908017 -0.015271105 -0.02737098 0.015104668 -0.0501338 -0.01899216
insiders -0.03864875 0.00528674 -0.030284518 -0.05314911 -0.034782235 -0.036871187 -0.029439433 -0.014760996 0.022466494 -0.0140264565
bid -0.04382437 0.04692982 0.012905313 -0.068014905 0.010060638 0.03390319 0.04820392 0.031950947 -0.033502392 0.03680104
recently 0.0015187924 0.008726559 -0.017953102 -0.027611598 -0.024627045 0.014268007 -0.036394402 -0.031745836 -0.026265057 -0.027426435
allow -0.025767958 0.024322445 0.0030720877 -0.04733988 -0.03346349 -0.012521623 -0.0010391233 -0.03750191 -0.07192491 -0.016374826
pt -0.016184239 -0.023381336 -0.018772956 0.028541122 0.0069274553 -0.024060931 -0.0413902 -0.032258563 -0.071186654 -0.03976985
ratings 0.03163539 0.00501984 -0.024702366 0.021747353 -0.029057965 0.012899282 -0.03346028 0.027627287 -0.024507862 0.023593955
adding -0.005914942 0.02603171 -0.015214589 -0.0068501816 0.028535362 -0.019114781 -0.04655163 -0.044939272 -0.01245994 -0.036968984
adds -0.059590023 0.0030153177 0.026484502 0.024302522 -0.043364767 0.036161117 0.002153933 0.0515697 -0.021412775 -0.0459979
afternoon 0.027929934 0.00035582663 -0.01626579 -0.057909597 0.008255722 -0.03434797 0.027589424 -0.04380677 0.021017166 0.010574229
post 0.0043603657 0.028291922 0.019874884 0.0369871 0.030812077 0.0033356368 -0.033669915 -0.027377838 -0.033649754 0.007130196
DDb -0.0041361535 0.034240842 0.049185 -0.05614691 -0.050515216 -0.0042874743 0.042781185 0.03278783 -0.05913377 -0.016220834
three 0.024637483 -0.028798351 -0.0116881225 -0.064348854 0.017370401 -0.030026997 0.049434703 0.032257438 -0.06604942 -0.023590706
imo 0.01775471 0.02538067 -0.02652842 -0.04043814 -0.029623875 -0.03935252 0.018094452 0.021886038 -0.02998426 0.038438637
outcome -0.025025504 -0.048857052 0.010535718 -0.047301237 -0.049345795 0.04641287 -0.019976273 -0.034773722 -0.011509536 -0.0043704193
NNd -0.0058528967 -0.021129465 -0.03673413 -0.05483544 0.035711464 0.046033904 -0.03310531 0.027562872 -0.06995816 0.019012582
missed -0.011050321 0.045500357 -0.0027195192 0.0067043076 0.0014564308 0.04175041 0.029137887 -0.0026374187 -0.06389511 -0.0369024
tape -0.0024644132 -0.012598482 0.012850051 -0.052947626 0.0028510462 -0.015080824 0.041599743 0.036054324 -0.035686396 0.005611697
$ -0.022743307 -0.007667855 -0.015307187 0.001601347 -0.01396351 0.006556117 -0.048538852 -0.0276664 -0.04198237 -0.035091825
basis 0.040428706 0.006085019 0.042647544 0.012323221 -0.038649995 -0.03390831 0.01211053 -0.005972242 -0.030926008 0.04209391
compared -0.053184617 0.006867876 -0.02695567 -0.045795996 -0.038133737 -0.0016752421 -0.035653997 0.029394738 -0.028124938 0.04816358
cover -0.04368852 0.041137602 0.01164303 0.011910857 0.0074441973 -0.00327274 0.012749128 -0.00070514303 -0.03146743 -0.030767962
&lt; 0.030372243 0.03461546 0.05917127 -0.011699049 -0.047810964 0.033379138 0.016308583 0.0139562525 -0.011600813 0.03757142
everyone 0.029624445 -0.019654917 -0.031755585 -0.026178477 0.010892961 0.008534003 -0.0043441015 -0.017175592 0.009657999 -0.019604512
rsi 0.0010278416 0.04095163 -0.0313202 -0.044245005 -0.042242117 -0.024077466 -0.049934465 -0.015339773 0.009741944 -0.0413271
pop -0.0035275759 0.006337208 0.006343496 0.009203186 0.016159715 0.005111621 -0.007480838 0.029366853 -0.019999543 -0.045024876
uptrend -0.054777626 0.03060302 -0.010863554 0.012763944 -0.033393465 0.0021061553 0.029554708 0.030094042 -0.027656142 0.02627871
base 0.0019186388 -0.007995762 0.011061991 -0.00857373 -0.04191967 -0.036571812 -0.024425387 0.0376355 -0.019170327 0.04251351
yoy -0.010937616 -0.03521298 -0.024010744 -0.03379445 0.008911122 0.035871264 -0.0019467713 0.0057933326 -0.025205543 -0.03639341
shorting 0.01210531 0.02264773 -0.031156546 0.035305165 0.03285952 0.032163113 0.046296082 -0.03311777 -0.012018339 -0.007485782
earlier -0.05069069 -0.0078763105 0.004644067 -0.017946236 0.03130956 -0.019355359 -0.0038804798 0.050985895 -0.03525573 -0.016893525
exit -0.01958248 0.035031132 0.018562632 -0.011588509 -0.0040287646 0.053895216 -0.024913436 0.03858775 -0.05662275 0.020245422
double -0.0076545067 0.02276899 -0.0039366493 -0.059071977 -0.039264675 0.012747069 0.023412602 -0.018937722 -0.06083106 0.0074384585
reversal -0.057949148 -0.028680053 0.0409897 -0.010725483 -0.057999987 -0.0054389327 -0.0001463553 -0.012005264 -0.060488127 0.022649383
already 0.034920458 0.04785678 0.025954751 -0.028827794 0.012190741 0.014674803 -0.008283836 -0.0029680573 -0.052663594 -0.04068257
dollar 0.0014554373 -0.006307349 0.028811991 -0.033406574 0.011176524 0.0043399185 -0.017947335 0.01337309 -0.0032573652 -0.04685795
#NN 0.02330109 -0.007841188 0.021038864 -0.018841237 -0.008692276 0.04070928 -0.026987538 -0.034052745 0.01231005 0.033177964
shld -0.04631265 -0.018512798 -0.014983976 0.032113705 -0.045020964 0.01818807 -0.044840954 0.03603652 -0.028329384 0.041663993
worried -0.029994348 0.018271811 -0.007979018 -0.019451875 0.040500965 0.0057553668 0.03094651 0.009820048 -0.04379517 -0.0040165116
icloud -0.010654115 -0.037535064 0.05641773 0.0162658 -0.02741023 -0.006875588 0.0031424717 0.010311523 0.03250002 0.005339739
due -0.028299455 0.014286544 0.007846053 -0.05339246 0.031584516 0.022614004 0.022103496 -0.0042204717 -0.01047531 0.018944103
ripe -0.0472674 0.0053085303 0.035760496 0.00036721549 -0.010252135 0.0034074546 0.044910964 -0.029123276 -0.007352513 0.019790798
fb -0.057218727 0.034588035 0.054538947 0.019183148 -0.01704662 -0.018504018 0.042688426 -0.036343522 -0.047414076 -0.038510695
risk -0.00059735647 -0.033056043 0.038514536 -0.0670304 0.011588195 -0.0043390947 -0.010522647 -0.012799443 -0.04741974 0.047180783
weakness 0.008920375 0.0062636198 0.0607228 -0.024416756 -0.0033646594 0.04546787 0.018386746 -0.0076872874 -0.055653602 0.03820523
okay 0.03188344 0.042606078 0.011521596 0.021766908 -0.0537004 -0.03433121 0.033788823 -0.04197211 -0.06432459 -0.050378975
miner -0.053495537 0.024626428 0.010974494 -0.00020710315 -0.048511706 0.038746204 0.036965344 -0.03472302 -0.08374099 -0.041378252
pe 0.019983215 -0.0289831 0.06389959 0.009407565 -0.027133085 -0.031868927 -0.025408566 -0.04316225 -0.01142386 -0.019085702
close/ -0.05440894 -0.00871988 0.010950157 0.011304573 0.020693514 0.048993316 0.011750675 -0.04291617 -0.032881804 -0.023700697
though 0.02851714 -0.010394134 -0.0052986285 0.016548397 0.009727012 0.00090517703 -0.049056612 0.04222415 -0.064635366 -0.03165653
july -0.0024685955 0.046710774 0.008472767 -0.026193107 0.022550259 -0.034704063 -0.044403877 0.03615204 -0.037862115 0.03944178
institutions -0.03368851 -0.025688289 -0.022316666 0.037308015 0.03529734 -0.0013993185 0.0029546143 0.0072793476 0.01216694 0.0024990297
NNa 0.030628052 -0.033030044 0.028401837 0.032796487 0.028442778 0.021914756 0.018020373 -0.0013376243 -0.0036579364 0.0075045577
list -0.03083049 -0.0489804 -0.04072748 0.002366886 -0.050735645 0.021078622 -0.0362762 -0.04298482 -0.050937552 0.03553748
times -0.0050846213 0.030356526 0.0549933 -0.035308573 -0.013388733 -0.009316902 0.026403697 0.027399879 -0.05842844 0.02429658
yield -0.007375766 -0.004721093 0.009913013 -0.007934884 -0.027870942 -0.034979653 -0.024130786 0.035701703 0.0020925032 0.030101884
come 0.0065951473 -0.013105709 -0.03027008 -0.044602472 -0.04615471 -0.00829666 0.02078612 -0.02308744 -0.07173217 0.024154
pretty -0.04545003 0.0018092988 -0.009205627 -0.011200716 0.029855149 0.00954276 0.031198718 -0.0046563386 -0.0073373537 -0.038163245
industry -0.052292187 0.028200822 -0.024227228 -0.058727715 0.01501238 -0.027105607 -0.008182654 0.05510338 0.011525773 -0.021651497
solid -0.033507284 0.044637 0.03739301 -0.03874968 0.0061087334 0.025543783 -0.034718737 -0.042736407 -0.07013171 -0.040818535
levels -0.059125915 -0.01749897 0.03223269 -0.07502557 -0.0036312991 0.0092204055 -0.006240387 -0.013878357 -0.0830489 0.02109919
points 0.013828828 -0.027471935 0.022859177 0.023987887 -0.04069035 0.030543966 0.016017506 -0.043122355 -0.0048023146 -0.04219661
miners 0.0108318655 0.0036820762 0.036719523 -0.024593294 0.030214723 0.005915067 -0.029007332 0.03663374 -0.055005115 0.039225623
returns -0.0042446353 -0.004235723 -0.041470937 -0.019159762 -0.029077543 0.02539904 -0.04966399 -0.020531144 -0.063511655 0.026300674
reporting -0.002431017 -0.013186492 0.063637905 0.011689309 -0.01253383 -0.008096962 0.042484913 -0.0114347 -0.047237966 0.017998628
light 0.02087501 -0.036207657 -0.02280252 -0.054980434 0.036248676 0.021265348 -0.041478597 -0.006835325 -0.030846557 0.05064425
jobs 0.016365416 0.016174944 -0.010200114 0.02203232 0.037410006 0.006166035 -0.028842518 0.035632502 0.009086176 0.009951627
n 0.00031666935 0.020967396 0.03841072 -0.039947458 0.027864568 -0.019136636 -0.0348997 0.0005059776 -0.06138924 -0.026514027
wants 0.0016504652 -0.04357543 0.03809765 0.019011404 -0.04989306 -0.0075244512 -0.011482933 0.05499832 0.015854182 -0.0015653297
expect -0.012881645 -0.01486999 -0.03218706 0.017258711 -0.009584793 -0.03903309 -0.021793053 -0.019218301 -0.055902135 -0.04904854
covered 0.01353628 0.03625025 -0.02797414 0.03785316 0.041532334 -0.03261793 -0.035607893 0.0014385037 -0.0263852 0.011718619
hits 0.03683324 -0.014813873 0.0042970073 -0.04286963 -0.023619916 -0.02832102 0.030739741 0.02787346 -0.015176139 -0.0021396396
NNnd 0.033512965 0.0008007982 -0.006779327 -0.053274572 0.03728902 0.024473777 -0.0349102 -0.030637 -0.04346033 0.011843703
huge -0.020135624 -0.044762924 0.04308837 0.0008747672 0.02209652 -0.0070945336 0.022230081 -0.042333364 0.0128876595 0.05061347
past -0.05452074 -0.0437264 0.034530543 -0.038577195 0.035379868 0.027235633 0.032522563 0.02018625 0.014513803 0.013445123
cancer -0.017161647 -0.043095432 0.026187731 -0.07058313 -0.0022838174 -0.02097888 -0.04661789 0.05209681 -0.046810884 -0.008753676
lets -0.018112414 0.028373966 0.0013922254 0.008006214 0.02381798 -0.010091825 0.02846602 -0.016942661 0.0127474405 -0.03478385
bell -0.015596428 -0.033139925 -0.03877647 0.014142105 -0.040537346 0.047110897 0.027296644 0.05114945 -0.044098467 -0.0206371
movers 0.018007265 0.012343684 0.056533128 -0.014974597 -0.0406769 0.04706308 -0.020284351 -0.03101224 -0.03432337 0.043645564
failed 0.039485604 -0.04734119 -0.03995563 0.018613452 0.0425895 -0.01899281 0.021032162 -0.002502144 -0.04089476 0.005470197
server -0.03809489 0.0035743206 -0.0054445555 -0.018236939 -0.007381049 0.017063139 -0.012086463 0.015292367 0.006175848 0.01825411
pull -0.054229498 0.03332492 0.03352485 0.010458884 -0.0024897757 0.018084545 -0.0029578712 -0.016382515 -0.08486478 -0.03551615
finally -0.024976164 0.02510564 -0.021235129 0.019559847 0.0117750885 0.04811407 0.036346395 0.048811983 -0.033541333 -0.004695052
maybe -0.025869047 0.033481102 0.029927978 0.015723873 -0.008590867 -0.040110074 -0.04087256 -0.0108212605 -0.06391628 0.0031233311
watchlist 0.03913971 0.015646277 -0.01573583 -0.02418974 -0.0062928637 -0.04267062 -0.03576311 -0.002035107 -0.011424067 -0.007678851
boosts -0.023794606 0.01432621 0.03745849 -0.04279449 -0.03169762 0.03750566 0.01812514 0.0015598999 -0.014715405 -0.030530816
output -0.029074116 0.0005007011 -0.01165483 0.019632353 -0.032320786 0.052262105 -0.024496356 0.04233565 -0.021089055 -0.0015664693
@business 0.04308031 0.0030054285 -0.0032035904 -0.016117103 -0.045930453 -0.020214723 0.04259799 0.031929366 0.026076576 0.027149227
starbucks -0.01731718 0.014308734 -0.032728203 -0.023160059 -0.008684673 -0.00030556932 0.035108715 0.03008307 -0.07543611 -0.021434816
car 0.027400956 -0.040354516 -0.004983402 -0.040440682 0.03156267 -0.043947574 0.03186718 0.006717527 -0.017867925 0.0021969732
based -0.0034606303 -0.03971182 0.036753546 -0.0061844597 0.002274065 0.033364728 -0.022883086 0.005436701 -0.0167644 0.046575986
compete 0.042982407 0.014202704 0.025667446 -0.030715393 -0.005183007 -0.037073072 -0.0108888205 0.026860615 -0.00013112699 -0.0039050337
expected -0.012713629 0.012668356 -0.00157891 -0.018885328 -0.00027194017 -0.00794087 0.016074995 0.05184239 0.006345496 -0.012558099
number 0.021948654 -0.030746808 -0.033008017 0.006898388 -0.0031966714 0.0045086727 0.038840733 -0.031228889 -0.05274495 -0.037573755
trending -0.0059859985 -0.029758848 -0.0025677618 0.024713619 0.0022117468 0.0431427 -0.010036835 0.051547367 0.017105564 -0.00011181198
patents -0.039592404 -0.047486637 0.014780942 -0.029574439 0.018925227 0.023617502 0.0041138926 0.050972734 -0.03551391 -0.03041074
cars 0.026254727 0.021883218 -0.009071334 -0.05750005 0.030138176 -0.045797404 0.04289595 0.020513458 -0.012050266 0.045156147
growing 0.010815824 -0.044775166 0.028027369 -0.038224164 -0.057339896 0.05283204 0.014870727 0.031654492 -0.05241551 -0.001760482
problem 0.010046927 -0.045633387 -0.03679875 0.019685254 0.0018282959 -0.01643951 -0.04650598 -0.012194617 -0.0628597 0.007584891
future -0.049352042 -0.043741874 -0.035034083 -0.021825755 -0.012927645 -0.037522003 0.005486008 -0.025031054 -0.0662361 0.039904423
curious 0.02306155 -0.020826451 0.015161468 0.037263148 -0.021310214 -0.012413426 -0.028247008 0.01583062 0.02651002 -0.03120348
rumors 0.021263443 0.013645842 0.00016300518 -0.037966568 0.01653486 -0.03982196 -0.014920164 0.04565806 0.004299395 -0.014155033
held 0.022389822 -0.008003058 -0.00249951 0.008958476 -0.020779192 0.02502591 0.019273423 0.048989773 -0.05576227 -0.00016978932
avg 0.013039884 0.0043846136 0.04187718 -0.022378724 0.031668015 -0.016334483 0.015539914 0.050527357 -0.060312778 -0.011487333
data -0.023131497 0.047904644 -0.03998532 0.023762342 0.020212065 -0.027096359 0.029981228 -0.02827282 -0.016168782 0.0144094275
ownership 0.013214244 0.043750737 -0.022100775 -0.02277591 -0.051283322 -0.00749249 0.047019545 -0.041007377 -0.0070999847 -0.036556937
actually 0.034565587 0.046424504 0.018981026 0.020808382 0.0124862315 -0.04453794 0.022493066 0.038954005 -0.06466824 -0.01157965
maker -0.018302554 -0.005240903 -0.040406547 0.002608544 -0.0018480126 0.022240419 -0.029938614 0.021765156 -0.0033467207 0.027792936
ibm 0.028003518 -0.03190883 -0.0020872147 -0.045527037 0.032331944 -0.028187258 -0.00067587773 0.015299586 -0.05047433 -0.012409143
picks 0.02287525 -0.04487763 0.037978377 0.0369183 -0.019724142 -0.020472972 0.03748067 -8.8970555e-06 0.02317668 0.04700052
parkervision 0.005465194 0.0034885057 0.005361664 0.042711716 0.042460624 -0.02901951 -0.033447467 0.0255219 -0.032930892 0.0008094283
aggressive -0.028282644 0.0018125837 -0.037972976 0.009253332 -0.015078165 -0.046137456 -0.028116368 0.051812667 0.04252077 -0.015120301
poised 0.023520635 -0.006802341 -0.00636295 -0.03764683 -0.014682459 0.0014549154 -0.025637036 -0.02288397 -0.044479437 -0.0040934547
pips 0.0037921697 -0.026767675 -0.010208483 0.03373578 -0.018682184 -0.0042414116 0.015624489 -0.016595377 0.021665929 -0.034153946
months 0.011343283 0.0103649795 0.03734614 -0.026380781 -0.022947961 -0.015692824 0.019674359 0.03269307 -0.061975226 -0.023005322
losses 0.03737128 -0.034436584 0.0012735581 0.024143161 -0.03704317 0.038948137 -0.024162026 0.034272596 0.024661515 -0.024592744
game 0.03684609 0.019204652 -0.001222547 -0.03948657 -0.009285628 0.042372253 -0.028924003 0.0075545833 0.011148396 -0.042974703
sounds 0.0078001944 0.003142035 0.018132208 0.012885534 -0.02832998 0.02090339 0.037803404 0.03522362 0.026498074 -0.010205375
weekend 0.021686258 0.036814798 -0.038891487 0.03094455 0.038889952 -0.030903794 0.0019107411 -0.009716447 -0.024623347 -0.0024128421
bb 0.019854162 0.01220832 0.00047536977 0.028319294 -0.032073956 -0.004042161 0.035179164 0.051208254 -0.029560715 -0.011530882
tight -0.049846448 -0.02064407 0.030317033 0.024395697 -0.0482612 0.02236204 -0.019043848 -0.018536095 -0.00083681266 -0.03912532
analysts 0.01957592 0.029778566 0.0025631865 0.009859262 -0.02654641 0.027949387 0.034469824 -0.020593658 -0.040426284 -0.01043375
leading -0.0015519948 0.0143981725 0.014528712 0.0004630868 0.02768831 -0.044158354 -0.02856484 -0.044313397 0.023195412 0.045266833
working 0.043100137 0.04090362 0.05318894 0.02390262 -0.021517612 -0.011029381 0.015441206 0.02994606 0.012595971 0.034727085
eyeing -0.03493811 -0.03213857 0.017316082 0.017997177 -0.056966405 0.03375575 -0.009547211 0.051241826 -0.054157432 -0.040389836
excited 0.025500048 0.026044916 -0.027495084 -0.014881949 -0.016128104 -0.03726186 0.03689379 0.03824483 0.021886803 -0.047911454
#apple 0.001156348 -0.0027881917 0.016036063 -0.009165189 0.04012507 -0.016527144 0.018033434 -0.04002478 -0.00036147627 0.014522178
trade; 0.034138888 0.032285865 0.031351447 -0.018434264 0.011182638 -0.02304666 -0.03573019 0.038184367 0.018503215 -0.03598364
nears 0.012275809 -0.009953473 -0.026435563 -0.05332281 -0.017909013 -0.031682674 0.013878653 0.022002866 -0.056586977 -0.010792134
thinks 0.014532438 0.03543334 -0.035047367 0.00019555894 -0.0002276237 0.039342932 -0.011005248 0.05271877 -0.030412482 0.014270153
pay -0.006651077 0.04284806 -0.036335483 -0.0543802 0.009118247 0.03718068 -0.035037406 0.00651987 -0.013195072 0.038080867
div -0.05041123 0.0033232204 0.009930737 -0.042039897 -0.052623313 0.019718027 0.046821292 0.013842115 -0.036992542 -0.011630351
financial 0.0011198948 0.0112528885 -0.030750634 0.02515258 0.039404072 0.016022714 0.026045946 0.04209131 -0.056548685 0.027966514
flag -0.03322722 -0.002957814 0.022391643 -0.054618433 -0.036562707 -0.034050368 -0.041160412 0.009136269 -0.019453214 -0.04564825
lung 0.011247729 -0.041229635 0.046514828 -0.043027345 -0.050585885 0.0025849333 -0.02061007 0.026806684 0.003152076 -0.0008011868
touch 0.020095535 -0.037323058 0.052783076 0.011614592 -0.00806898 0.017193178 -0.03430345 0.0076350635 -0.022551587 -0.008391294
love 0.00908309 -0.0009229169 0.025657373 0.03451992 0.01426131 -0.03588136 -0.009684979 0.022508428 -0.049223687 -0.0062189815
ur -0.035997402 -0.01871152 0.054466754 -0.0126482695 0.029059146 0.028757097 0.023560232 0.014973594 -0.026939027 0.011000785
NN; -0.039647378 -0.005843527 0.027018651 -0.04229463 -0.02175198 -0.043624423 -0.026252815 -0.013786091 0.011271755 0.037089434
net 0.037289776 -0.04763799 -0.02584933 -0.04411532 0.024755958 -0.041103177 0.026066313 0.0015218669 -0.009494614 -0.042633157
wonder -0.043418016 0.037461758 0.025533434 -0.062433504 -0.045311514 0.0067467988 0.03621585 0.008130028 -0.06765319 -0.00601141
overtake -0.041233502 0.012798651 -0.012943557 0.0061805374 0.032270916 -0.015858272 0.023567155 0.047951918 -0.015627826 -0.028009482
largest -0.011638486 -0.010318261 -0.011451787 -0.06699636 -0.014578206 0.04464279 -0.0038465154 0.0152606275 -0.051759902 0.012304469
gaming -5.4002972e-05 -0.04909671 0.062491506 -0.046869256 0.027306503 -0.007694382 0.025537714 -0.0139040835 -0.051936455 -0.04751294
europe 0.0021469474 0.03440388 -0.0046073743 -0.010211377 0.016841093 -0.030173494 -0.0003136571 -0.0355912 0.0021551265 0.0312909
stuff 0.02794837 -0.033359934 -0.033791125 -0.04644912 0.025668971 -0.010309043 0.04504849 0.050121088 0.009609079 0.03250384
flat -0.0056732977 -0.016694207 -0.028660914 -0.033043355 -0.05376582 0.020766823 0.034735333 -0.03738593 -0.044415977 -0.009622878
[RR] -0.012968114 0.019984739 -8.80243e-05 0.033483986 -0.0063966746 -0.014512128 0.003844315 0.017711492 -0.05393937 0.022919685
something -0.038980573 -0.03085084 -0.034481693 -0.018707445 0.021502545 -0.01823275 0.00055185024 0.035434145 -0.011359131 -0.034634005
massive -0.013511088 -0.0028015482 -0.008910777 -0.03620812 0.013006778 -0.0024018511 -0.00522408 0.030030679 -0.043243457 -0.04407895
candle -0.018135091 0.029536473 0.05104871 -0.0562072 -0.0056711948 0.02930995 -0.024950303 -0.026465496 -0.06886526 -0.03619712
moves 0.037402544 -0.026683273 0.005539432 -0.0001258179 -0.05951298 0.04274091 0.00477794 -0.003906202 -0.04843617 -0.02041156
hoping -0.058768433 -0.034929264 -0.020369535 -0.047952943 0.020897575 -0.0031937922 0.029144406 0.041030288 0.016699102 0.03536381
nasdaq -0.046309736 -0.018165467 -0.021416424 -0.031779084 0.007998359 -0.025632577 0.032690033 0.051602863 -0.010338749 0.04894206
float -0.006379025 0.04417614 0.048547424 -0.007907641 0.030670416 0.031526398 0.004484554 0.013154149 -0.008328499 0.025852477
continues 0.010873177 0.023346763 -0.0114625385 -0.008439334 -0.0046776985 -0.028630363 -0.042134903 0.02032377 -0.07042929 -0.029811097
downside 0.04362834 0.0036951343 0.013815035 -0.021740172 -0.030477185 -0.0477803 0.013648569 0.03792426 -0.021189814 0.02165204
far 0.03166715 0.02899086 -0.00668915 -0.016387714 0.002643982 0.01646516 0.009882447 0.011431076 -0.062051766 -0.017409492
positions -0.03277495 -0.018443257 -0.01763691 0.029211892 0.026150195 0.03542554 0.0033993598 0.026465641 -0.053587355 0.049485635
@reformedbroker 0.00539865 -0.025222179 -0.0067800893 0.0019493632 0.047784477 -0.034830514 -0.0049710996 -0.041340042 0.03946606 -0.019394968
analyst -0.0077905194 -0.03298047 -0.0068588965 -0.049048424 -0.0073530213 0.0014447335 -0.03901004 -0.04569916 -0.057452526 -0.014908278
accumulation -0.037274312 -0.028071309 0.00022269995 -0.016738622 -0.015942253 -0.041835416 -0.001652124 0.042658925 0.015210546 0.043441184
interesting 0.028866298 -0.046301004 0.02398364 0.027508833 0.04520606 -0.022901792 -0.009367663 -0.019660234 0.028691847 -0.03754623
starting 0.030558899 -0.012946139 0.001437854 -0.05515167 -0.009492698 0.014393679 -0.04448746 -0.0033794711 -0.033275638 -0.0006789732
tonight -0.029176468 0.024095457 0.029827578 -0.01276321 -0.025841996 0.038634587 0.036823865 0.008836545 -0.071716115 0.04739879
lost 0.03437604 0.024620216 0.032310244 -0.015789237 -0.052163396 -0.017085169 -0.034195457 0.026463002 0.0127759725 -0.004124099
came -0.009984196 -0.017696083 -0.023599295 -0.026979186 -0.0471581 -0.04088946 -0.044151068 -0.022231441 0.011355235 -0.0022238633
ceo 0.03231482 0.035684552 0.00016963392 0.014698729 -0.005324416 0.04519048 -0.03326801 0.03191368 -0.013672325 -0.031083144
announcement 0.012976841 -0.010436867 -0.029656572 0.038498435 -0.028641924 0.044766713 0.045162264 -0.022429835 -0.011168052 0.008983282
etc -0.006655888 0.042673953 0.009512428 -0.02639722 -0.028397517 -0.038183447 -0.039162904 -0.0112267025 -0.059679225 -0.025722602
please 0.035445936 0.024512192 -0.021369739 -0.03814258 0.030741224 -0.044938616 -0.0020329368 0.015445778 -0.059376825 -0.018251836
else -0.02181312 0.03608209 -0.013934884 -0.042655572 -0.033700947 -0.022228898 -0.036624037 0.03923854 0.00040689769 -0.01155576
pain -0.031963203 -0.049727224 -0.014091389 -0.0033962082 0.023429176 0.04283163 -0.014012697 0.025323886 -0.022860635 0.008125639
favorite -0.012805948 -0.03960176 0.021157812 -0.03204032 0.028798912 -0.03863648 0.012202838 0.010671534 -0.05502815 -0.043343473
patience 0.026862647 -0.00784217 -0.015651558 0.012628442 -0.038923144 -0.047520615 0.034150455 0.021742856 0.014496893 -0.032855175
sign -0.00042405742 -0.036259018 -0.037451137 -0.037995744 0.02217596 -0.041580446 0.007253393 0.01623345 -0.05639436 0.027742766
surge -0.02060438 0.028844459 0.014044997 0.02244213 -0.029148355 0.011290956 -0.0024579752 0.045127366 -0.021927405 0.031101866
gtim -0.03376451 0.0143958 0.017373888 0.00199563 -0.028317366 -0.032870896 -0.027390853 -0.023201747 -0.018376356 0.048837956
redf -0.03895705 -0.018475348 0.03610028 -0.036591277 -0.0022861552 0.033752512 -0.030469341 -0.047786538 -0.039450593 0.021388305
relatively -0.02665945 0.029110495 0.039180465 -0.011784079 -0.017893575 0.049622342 0.0020996 -0.031279065 -0.027870664 -0.04552876
broad -0.01828217 -0.04639516 0.05952057 0.00094113755 -0.0011067893 -0.003585004 -0.0018221139 0.01901286 -0.08018642 -0.03662853
ipo -0.00064335775 -0.018099695 0.035799887 0.018286603 0.009502212 -0.038130708 0.02745044 0.054507695 -0.00045881627 -0.04090607
fear 0.03421698 -0.013666736 0.0010338263 -0.006966332 -0.043409936 0.023722362 0.008007651 0.05314493 -0.0021291054 0.022968933
push -0.0012738829 -0.044834662 -0.021476544 -0.037530154 -0.008936407 0.03984802 0.01974487 0.028315634 -0.03104649 -0.026610125
crisis 0.036637757 0.01642057 0.018242396 0.024920799 0.010460582 0.05378635 -0.04379612 -0.02632255 -0.010418933 0.043809816
entered 0.031804323 0.015847754 0.051056344 -0.032461915 0.023737893 0.038462605 -0.020641353 0.028578214 0.008455971 -0.040584177
dangerous -0.037372056 0.023413092 -0.019769441 -0.04670957 0.023595003 0.047481757 0.018747184 0.0009141415 -0.05349812 -0.042264756
stay -0.029170057 -0.0023169764 0.010614318 -0.0337749 0.040367004 0.04492223 0.013082687 -0.03368654 -0.001879562 0.013113146
soars 0.03062926 -0.040374868 0.014265013 -0.055803288 0.0074601397 -0.02959138 0.022667198 -0.031311605 0.019318895 0.018030398
stake -0.011136103 -0.048789192 -0.03564699 -0.03503557 -0.027661627 0.012364141 -0.047414497 0.0370796 0.009517985 -0.006522961
crazy 0.034540523 -0.019650351 0.033665646 -0.04988368 -0.027080532 -0.03837294 0.021803794 0.0495685 -0.043361317 -0.0070951423
metal 0.012010727 -0.012593485 -0.016442036 -0.06276028 0.006965962 -0.03379078 -0.027013324 0.007871613 -0.00938178 -0.010371216
lead -0.028108155 4.184269e-05 -0.020222034 -0.058997106 0.03572307 0.011069922 0.040788427 0.041075245 -0.00927962 0.046284467
april -0.036604077 0.016034188 -0.0040697693 -0.038267467 -0.013607833 0.021012193 0.038352773 -0.036195565 -0.029720178 -0.042112093
head 0.0018248723 0.014207692 -0.028224878 0.030062698 0.0307741 0.034151938 0.03594271 0.033954438 0.017601531 0.0053400635
triggers 0.03537678 0.040053938 0.0545695 -0.032948058 -0.016150907 -0.036029775 -0.0058102077 -0.011945763 -0.0347863 -0.046757143
november -0.031184312 -0.00023846929 0.037603892 -0.066817865 -0.00593889 -0.03018579 -0.016906222 0.009576014 -0.057780586 -0.038706847
catalyst -0.035452276 -0.0015221428 0.023716701 0.019011758 -0.038355827 -0.00471139 0.009313351 -0.011928149 -0.042888068 -0.023155706
everything -0.003276923 -0.025461422 0.023005117 -0.05368781 -0.015044103 -0.023524176 0.017356632 -0.04067965 -0.030181449 -0.0161514
bet 0.039039504 0.007313253 0.0078002424 -0.04492413 0.015347757 -0.020010449 0.039588686 -0.03263423 -0.06285884 0.017747711
many -0.039274983 0.033461414 0.03556981 0.015906869 -0.040862318 -0.016211651 0.046976775 -0.04274956 -0.030404337 -0.03492726
sma 0.0077965544 0.019965941 -0.014485362 -0.02903151 0.038242403 -0.045974895 -0.012212608 -0.031986237 -0.029940505 0.009292367
blackberry 0.0010744699 -0.020089492 0.040584624 -0.011155342 -0.012131815 -0.021117356 0.043272372 -0.016070165 0.025630932 0.0354552
yeah -0.018777493 -0.0016407857 0.04650603 -0.06435744 -0.0222627 0.050017923 -0.017917585 0.037453048 -0.07265386 0.024865786
versus -0.050786693 -0.050374772 0.06169525 -0.01880124 0.009003339 0.0307097 0.02524168 0.02456784 -0.005750222 0.021365942
pig 0.0060726767 0.036069017 0.05697814 -0.019188406 0.0052355286 0.010770911 -0.02802444 -0.0045919945 -0.0117949555 0.010602619
loyalty 0.02068004 0.035182558 0.022673544 -0.070246585 -0.012157742 0.05153313 -0.014150465 0.039808184 -0.02597768 -0.022071544
study 0.007016201 0.04372155 -0.03783376 -0.04388779 0.043202683 -0.01172918 -0.029616216 -0.0030753075 -0.00074955745 0.003942205
groups -0.03551434 -0.049904846 4.2238782e-05 -0.013509721 -0.04080517 -0.008057684 -0.0166848 0.0076079 0.016181448 -0.050780565
want 0.01420812 -0.01650396 0.0038878303 0.0049037402 -0.049415704 0.024859093 0.040047932 0.025408259 -0.05294439 0.004358388
left -0.01847914 -0.026942594 0.02999723 -0.028910274 -0.0140244495 -0.012429246 -0.04091122 -0.011364108 -0.010889732 -0.027041797
blame 0.018455895 -0.03228658 0.033616778 -0.04364944 -0.02349636 -0.012696079 -0.012170478 -0.028886905 0.014485003 0.004583897
profits 0.03396567 -0.03668715 0.007738303 0.016888715 -0.051803507 4.3912296e-06 -0.03842625 -0.012881422 -0.0025067176 -0.045089167
pos -0.049751617 0.013072949 0.037360247 -0.006525299 0.036178753 0.033430003 -0.03489514 -0.01123285 -0.0653814 -0.029564954
acquisition -0.028656406 -0.014410923 -0.0011958691 0.028476777 -0.007103879 -0.0032125225 -0.0021780557 0.047647372 -0.003831474 0.0001108658
NNcc -0.040644694 -0.015414363 0.00083227735 0.020637598 0.0056336713 0.004029811 -0.0032104822 -0.003112798 -0.008572933 -0.00083483267
nothing -0.038347486 -0.0071184384 0.0115457345 -0.025550665 -0.012003597 0.027706288 0.0026416832 -0.0330797 -0.023819795 -0.029904919
spread -0.040573474 0.038368825 0.056605965 -0.03246235 0.006574636 0.020671485 0.036655292 0.04107825 0.019007038 0.011599025
led -0.00773368 0.0371523 0.04265234 0.0023880817 -0.04411361 -0.0064883707 0.0011658241 0.009114663 -0.026778173 -0.004170437
bulb 0.009309496 -0.015385417 -0.022917915 -0.025017655 -0.049092002 -0.007048068 -0.048082806 0.01515389 -0.046247616 -0.04076858
remains -0.044084735 -0.0040328726 0.016709235 -0.004677758 0.007632465 -0.03774262 -0.029866265 -0.04358153 -0.04552474 -0.02397702
clear -0.020689469 -0.025838586 0.0068639074 -0.03292496 -0.03145664 0.05053439 -0.030514862 -0.01120208 -0.010624563 0.045993116
NNday 0.028407509 -0.023666997 0.044106513 -0.053215563 0.023069905 0.029070662 0.049881008 -0.04100636 -0.03762831 -0.047910295
oversold -0.018075109 0.025119187 -0.0019241442 0.034822866 0.04212671 -0.041944228 0.02150671 0.037845615 -0.0073083467 -0.019649941
decent 0.012108816 -0.03958265 -0.030453742 0.022727706 0.016690353 -0.0100531895 0.021939147 0.03488213 0.0029043325 0.005837004
co -0.0479931 0.00079343194 0.011195879 -0.01567688 0.020943478 0.0049835932 0.008377425 -0.010101151 -0.024786854 -0.005670322
key -0.040080573 -0.030930217 0.015040604 -0.039654892 0.044599336 -0.04716151 -0.0065819514 -0.0055625318 0.010906721 0.018294258
goods 0.013172488 0.038965136 0.0261309 -0.029815724 -0.028890215 -0.018867671 0.0039784247 -0.013800467 0.027176933 -0.00041454364
luv -0.03726847 -0.0153873535 -0.004596301 0.018929958 -0.0012200311 -0.03423962 0.03274537 -0.03360734 -0.020923426 -0.034329377
went -0.01217865 -0.043042906 -0.0043419786 0.026934294 -0.030265655 -0.026521625 -0.019090852 0.015966065 -0.0420816 -0.009278106
likely -0.035605066 0.016525192 -0.033499807 -0.029089086 -0.0008759311 -0.022239171 0.023672087 0.021571582 -0.05040777 -0.013592628
bank 0.010210439 0.0018164829 -0.011628081 0.009485194 -0.023862997 -0.039755493 0.04352213 -0.017005911 -0.055073235 -0.03349037
multi 0.03235184 0.0057383836 -0.018691642 -0.05470377 -0.044758826 -0.045015313 -0.029797144 0.0086757215 -0.016327767 0.040799417
almost 0.024556417 0.0017728974 0.0336588 -0.024248801 -0.0033403994 -0.0076436144 -0.00818944 -0.023547329 -0.02957768 0.015667113
board -0.017615302 -0.0080273915 0.035965867 0.030919101 -0.040687487 0.0049580685 -0.024644524 -0.04117862 -0.07696464 -0.034996394
engulfing -0.052130025 -0.013455165 0.016959721 -0.041488856 -0.02059333 0.03910737 -0.032852564 -0.038430817 -0.019036755 -0.026831012
white 0.039334618 0.006241517 -0.009805451 -0.041160136 0.010041035 0.022661796 -0.019559825 0.046724938 -0.02282674 -0.020352397
tuesday -0.045897163 -0.036570422 -0.03744347 -0.054277636 -0.009276124 -0.010052564 0.003512909 -0.03402733 -0.050573137 0.023157079
buys 0.012014899 -0.01462156 0.05795072 0.01789356 -0.02473107 -0.020020675 -0.013064535 0.031789284 -0.005599572 -0.04827505
hours -0.03569767 -0.018632064 0.008788202 -0.045063183 0.010135797 -0.023363154 0.04142304 -0.017212361 -0.02673339 0.032058973
anything -0.008567726 0.0013060268 -0.014356867 -0.029878382 -0.020204987 -0.026002172 0.025847275 -0.0028681285 -0.034844395 0.003175864
mentioned -0.018636793 0.040838882 -0.019780459 -0.0051677567 -0.017358646 -0.008357635 0.043011043 -0.0049101743 -0.06489341 -0.048526976
upgrade 0.026377592 0.0029266775 0.062134244 -0.053819377 -0.054201152 0.015090905 0.01974279 0.0099307755 -0.025338909 0.039471854
option -0.017192878 0.029163266 0.015965736 -0.06226161 -0.00086787646 -0.03864259 0.00015748129 -0.002462352 -0.0643111 0.010123761
inside -0.027858881 -0.008367832 0.052546497 0.033560835 0.02709661 0.025250327 0.00815821 0.027557839 -0.019510694 0.0161058
equity -0.04744178 -0.037627317 -0.001737956 -0.013993875 -0.009165461 -0.02169514 0.00058082555 -0.010195547 -0.019408805 -0.034306705
#cnbc 0.031166932 -0.006604782 -0.010241474 -0.031511996 -0.012362844 0.04727559 0.033734143 0.053126693 -0.08175047 -0.020143937
monthly 0.030647587 -0.035244107 0.041354112 0.011392033 0.034992196 -0.039731655 0.024255332 -0.031861432 0.023989836 0.025561709
etfs 0.017137198 0.041483477 -0.031158047 -0.047854826 -0.040813472 -0.000313107 -0.03641547 -0.0021732268 -0.0550045 -0.04271145
drugs 0.0395813 0.019757302 0.04985344 0.008348908 -0.02767509 0.04845571 -0.002966178 -0.013963011 -0.028719697 0.018623501
retest -0.04572084 0.0057486016 0.0057797716 0.035220202 0.014385048 -0.011266898 -0.008678855 0.0315164 0.016741686 -0.031437878
aapl -0.024042107 0.03697028 -0.005741084 -0.0070754094 0.031944133 0.02764243 -0.03148481 0.035288535 0.033312507 0.0315177
descending -0.015273097 -0.037966 0.04355767 -0.012873877 -0.013579184 -0.010215295 -0.038520277 0.03355548 -0.062899455 0.022781193
ratio 0.03154694 -0.0139856 0.008952754 -0.05867317 0.036832485 -0.03378195 -0.0010503626 0.036353763 -0.037650667 0.008939368
pattern -0.007019832 0.0017000085 0.023566384 0.033254113 0.0020722507 -0.03677436 -0.035533957 0.013432515 -0.026607476 -0.04292583
#stockmarket -0.050083693 -0.046336785 -0.02696696 0.018562166 -0.048016068 0.04775047 -0.037752964 0.0015154623 -0.026658237 -0.02315326
@barronsonline -0.039158855 -0.0042165755 -0.00705525 -0.027297454 -0.026576173 -0.022974499 -0.026383143 -0.03216712 -0.0565502 0.039197817
pie -0.024622628 0.048278574 0.0004870007 0.032544088 0.020156536 0.00260623 -0.030333186 -0.015206788 -0.018651085 0.016117275
sky -0.027771072 0.048079938 0.04969006 -0.041577537 -0.051466227 -0.005024208 0.046283077 -0.03315769 -0.04030223 -0.0059343716
NNs 0.029636495 -0.022821281 0.054325223 -0.01729121 0.030847594 -0.027769899 0.0012751624 0.028242357 -0.0007030333 0.033776868
advertisers -0.022572095 -0.027461205 -0.028178161 -0.062212225 0.041476946 -0.0039981673 -0.024867736 0.038936876 -0.0072086644 0.016725257
dips 0.041417953 0.028098477 -0.03976365 -0.010945715 -0.0029641907 -0.008819444 -0.013606291 0.024475412 -0.034332313 0.008590259
foods 0.0023720528 -0.0025656766 0.0009035403 -0.040365297 -0.011471057 -0.022973886 0.012836397 -0.03266189 0.032198146 -0.021801922
wise -0.043459233 0.031503193 0.0012868204 0.024313234 -0.009033226 -0.025348619 -0.03599614 -0.015516735 0.029320745 0.03368945
making -0.049875874 0.023586461 0.03127963 0.038884785 0.041937374 -0.01869728 -0.008961795 0.0023600943 -0.027950745 0.01765966
reason -0.028583605 -0.0023976925 0.012325273 -0.053047895 -0.017426953 0.038798332 -0.019104572 0.0009274383 -0.058528606 0.042992003
r/g 0.0352686 0.042565305 -0.03489533 -0.04930605 -0.010632676 -0.009147371 -0.04935782 0.038562052 -0.02342569 -0.036934562
alphabet 0.017727837 -0.006288795 -0.042521752 -0.0090825185 -0.007327718 0.002386554 0.049347155 -0.005141593 -0.048031684 -0.024127504
#investors -0.016537467 -0.043629806 -0.005634424 0.01859091 -0.030382987 0.0068376 0.016037103 0.0036456878 0.004153058 -0.047267713
investor 0.03815544 -0.05061032 -0.018527696 -0.04173523 -0.03247407 0.02543898 0.033274226 -0.0036205074 0.01862294 0.032207735
costco -0.013817675 0.032511353 -0.01625492 0.03255246 -0.03187958 0.0028259237 -0.037303377 -0.016772775 0.022729458 0.04640547
corp -0.019679878 0.020167883 -0.04257642 -0.002061499 -0.031393077 -0.04626844 0.025107503 0.043444734 0.0042724162 -0.009268503
ss -0.033273548 0.0025136075 -0.017840303 0.006471512 0.020965176 -0.044463165 -0.0058218637 -0.047324643 0.026457155 -0.027974797
timing -0.016747883 -0.024069214 0.020009898 0.00839517 -0.010279636 -0.011723899 -0.0044048624 -0.033038955 -0.043817844 0.003554125
profit -0.03478795 0.02313584 0.045206197 -0.028576693 0.0017938033 0.026475428 0.013575418 -0.016717568 -0.013771442 -0.0054896194
valuation -0.025234707 0.026285676 -0.015106682 0.0045890324 0.020646347 0.031187654 0.03268504 0.026277747 -0.017000254 -0.025066238
targets 0.03658186 -0.022487812 -0.0011225957 0.002708118 -0.008330473 0.047230404 0.015378736 -0.004735599 -0.03592991 -0.005508988
took 0.030562846 0.023446623 -0.022067131 -0.04012744 -0.03331971 -0.00280211 0.03233057 0.04124244 -0.02466332 -0.03848259
increase -0.016601812 0.027291263 0.02324466 0.014740963 -0.034187376 -0.0041170795 -0.010062429 0.031561825 0.02205947 -0.012968885
#fastmoneyespresso -0.0056049046 -0.025116727 -0.028196707 -0.025950953 0.04129139 -0.044971928 0.032661807 0.040132925 0.024791613 0.0054844148
final -0.020203998 0.023185235 -0.0061508915 -0.013057195 0.026097383 -0.006279128 0.02319531 0.047591683 -0.024912242 0.002249343
pete 0.039215166 0.048923947 0.025862576 -0.03331799 0.028698865 0.0061298246 -0.018804768 0.04708834 0.02845265 -0.01316304
najarian -0.025809664 -0.035502937 0.048960783 -0.031319633 -0.021034148 -0.030222612 -0.038070086 0.0047012786 0.0011369957 0.014920877
brian -0.04071366 0.047890875 -0.04304395 -0.034400053 0.010184176 0.017857306 -0.012321555 0.030637939 -0.035703756 0.01218717
kelly 0.04010849 0.02213485 0.0447716 -0.0044495114 0.020037474 0.050163064 -0.008580095 -0.015644884 -0.0027960977 0.030449353
karen -0.03282901 -0.02357197 -0.02593375 0.03196824 0.002961092 0.011259693 0.04282679 -0.00805776 -0.0015377029 0.018120002
finerman 0.027748153 0.041855354 0.042305067 -0.043252435 0.02740388 0.039269924 0.027314043 -0.0008779693 -0.014146181 -0.008706775
adami 0.026380023 0.03978744 -0.037451833 -0.022866864 0.02569152 0.044223443 -0.04296549 0.018236015 0.018054482 0.041444864
believe 0.0036974098 0.018736627 -0.025119638 -0.037848268 0.028892575 0.030141765 -0.042431854 0.035609316 -0.046711285 0.042711347
marriott -0.010841845 0.027412688 -0.0013585114 -0.007091844 0.024880333 0.051721726 -0.033467595 0.038991313 -0.019816918 -0.035232604
awaits -0.055891123 0.037141904 -0.042898163 -0.0350818 0.0004292086 -0.007967941 -0.048799787 -0.02151369 -0.010695852 -0.04315721
• -0.0017772176 0.01046582 -0.021987006 -0.008216444 0.036619607 -0.021037059 -0.032506805 0.03314742 0.0033168164 -0.035231583
demand -0.00083457335 0.01244112 0.04963002 0.002781301 -0.0013273123 0.0067926566 0.01671404 0.001429075 0.029569397 -0.03349773
per -0.041186113 0.0070889634 -0.0039176205 -0.0563022 -0.04937447 -0.0110459095 -0.022125449 0.02944662 0.012769604 0.029365001
branch 0.010110822 0.038016103 0.008489624 -0.0071838545 0.014584003 -0.0059108683 -0.04304605 -0.0037281052 -0.036858983 0.0034067899
medicine 0.04047299 -0.034983035 0.043180216 -0.020160573 0.042875633 -0.043541543 -0.024107838 -0.013252748 -0.0025119456 -0.033334695
producing 0.0030554803 -0.005607135 0.035499543 0.029030478 -0.026376702 0.02924219 -0.00755917 0.04168226 0.010957608 -0.029951967
impressive -0.010071719 -0.030599559 0.04550713 0.02180313 -0.021199463 0.0013995755 0.019020036 -0.04076081 -0.01948364 0.009937327
@thestreet 0.023015963 0.009761668 0.045171462 -0.019218886 0.031218857 -0.03191627 -0.003060665 -0.046510532 -0.03308713 -0.008397219
visit -0.02649623 -0.0068662353 0.03726154 -0.0019169663 0.04496458 -0.030147493 -0.021503644 -0.018035932 0.00025284218 0.04740986
jim -0.031873517 0.036613185 -0.029079068 -0.016908402 -0.030709427 0.009920986 -0.00439291 -0.0182174 0.014312396 -0.0031575328
cramer -0.0025949737 0.04206114 -0.008791106 -0.051701665 -0.024226153 0.031439044 0.0035483195 0.020790545 -0.05010837 0.016085396
cisco -0.026377605 -0.034816455 -0.010437318 -0.034893326 -0.0011868498 0.040309064 -0.028349876 0.00035354067 0.01732432 -0.04473208
broken 0.036420874 -0.012062106 0.021708237 -0.026722297 0.015341304 0.023928804 -0.023360893 -0.045459945 -0.038756225 0.022719007
test 0.021323455 0.018914672 0.054933853 -0.0048212497 0.04413322 0.0022504164 -0.03528794 -0.01013583 -0.040040188 -0.0071868696
kicks 0.03230603 -0.020667152 0.042528793 -0.03544987 -0.040176682 0.04964984 -0.044426367 0.037177593 -0.025347045 -0.021924209
expectations -0.0045470763 0.029041255 -0.01908445 -0.020304633 -0.01969574 -0.015901912 -0.04315206 0.027514577 -0.027065879 -0.0027464677
james -0.004328153 0.038445704 0.013587355 0.014713265 -0.042539783 0.013707766 -0.0074253846 -0.0030439794 -0.026435511 0.030430285
monday -0.0042936997 -0.02077916 0.02884142 0.03878868 -0.032301754 0.0025038116 0.004441477 -0.011563372 -0.050336495 0.03320706
partnership 0.027595269 0.008592576 0.03812612 0.006895297 0.024872158 -0.04578155 -0.020118305 0.049886923 -0.05693644 -0.048439663
tues -0.05202109 0.03256035 -0.0045073703 0.025992585 -0.011005487 -0.013001442 0.0065595126 0.029631093 -0.039386448 0.03063974
catch -0.011897825 0.0045235404 -0.033864107 0.017327663 0.00084611634 0.022866111 -0.027075749 0.026484853 -0.037415244 0.039599467
beating 0.0005627952 -0.025766473 -0.0034718954 -0.02107469 0.030055901 -0.041781012 -0.049161762 0.025685096 -0.037378166 0.008348345
globally 0.0019434122 -0.026840655 0.04070516 -0.008882345 -0.045187306 -0.03837265 0.015184895 0.022755701 -0.009990183 -0.032497346
mail 0.0017698578 -0.018777413 0.008327265 -0.047304396 0.026570013 -0.006546297 0.044903822 0.0019141017 -0.054326173 0.003759096
general 0.026371472 0.009138385 0.016580064 -0.022618763 -0.029336551 -0.017587097 0.047263008 -0.03574742 -0.051099062 -0.005679486
trust -0.010247795 -0.01540046 -0.022973208 -0.0035771336 -0.01789482 0.02359647 0.028557584 -0.009450442 -0.05523785 0.04494756
flyers -0.017200505 0.0055439966 0.023864232 -0.035238806 -0.020630449 -0.04440618 0.0044915974 -0.032535974 0.022899939 0.033053514
isolationism 0.010714323 -0.02088447 0.026634885 -0.04136022 0.03661838 -0.031749178 -0.038370486 -0.03121365 0.0010716912 0.0077335425
qqq -0.04018732 0.025257962 -0.017232375 -0.028985355 0.01429801 -0.0019297855 -0.023711866 -0.04254931 -0.008802442 0.034670785
iwm -0.012616667 -0.034899686 0.04043439 0.0071730507 -0.04668636 -0.009587854 0.039020922 -0.014188733 -0.042837694 0.041761395
several -0.047565393 -0.007226671 -0.034073044 0.026975343 -0.009541876 0.029343527 -0.015343911 -0.024688747 -0.044280536 0.001676354
leads -0.019935092 -0.04587019 -0.009051201 -0.056191597 -0.021053111 0.014326331 -0.010300969 -0.0041375295 -0.06197696 0.009143693
saying -0.0045361887 0.045783304 -0.0136334915 -0.023708943 -0.032754414 -0.0053808475 -0.020878166 0.053764105 -0.012464219 0.030481428
#fintech 0.026028208 0.028961869 0.007104948 0.021310767 -0.04120395 -0.018732402 0.011714045 -0.045026187 -0.011751668 0.04891345
forward -0.04224724 0.038719658 0.05196514 -0.0022638016 0.00930478 -0.032864504 0.022348477 -0.019545805 0.005796429 0.0029122564
losing -0.027532177 0.0036192008 0.048449177 0.012835977 -0.013410314 -0.009417667 0.02912074 -0.031708498 -0.07227008 0.009315849
bit 0.025508566 -0.051082827 0.04983298 -0.03744744 0.014004642 0.010152155 0.039747424 0.01056296 0.016879108 0.039337065
helps -0.030518644 0.0179913 0.04840298 0.0005702929 0.026974311 -0.025743615 -0.025873661 -0.018050605 -0.041098695 -0.000932701
speculation -0.008192285 -0.038032442 -0.023544662 -0.032081626 0.046624284 -0.03272899 -0.005210375 0.01963268 0.03117701 -0.018261882
studyRR -0.003826648 0.022106797 0.011389385 -0.02182719 0.00044810493 -0.01390114 0.039792325 -0.04386562 0.022339901 0.028299559
filing -0.006234482 -0.0027669414 -0.034744218 0.041683543 -0.00016060268 -0.047157183 0.046870377 0.031222077 -0.042541936 -0.030616205
soros 0.01721139 -0.012703365 0.032105178 0.012471001 0.039974947 -0.03284296 -0.0047564306 0.038240526 -0.054867048 -0.023264516
icahn 0.041345857 0.030083446 0.04193892 -0.03472417 -0.017235538 0.017443825 -0.0108500905 0.0350874 0.008611824 0.021537282
et 0.03618232 0.036835257 0.035479933 -0.010756314 -0.017753579 0.05103772 -0.026463516 0.049228765 -0.010395939 -0.030552989
al -0.024302803 -0.03020159 -0.010489346 -0.045079835 -0.040647168 -0.035367407 0.045945365 -0.017855216 -0.04084444 0.018957185
signs -0.0041428977 -0.023683654 0.03665485 0.02939216 0.0101493625 -0.021733113 0.0017713448 -0.032855406 -0.024942696 0.007502527
eye 0.01291915 0.0027748588 0.02617582 0.0016506858 -0.021888113 -0.035381828 -0.018012356 0.039160013 0.027524464 -0.029250808
surprising 0.0072545866 0.02735092 0.047985483 -0.015904471 0.04058967 0.05190645 -0.016745709 -0.033455227 0.027336696 0.033856295
free -0.028035602 -0.04073487 -0.034889016 0.03872419 -0.05164007 -0.0055756373 -0.04528261 0.045738228 0.031322125 0.0075363573
check -0.01789923 -0.050192736 -0.036452502 -0.043468133 0.008301079 0.045910973 -0.003682214 0.007661257 -0.03198601 0.014013781
wall 0.001659904 -0.042221896 -0.020143714 0.007083314 0.012267157 -0.020354087 -0.014044739 0.035490923 0.00069206685 0.02683322
street 0.021505704 0.04075846 0.00026775151 -0.020434782 -0.008229487 0.028550558 -0.008867078 0.030367715 -0.016551308 0.007779878
rest -0.016761996 -0.005327041 -0.032188516 0.00094769377 0.02306101 -0.016740218 0.0324845 0.006691221 0.014026335 0.048252463
accumulating -0.042106245 -0.010251534 -0.03580902 0.0014266456 -0.042235024 0.0070664305 -0.040856943 -0.01861149 0.014018703 -0.011100681
pullback -0.0022887005 0.033324998 0.007668935 0.015057378 0.014492317 -0.023972606 0.04400915 0.041655917 -0.054415762 -0.044728953
bounced -0.030866282 -0.013041363 0.01920357 0.041775253 -0.036244866 -0.01221215 0.027033573 -0.0044381344 -0.032892834 0.02102418
thanks -0.007985722 0.013918923 -0.04012251 -0.056550745 -0.014315838 0.03364901 -0.03581157 0.012936816 -0.03104424 0.022493469
weakest 0.028768592 0.03672608 0.039462026 0.029716695 -0.026982443 0.036176555 -0.049818702 -0.026141053 0.02443079 -0.040243145
patent 0.037076153 0.018663013 0.0019934322 -0.01883328 0.015921492 0.03358339 -0.024263918 -0.010943957 -0.0034740123 0.02418928
case 0.032872505 0.036767114 0.011461335 0.023734491 0.04080748 -0.0050626867 0.0463986 -0.015765196 0.03894304 -0.032523837
insider -0.031131012 -0.021721967 0.053827472 -0.035308782 -0.051875807 0.011400652 -0.015985932 0.040757384 -0.04109273 -0.036449444
hopefully -0.020708596 0.034530118 -0.024602268 -0.0412102 -0.052906293 0.014335668 0.026385238 -0.024375984 0.033352256 0.0051862625
careful -0.03338159 -0.038090833 -0.027828395 -0.018493146 -0.0054457886 0.02122231 0.031186411 0.013606474 -0.003879741 -0.0029597369
topix -0.0036923178 -0.010844059 0.021075603 -0.019159302 0.018063663 0.01873393 -0.04393842 -0.006774008 -0.0034744646 0.045163304
intact 0.045208342 -0.0064309137 -0.007603801 0.01511465 0.040941034 -0.037559472 -0.039812267 0.030199515 -0.0015845518 -0.0063924254
oh -0.01847409 -0.03687834 0.05151589 -0.05179533 -0.036160544 -0.03152078 -0.023079347 -0.017693086 -0.029739125 -0.034234665
posted 0.030514918 -0.037880383 0.033645455 0.025521552 -0.04480952 0.03049858 -0.017701507 0.007967496 -0.0036886162 -0.02543931
NNstar -0.01643352 0.031821128 -0.017690545 -0.014566947 -0.02117018 0.036591668 -0.03680949 0.04072095 0.035996452 0.0046717194
reiterated -0.025094103 -0.006814754 0.008146351 -0.054564606 0.012476872 -0.002247201 -0.017708423 -0.042724278 -0.034181472 0.046600237
showing -0.036083996 -0.047021825 0.030884359 -0.022043418 -0.0036349862 -0.02710031 -0.0010686258 -0.008264034 -0.038297705 0.012135158
course 0.024068542 -0.011036433 0.03367749 -0.052558497 0.016539771 0.000987526 0.023762595 0.027734473 0.0054033776 0.016274506
read -0.006756432 -0.032685388 -0.013681631 -0.014672541 0.013278451 -0.01920392 -0.0029896235 0.040996447 -0.019959487 0.020880954
listen -0.022650277 -0.047297593 -0.011706187 0.028844854 0.0072376328 0.019951656 0.007394222 -0.04208087 -0.050003454 -0.020230576
luck 0.00033912162 0.023436148 -0.030865656 0.020748692 0.013222774 0.038589336 -0.01722229 0.019937618 -0.051882856 0.03354002
fund 0.018384576 -0.009931779 0.03716029 -0.029600974 -0.024152374 0.017198723 -0.0040368135 -0.04598641 -0.020051934 -0.019637806
portfolio 0.014696353 -0.014667755 -0.037042495 0.010013224 0.012417577 0.023953453 -0.04189013 0.021899354 -0.0007593866 -0.011973273
wish -0.009802942 0.01776 0.014667087 -0.0006451745 0.020382084 -0.0349845 -0.02550955 0.012806716 -0.0069293305 -0.02733809
loaded -0.018597357 -0.024332425 0.0301259 0.017077336 -0.021070795 0.036890622 0.038227532 -0.007981214 -0.03948567 0.029718388
force -0.03592291 -0.0036744631 0.03801967 0.036611076 0.009114688 -0.005867433 -0.016667351 -0.012847933 -0.008401761 -0.027906895
ton -0.011931708 0.014322309 0.017573899 -0.023696572 -0.035219952 -0.031271685 0.0049576466 0.04438663 -0.06431474 0.008167192
blow -0.01307744 -0.012630723 -0.0012447776 -0.028291062 -0.0010945884 0.014127225 -0.042999964 0.05232038 -0.031758334 0.049102854
chromebooks -0.048537694 -0.03278655 -0.031663734 0.019205816 0.031372573 -0.035092186 -0.015943026 0.0054027047 0.0018908267 0.030600676
walmart -0.03326164 -0.016724976 -0.030421892 -0.006607132 -0.014696528 0.0031257048 -0.04205027 0.036191992 -0.038483743 0.0327005
staples 0.014007726 0.042919993 -0.020225517 0.02188357 0.010980132 0.049064804 -0.0024482044 0.014032091 -0.011728554 -0.024847442
max 0.007125874 -0.029785037 -0.023529485 0.011718453 0.010705101 -0.028272502 -0.04964167 0.036057334 -0.040985093 -0.051416457
trends 0.023473805 -0.046407837 0.023347676 -0.047041964 0.018410582 -0.044838846 0.028521437 0.041493185 0.018745542 0.0018867515
stomp 0.011216821 0.03780868 0.015015955 -0.015001316 -0.044609535 -0.026899913 0.028198415 -0.037869766 -0.016351443 -0.029465273
dreams 0.027230697 0.0404148 -0.003693852 -0.033198394 0.023457022 -0.03084429 0.029711057 -0.008749358 -0.022519115 -0.044574667
cross 0.012408193 -0.047722816 0.009052556 -0.0052144243 -0.026573122 -0.03499018 -0.04507728 -0.023090236 -0.06575618 -0.027400548
@flareNNx -0.027529877 -0.016322922 0.019291025 0.026216779 -0.020096969 0.041487347 0.03710643 -0.000955422 -0.0040576677 0.016558351
NN/great -0.05296567 -0.021589149 0.030434884 -0.0012040365 -0.018246738 0.024924643 -0.026393294 0.02083108 -0.028084857 -0.045249574
wold 0.0029817151 0.041882727 -0.021735163 0.020838005 0.0391427 -0.025566263 -0.050691478 0.031856596 0.006976351 -0.031623084
bancos 0.0067355693 -0.043597504 0.004470525 -0.032956388 -0.02829338 -0.042190466 0.041752275 0.020972852 0.029197708 -0.03616239
backburner -0.01815173 -0.037510794 -0.02158391 -0.006202645 -0.004441185 -0.0233685 0.033382855 0.05088538 -0.026952408 -0.041942954
shorted 0.03378048 0.03452872 0.019759737 0.01414175 -0.027086752 -0.017082572 -0.0058327704 0.047104392 -0.0098748235 0.048465192
&quot;@drcooper 0.0144851785 0.042167716 0.054665502 -0.012591138 -0.03467066 0.006254375 -0.0016565677 0.035265148 -0.060949124 -0.01751398
drops -0.025103992 -0.026867224 0.024072478 0.031362996 -0.051212072 0.040014498 0.032770798 0.03997485 -0.07055489 -0.0063834465
