1891 10
NN -0.066593945 0.026525911 0.025533793 0.0018522326 -0.039708547 0.010227707 -0.05060565 0.022637509 0.062351186 0.0063965656
RR 0.019217197 0.005008838 0.024297005 0.004624889 -0.04626508 0.0122746555 -0.034933962 0.008241009 0.009325707 0.030659398
DD -0.06926511 -0.021462925 -0.013155741 -0.050380453 -0.048338342 -0.058308814 -0.029675774 0.020091923 -0.029372437 -0.020145508
Emark -0.05045367 0.030209912 0.03389203 -0.00033890776 0.009305042 -0.022491666 -0.048933417 -0.020181216 0.041931883 0.020962607
stocks 0.0014425998 0.011171674 -0.02431053 -0.049290773 -0.017126655 0.019941 0.032932565 0.016586233 -0.02095228 -0.019918203
buy -0.03834014 0.018597731 -0.03282337 0.036498718 0.024608608 -0.021577874 0.0356566 -0.04784247 0.020354036 -0.051262256
nice 0.008097203 0.0579153 0.0006132406 -0.050707933 -0.04124298 0.020229768 -0.045289163 0.013531337 -0.019601643 0.020842478
Qmark -0.034609154 -0.02342814 -0.015088727 -0.03940203 0.03780057 0.018387442 -0.020538373 -0.020442383 -0.033660375 -0.04955252
today -0.060539648 0.0037341747 0.004680388 0.019095153 -0.02255708 -0.044291675 -0.033534814 0.03826132 0.025117375 0.036678333
short 0.025684373 0.06403702 0.011422884 -0.00948739 0.004952929 -0.035018433 0.009658488 0.037443284 -0.041575745 -0.01799221
morning -0.050686434 0.020322733 0.047665462 -0.052180957 -0.02000546 -0.032247595 -0.007620304 -0.050717056 -0.034199618 0.023286344
long 0.027453724 -0.005634234 0.02802789 -0.033953227 -0.038707793 -0.05479032 -0.008075789 -0.042027336 0.045669504 -0.03576961
stock -0.04661911 -0.016031217 0.017868612 -0.035793938 0.025147632 0.0070372713 -0.04278701 0.035151478 0.004144547 -0.037150208
day -0.0051955944 0.00895597 0.006316147 0.019718962 -0.05260481 -0.0007274385 0.044566914 0.017073106 0.024445282 -0.005868685
new -0.04852175 0.062607296 0.012874499 -0.015785962 0.048118323 0.0128398575 0.012558753 0.03214175 -0.021313896 0.03067763
#stocks -0.001555203 0.00085234083 -0.0056624273 0.007853259 -0.03088918 3.2295942e-05 -0.03282862 -0.017278302 0.033812717 -0.03267039
market -0.034236453 -0.034734774 -0.048748277 -0.04194426 -0.04172973 -0.045508523 0.0011958246 -0.050136026 -0.031449515 -0.027621955
& -0.026832145 0.028093351 -0.0047176285 -0.056519788 -0.034231678 0.036289133 0.011781238 0.046336524 -0.030744243 -0.01900201
still 0.023059044 -0.030047823 0.051837333 -0.047701385 0.02583156 -0.008459307 0.045745723 -0.035124402 -0.041697778 -0.031550925
call 0.041251507 -0.025445728 -0.0055589695 -0.049141716 -0.053934477 -0.045921568 0.002626759 -0.05003755 0.037586108 -0.05547475
time -0.061139066 0.026320083 -0.013302599 -0.0323722 -0.006818727 -0.021582544 -0.054425035 0.009401346 0.05402066 0.03173473
NNx -0.06953493 -0.034276444 -0.014676679 0.012775207 -0.007883475 0.027253078 -0.025916984 0.05548506 0.057861265 0.03504513
top -0.04474244 0.028187685 0.015241997 0.025364224 0.037150893 0.03703178 0.03180887 -0.024271406 0.04698211 0.004442561
week -0.03982475 0.06269292 -0.011092848 0.031525396 0.038444716 -0.06666001 -0.047524642 0.0338719 0.0049315277 -0.014634483
looking 0.009011482 -0.009614075 0.028667567 -0.0035754554 -0.027854804 -0.021186303 0.021029305 -0.009569541 0.005833168 -0.01696798
apple -0.010394779 0.016473047 0.02833789 0.0028240604 -0.02377697 -0.021216365 0.03009636 -0.05028884 0.014727261 0.034606088
high -0.048369024 0.006062592 -0.04598518 -0.039675027 0.040684782 0.018990407 0.043539304 -0.016796071 0.018095503 -0.035435267
like -0.059744332 0.056040842 0.0053556054 -0.003577986 -0.0244742 0.010032357 -0.04555598 0.0010867376 -0.024585187 -0.02779431
good -0.018441722 -0.02424956 0.027734727 -0.05374506 0.024265632 -0.063514546 0.044394687 -0.04378393 -0.01615296 -0.031558495
calls -0.016774355 0.016902296 0.037639137 -0.039133653 0.047287457 -0.045601133 -0.013021141 0.024909357 0.047698457 -0.005665479
last 0.026221827 0.06514353 0.047377918 -0.030185793 0.020886503 0.024342539 0.036631085 0.0006663673 -0.034775432 -0.0010897784
higher -0.05849416 0.005580839 0.030602783 -0.007853477 -0.001605437 -0.030707825 -0.010837099 0.028445339 -0.028851204 -0.04588183
maybe -0.04744379 -0.03683245 0.042919226 0.021267852 0.030647576 -0.02152451 0.022249421 0.045815382 0.019649222 -0.06248173
watching -0.02264985 0.043066103 0.052292284 0.028988885 0.050081372 -0.02139827 -0.037442774 0.012269532 0.046281744 -0.041653443
sold -0.004839583 0.04594966 -0.0033989986 -0.021530254 -0.029029952 -0.02204272 0.03942068 0.013413006 -0.031523146 -0.048575427
rally 0.03008303 0.021447545 -0.026021656 -0.054190747 -0.040238936 -0.013540871 -0.0028447357 0.035422616 0.0333721 -0.045560353
see -0.024821762 0.0015639085 -0.029834898 -0.016221939 0.016459761 -0.050759755 -0.03645617 0.0062604276 0.03314217 0.024400549
@ -0.038163837 -0.025888441 -0.011704322 -0.024241503 -0.0019161149 -0.031491637 0.037581712 0.007176104 -0.006062988 -0.017235303
google 0.02201048 -0.016892826 0.05046477 0.023751585 -0.036183644 -0.04352472 0.044549134 -0.03370946 -0.0072690826 -0.019910874
via -0.04895841 0.040073305 0.031649224 0.032389842 0.032793436 -0.04769064 -0.01748408 0.012255489 0.023688404 0.030850552
gap -0.013366219 0.036491077 0.05241035 -0.05217649 -0.013578728 -0.013619063 -0.02488813 -0.009777328 -0.007790965 -0.011021569
back 0.018222697 0.024397427 -0.0049829287 -0.05634113 -0.032667704 0.027679779 -0.027814804 0.049731545 0.04139037 -0.04124581
#investing -0.0098517835 0.04488745 0.015010226 0.038621128 0.018154476 -0.00034738894 -0.039899103 -0.014803175 0.031015996 0.03552839
trade 0.02697374 0.049347013 -0.01323063 0.032018416 0.01292003 -0.011006977 0.014969549 -0.030954763 0.027852563 -0.010504909
getting -0.06714733 0.042229936 -0.032225095 0.021610744 -0.03709761 0.0034705156 -0.023945395 -0.041914422 0.0087265875 -0.013905598
weak -0.029394679 0.038599316 -0.025983928 -0.038430527 -0.026690371 -0.06341155 -0.036767997 -0.0058666505 -0.015784215 0.0072602527
much -0.012614104 0.0054922 0.022613293 -0.011748799 0.04679591 0.012872568 0.011853517 -0.026815066 0.05533037 -0.019633347
among -0.05488643 0.036453314 0.03357725 0.03781796 0.010776563 0.026300399 0.03440852 0.027785389 0.004012228 -0.047864147
bullish -0.02886974 0.022770736 -0.007879732 0.038325008 0.006752127 -0.02745408 -0.010108676 0.003953718 -0.007738257 -0.041109104
earnings -0.055616323 0.03020309 0.0071143387 -0.040880643 -0.041390963 -0.030232435 0.014836241 0.0072137658 -0.03375848 -0.033298254
facebook -0.055717938 -0.0395958 -0.0024327165 0.01503384 -0.048093904 -0.016729292 0.031172855 0.0011860679 0.0132880695 -0.03939066
put 0.025713686 0.025437195 0.044946887 -0.033918 0.04936131 -0.045033567 -0.030750433 0.016782997 -0.036694225 0.019172749
oil -0.056193545 0.005123082 0.026157789 -0.0017569812 -0.037655104 0.007176619 -0.030783106 0.038749672 0.044358395 -0.01546833
sell -0.018415395 0.046199553 0.017164659 -0.03015741 0.03584355 -0.047196176 -0.0021781037 -0.047632117 0.050182387 0.005863932
may -0.021858344 -0.021361511 -0.027277395 0.0024036355 -0.025575468 -0.036006957 -0.030272922 -0.0465343 0.023995802 -0.047427583
one 0.0072790775 -0.0072504994 -0.0080819875 -0.031453207 -0.04830312 -0.03574897 -0.01658788 0.04461873 -0.033137634 0.016563706
support -0.022964623 -0.015158864 -0.033553634 0.03063313 0.031297132 -0.014609453 -0.009550969 0.013594894 0.01408469 -0.00094053306
downgrades -0.05522684 0.03647893 -0.018878866 -0.028235065 -0.041942667 -0.006307867 0.006100391 0.018191999 0.0076276553 0.01067507
losers -0.026771098 -0.016690757 0.0140215065 -0.04810887 0.03756779 -0.025025435 0.040503778 -0.048571814 0.033711597 0.0008972553
lower -0.029817807 0.014094254 -0.030435821 0.030409964 0.017419182 -0.06359987 -0.044186324 0.033036593 0.037710298 -0.011479204
point -0.016856711 -0.013464662 0.00042751725 -0.036426075 0.02109845 -0.008338225 -0.0027675317 0.0029168765 0.051895246 0.00932379
growth 0.020327745 -0.035894908 -0.021312738 0.008838452 0.01934863 -0.0590851 0.03504082 -0.042027757 -0.017544221 0.021115327
best -0.00315033 -0.031597394 -0.0050492682 -0.03876561 -0.014861487 0.039694026 0.044159684 -0.019910017 0.035800382 -0.008130927
target -0.012689168 -0.01683109 0.013248392 -0.045003235 -0.00017079279 -0.04490019 0.009106281 0.0035628024 0.016434578 -0.0008104234
play -0.05133849 0.021035982 -0.0054652737 -0.027715523 -0.021292238 -0.02976852 0.049401265 0.00568923 -0.018340338 0.020174032
since -0.057875082 0.060410753 0.048845775 -0.006964085 0.007138911 -0.0072692516 0.03509044 -0.03407765 0.030575376 -0.04021914
sales -0.020003 0.043429118 -0.033087816 -0.006273103 -0.03642951 -0.035764903 0.01667684 -0.013187813 0.023544801 -0.05358177
news 0.005443669 0.039158877 -0.038000535 -0.018956324 0.036039926 -0.046888076 0.014746897 -0.04148314 0.035241324 0.0018144276
puts -0.055217847 -0.0020104751 0.0357736 -0.011062557 -0.009448592 0.0027129268 -0.005401484 0.0101137 -0.03417816 -0.027851159
buying -0.04512823 0.05406659 0.018091194 -0.05465453 -0.015731456 -0.007909129 0.0028984197 -0.04129669 -0.00067823526 0.033677757
going -0.009404113 0.0010256284 -0.03444861 -0.03583024 -0.045127507 0.028407162 -0.052485898 0.0006960725 -0.026789503 0.019061387
year -0.050574698 -0.03504786 0.04710106 0.03158282 0.03725997 0.032293044 -0.049975567 -0.011374062 -0.041773234 -0.037967592
go -0.03357315 0.0045116264 -0.03487611 -0.05697411 -0.02809154 -0.0030468768 0.02462782 -0.016126184 -0.030155305 -0.0022575571
sector 0.025716504 -0.047589198 0.027872693 -0.006058937 -0.040532842 0.02927296 -0.0036549454 0.031390585 -0.007851063 -0.0046512065
rt 0.012495739 -0.005803872 -0.0008043472 0.0020681506 -0.005923608 -0.036997844 0.023395075 0.049577504 -0.04066664 -0.043237183
right -0.044613704 0.03004503 0.018468663 -0.033841394 -0.024906343 0.026332686 0.040206358 -0.013887364 -0.015420648 0.036004193
bottom -0.030017985 0.038740404 0.019829532 -0.012480932 -0.039124407 -0.010964012 -0.024288345 0.029554611 0.02801754 -0.023040174
#tradeideas 0.020723078 0.00035516178 0.049712002 0.03787078 -0.047463343 -0.0016072532 0.033398364 -0.03946785 -0.0027188691 -0.0364434
even 0.03522211 0.040736422 -0.012198766 0.0014667852 -0.04369666 -0.058236536 0.00899256 -0.040851977 -0.034606505 0.0033335828
close 0.024715139 -0.03732773 -0.03026505 -0.013443692 0.0093831895 -0.060150456 0.02094499 0.022841878 0.010800487 -0.05566794
price -0.030387888 0.01977525 -0.007070793 0.023555128 -0.018665224 0.035797976 -0.006673055 0.018244512 0.044343818 0.015573545
really 0.01117361 0.054001994 -0.04300236 0.023295507 -0.0059077055 -0.011803222 -0.0441751 -0.017762823 0.05513892 -0.041141685
bought 0.032365542 -0.02207866 -0.030756444 -0.0054670605 0.024992336 -0.010629886 0.048431538 0.00384266 -0.03484099 -0.001172244
setups -0.014854075 0.024944382 -0.03224285 0.036856566 0.035595786 -0.054645102 0.010045536 0.045617934 0.053770743 -0.027851118
| 0.007954848 0.008557728 0.035644516 -0.032989334 -0.04985385 0.01736732 -0.025674494 0.032045107 0.018656282 -0.034580056
tesla 0.040856477 0.029429073 -0.04291443 0.036689583 -0.02645912 0.007646725 0.042394444 -0.010610699 0.003278623 0.0072976565
x -0.036240347 0.034683418 0.04084566 -0.041704003 0.04083616 0.015261685 -0.03160895 0.008632912 -0.03727566 0.019873979
breakout 0.026406815 0.050971113 0.031885706 -0.028799938 0.018598525 -0.011256451 0.003887782 -0.047224376 0.02052805 -0.036046002
first -0.050199512 -0.032610457 -0.029783538 -0.027631532 -0.043167822 -0.035211723 -0.024426972 -0.0032604716 -0.025859466 -0.016131805
leading 0.007409975 -0.04304167 -0.0040403274 -0.013733706 -0.02026782 -0.04412731 -0.032894373 0.052038148 -0.037872992 -0.019098591
break -0.019899305 -0.004686008 -0.030966004 0.024541631 -1.1244031e-05 -0.03324568 0.0022257762 0.046873696 0.051293254 0.025459422
daily 0.009768082 0.005582439 0.023417413 0.008177665 0.042166054 0.014305801 -0.015291875 0.032879118 -0.03885251 -0.0034142956
march -0.021303382 -0.002542411 -0.01640726 -0.022954484 -0.006142492 0.036302164 0.019601144 -0.048126083 -0.031306196 0.013708493
companies -0.029221866 -0.038389955 -0.010324526 0.00051421585 -0.051476303 -0.03562576 0.01922804 0.011378646 0.05001801 0.009739504
must -0.029505141 -0.029358242 -0.019435547 -0.023592634 0.005070182 0.015738346 -0.02248634 0.039251756 0.026564118 -0.030711405
intel -0.058405343 -0.007392846 -0.015532445 0.0062794317 -0.007433286 -0.009897992 -0.05019864 -0.0007301719 -0.028110875 0.035328317
great 0.018103743 0.05338178 0.009665004 -0.029940834 0.03781392 0.0122170625 -0.04467365 -0.011694253 0.0077023846 -0.0022061334
positive 0.011808055 0.026036942 -0.021429025 0.011834483 -0.04906477 -0.026321514 0.024496755 0.045603603 -0.022323266 -0.012829465
holding 0.038155973 -0.014610383 0.023195516 -0.03347072 0.02411348 -0.050578617 0.008025475 0.014954586 -0.028574899 0.008379323
overbought -0.046792045 0.024024313 0.03852794 -0.011143955 -0.04130888 0.032973956 0.006371021 -0.018620748 0.00442372 0.043478873
insiders 0.03406319 -0.044263262 0.022461677 0.021083746 0.015461663 -0.035479125 -0.0032921715 0.0010661876 -0.0253677 0.021013748
could 0.020306299 0.0100882575 -0.03900037 0.004339745 -0.021415183 -0.050397996 0.018164178 -0.04188036 -0.036945987 0.006646128
coming -0.02438982 0.050829925 0.011024491 -0.012663016 -0.034411825 0.032298032 0.005617617 -0.0206125 -0.03209155 -0.022159027
chart 0.0024932495 -0.040280342 -0.01576653 -0.010895138 -0.019770026 -0.010808385 -0.029546857 0.037277717 0.00568862 -0.018307148
model 0.03561864 0.0037148716 -0.018986916 -0.028781014 -0.035761107 -0.0045757047 -0.023479976 0.034950342 -0.03829992 0.010904028
amazing -0.0455535 0.021454586 -0.039991505 0.0063477154 -0.04123115 -0.007292666 0.008584136 -0.02558597 -0.026835699 0.024885245
targets -0.044552706 0.040690754 0.0028057806 0.027026681 0.03691938 0.009046278 0.0011145732 -0.037256896 0.032153558 0.004027267
highest -0.034785315 -0.017473837 0.014006205 -0.00715498 0.017750498 0.009965331 0.026986664 0.04464928 0.010351119 -0.010066457
ratio 0.0015723649 -0.035221487 -0.010598706 0.012682853 -0.030622255 0.042457204 -0.014420642 -0.0058757407 -0.042112105 -0.030990947
w/ -0.0377783 -0.0030639626 -0.0051234313 0.000791857 0.041046 0.03790615 -0.045178466 -0.011102394 -0.0034337654 -0.01719945
quality -0.018054757 0.0032031676 -0.030334735 -0.017108679 -0.009381662 -0.0384339 -0.00096319616 0.0065005985 0.022726016 -0.044247683
adding -0.03179947 -0.028277218 -0.048969638 -0.048127953 0.004214642 -0.026883734 0.032365385 -0.03681844 -0.0112067135 0.0028111613
strong -0.00021606318 -0.02452725 -0.012734999 -0.033070173 -0.04231578 -0.055119097 0.047379605 0.024767626 0.029252186 -0.023680655
another 0.030982176 0.0035263852 -0.028824626 -0.020168765 -0.026723292 0.00022881129 0.0028901915 -0.044448785 0.021030946 -0.019817915
small -0.017093841 -0.03299157 0.027871553 -0.020003013 -0.04027021 0.035301037 -0.043519635 -0.047208395 0.025610873 -0.04910443
also -0.014593373 0.017866572 0.02346707 -0.0042468435 0.035714567 0.005963204 -0.037830386 -0.04305554 -0.010467798 -0.018051347
potential -0.03866945 0.0539262 0.033315826 -0.038314827 -0.03111214 -0.02033192 0.031401467 -0.0054062083 -0.017458802 0.02927351
china 0.02873771 0.006293243 -0.0015034734 -0.050833505 -0.002444371 -0.0095715085 -0.012199672 0.028636651 0.024310224 0.03870645
amazon 0.010113476 -0.021566682 -0.005934462 0.043685846 -0.026520338 -0.030846737 0.01926342 -0.022171993 -0.02054488 -0.015750878
u 0.028308455 -0.0075548734 -0.002205369 0.0072978325 0.025866138 -0.04376364 0.021687698 -0.020283189 0.04632842 -0.044637877
make -0.045292865 0.008170353 -0.04817337 -0.022887746 0.04111595 -0.015582336 0.016704911 -0.04460561 0.0039641154 0.016501402
gains 0.008269644 0.04246357 0.022167757 -0.04660547 0.0016436084 -0.018547287 0.022410654 -0.045039486 0.0394133 -0.027540453
next 0.0065238057 0.008842375 0.04871836 -0.041918185 0.029420774 -0.046729382 -0.04727954 0.014556472 0.030680295 0.035418786
fade -0.058835655 0.0074346336 0.01788475 0.03498347 0.049523637 -0.02037005 -0.04303331 -0.0060737543 -0.018652573 -0.05240488
metals -0.04191447 0.014854525 -0.03391837 -0.0062705493 0.0030685845 0.03443121 -0.0028919019 -0.04108119 0.0006113949 0.0021577019
less 0.039088044 0.051476352 -0.014470843 0.00033277005 -0.049635172 -0.022972085 0.028897045 -0.011348988 -0.027801678 -0.040378027
watch -0.0086813 0.020011777 0.04360772 -0.026827302 0.018230554 -0.01936136 -0.04315894 -0.03652266 0.04520019 -0.018400483
resistance 0.011949895 0.035439868 0.01462358 -0.029381486 0.041622497 -0.031042237 -0.049856 -0.03982015 -0.02009074 -0.012985088
look -0.03359578 -0.016107185 -0.04290045 -0.0501471 -0.011947503 -0.04036899 -0.01637024 0.037786186 0.033403512 0.01841788
profit -0.0602151 -0.022137517 0.023047334 -0.018752733 -0.019426962 -0.033334635 0.022287453 0.019883925 -0.023231082 -0.045885246
e -0.043348886 0.051244386 -0.019742044 0.034441363 0.011852409 0.019554202 0.00888428 0.031572994 -0.020493658 0.014128851
inc -0.00219137 0.012889482 0.012533196 0.007603906 0.023068737 -0.02403976 0.00049632177 0.03496797 -0.019052438 0.04150906
l -0.011304399 0.022620248 -0.029840272 -0.01313586 0.038736124 -0.021805288 -0.027888972 0.018736856 0.0013774339 -0.012105398
pay 0.0005033417 0.049712814 0.008930886 -0.026257152 0.02170182 0.0047600926 -0.0025293536 0.022608668 -0.013020648 0.010977262
end 0.007255325 -0.0122257285 -0.020200185 -0.040089887 -0.0042054425 0.027660107 0.028088203 -0.018103873 -0.034087043 -0.031449243
pretty -0.03717627 0.045688596 -0.022508038 0.0033521508 -0.016200062 0.005593833 -0.025326675 -0.0016826905 0.0020339736 -0.04356585
term 0.035677288 -0.022330489 0.044521928 0.009352664 -0.030699952 0.0017803974 -0.011180035 -0.008373332 0.0280981 -0.0037803287
covered 0.035097964 0.012780048 -0.039785933 0.0010312435 0.038034562 0.03839117 0.017775109 -0.036234844 -0.02371568 -0.05076753
shorts 0.035748564 -0.03666864 0.018537188 -0.016486175 -0.03918711 -0.007909211 0.034288026 0.0115648415 -0.014180384 0.03603292
entry -0.029552389 0.0411042 0.010974196 -0.042997427 -0.01995252 -0.008692536 -0.021067081 0.047675863 0.0013629285 0.0044417204
quarter -0.051205486 0.049010597 0.037580915 0.004140285 -0.00042189588 -0.004953002 0.03591019 0.0034180859 0.031909373 0.032845847
keep -0.02204481 0.035544034 0.039707575 -0.028824817 -0.0031685273 0.008817705 0.0454323 0.0055233426 0.023860196 0.03700442
ah 0.047323518 0.0064003295 -0.043804552 -0.0028043245 -0.02062293 0.020471402 0.019448178 -0.04028306 0.008688411 -0.0011884576
seems -0.020148918 0.008013083 0.013831362 0.0023363873 0.049328644 -0.038138047 -0.0055852514 -0.00073250994 0.0023465292 -0.043717597
friday -0.04818529 0.014403848 0.0026809731 0.020104533 0.03316865 -0.042715438 -0.03256299 -0.04565366 0.03451904 -0.028497487
big -0.011419101 -0.020466924 -0.049291443 -0.0024029526 0.02494603 0.0061952486 -0.021201588 0.048420794 0.042085096 -0.033197932
lots 0.018611642 -0.014224341 -0.024237774 -0.036709554 0.036138833 -0.02017818 -0.006120613 -0.04313663 0.043933082 -0.036165323
NN⃣NN⃣biggest -0.037028078 -0.05054323 0.04001806 0.02520443 0.017679589 0.006645481 -0.025541455 -0.02572542 -0.03535885 0.016117204
deal 0.0131013775 0.0051636123 0.03050903 -0.015897801 8.3980914e-05 -0.026340652 0.04087532 0.04569789 -0.033249337 0.004509466
bounce 0.013472249 -0.011537911 -0.016746353 -0.02031245 0.009799032 -0.02410058 0.008298977 0.010569927 0.012936772 -0.033812538
take -0.04896053 -0.01748461 -0.010976433 -0.03736312 -0.03338974 0.03578484 0.039194673 -0.0044332463 0.0033255252 -0.018167397
pt 0.029081492 0.0456554 0.0033840274 -0.04399423 -0.0022038354 -0.013475048 -0.020509044 0.011912903 -0.028486587 0.016521372
signs 0.04598005 0.009714852 0.027086243 0.03143647 0.039607603 -0.05012723 -0.025944365 -0.048381932 0.023485979 0.0037832698
selling -0.041987818 -0.044063017 -0.037326857 0.012537223 -0.014228357 -0.00703189 0.034592327 -0.011013299 0.047737993 -0.05515264
report -0.02311373 0.016121564 0.020443073 0.0104442295 -0.02201193 -0.01530725 -0.007959124 -0.025313368 0.015014841 0.043030635
cloud 0.041801598 0.019169783 0.045714565 -0.0046548266 -0.030243661 0.0051875175 -0.017515415 -0.020049026 0.029635983 -0.035075553
names -0.046612665 0.048640706 0.04593274 -0.024200762 0.028249318 0.032518238 0.03948625 -0.019723453 -0.02716464 -0.040283293
move 0.010331374 -0.012462445 -0.011272944 0.021590559 -0.023071159 -0.029502042 0.0037744248 -0.036067653 0.046376836 0.035010558
total 0.018882882 0.016654897 -0.0287507 -0.005392309 -0.0066400645 -0.044776283 0.03102672 0.022944525 -0.030127844 0.03637491
trending 0.031959984 0.040212985 0.035219327 0.033518404 0.020988 -0.02602099 -0.011805389 0.017043712 -0.0076596565 -0.04837312
#investors -0.04924212 0.051811513 0.01323827 0.043611005 0.012201955 -0.019819096 0.011608559 -0.024986748 -0.03212553 0.002944967
RR/NN 0.008325953 -0.0035411094 -0.012678121 -0.015937543 -0.02542178 -0.026166748 -0.013315826 0.047436867 -0.003725002 -0.040253196
every 0.02601615 0.03498545 -0.0461251 -0.014280775 -0.03558533 -0.021471256 -0.030094435 0.046254545 0.028417297 -0.051135078
thing -0.015216869 0.043253165 -0.006261191 0.030577024 0.02907856 0.0051811626 0.025318393 -0.0203058 -0.020257484 -0.006382131
closed -0.015141728 0.04085813 -0.018904017 0.045017216 0.025347857 0.025638238 0.011392206 0.047721867 -0.024455173 0.0012787093
follow -0.008364053 0.022629129 0.040601257 0.013059939 -0.036875807 0.0059242644 0.0087522 -0.005627083 0.009883449 -0.023661526
looks -0.0015688175 0.009454031 0.02512671 -0.049619976 -0.018876217 -0.006913394 -0.0019271228 -0.038383823 0.04193637 0.033456996
drop -0.014157937 0.017390601 -0.028144253 -0.0462598 0.010064924 -0.030870864 -0.022444446 -0.013655805 0.049193244 -0.0035060893
early 0.019851426 0.033129744 -0.008343872 0.040290114 0.040711332 0.041635286 0.008220374 -0.004063947 -0.011426533 -0.0351526
worst 0.012144685 -0.046727583 -0.024485085 -0.00038743916 -0.032629337 -0.051612213 0.024264354 0.0011273122 0.019166885 0.015674476
performers -0.0070569445 -0.032741595 -0.02504592 0.032046333 0.04446359 0.0147120515 0.04843625 0.04315357 -0.046204936 -0.04357877
chevron 0.039809126 -0.005618022 0.008825506 -0.0037837948 0.04619271 0.010836487 -0.01475621 0.032016147 0.028946243 -0.036042392
million 0.011241618 -0.03357715 -0.044553667 0.0029933408 -0.033831697 -0.044227213 0.0018078712 -0.02600023 -0.029039683 0.044905715
longs -0.013799335 0.03783369 -0.007152922 0.016466785 0.032665838 -0.04963738 0.04831706 -0.022572003 -0.025157243 -0.018980183
weekly -0.011293777 -0.024175161 -0.0025403711 -0.008857528 -0.034555506 -0.048003405 0.015229377 -0.027543984 -0.03703143 0.032451626
squeeze -0.00022295615 0.037124906 -0.012383028 -0.0017604504 -0.024758255 0.008281037 -0.03591666 0.026512587 -0.021684349 0.0051234392
cash 0.0053336415 0.050034348 0.009196758 -0.04622868 0.0148165915 -0.0057884073 0.003294758 -0.00016257307 0.044660177 -0.04307286
losses -0.01140472 0.048403718 -0.028003082 -0.048155177 -0.009868206 -0.020052845 -0.042576566 0.0027265353 -0.047693968 -0.030736933
upside -0.0066560055 0.020589445 0.020902287 0.025998026 -0.013265578 0.028016314 -0.003349008 0.016666358 -0.0452304 -0.036473542
bid -0.021574307 -0.0003379109 0.044909976 -0.036597546 -0.032179914 -0.04745276 -0.050246425 0.04473111 -0.021317607 -0.003849922
rating 0.032137387 0.03151287 -0.019568706 -0.012021635 0.014805517 0.016005987 0.01497881 0.01706071 -0.021676475 -0.0362273
interest 0.038196374 -0.02025539 0.03995912 0.011519482 -0.036843736 -0.00064152037 -0.0037451806 0.013730471 0.011133096 0.029715305
starbucks 0.012284774 -0.038123533 -0.03469966 0.032753315 0.048547972 -0.01628062 -0.019547282 0.04267648 -0.03474032 -0.028767664
tomorrow -0.01633586 0.010393007 0.04229738 -0.032555792 0.0011520084 0.002571629 0.007035282 -0.03162638 -0.02964338 0.041456666
want 0.035257112 0.019173415 0.013070797 -0.028688237 -0.038988154 -0.017267385 0.032546274 -0.019547798 -0.03244212 -0.0065248343
ready 0.026612742 0.04860712 -0.03809453 -0.019273916 0.040379066 0.0023217474 -0.014350202 -0.022259643 0.015179513 0.016617943
qNN 0.04161929 0.025659576 -0.018720875 0.035023138 0.025117014 0.039341327 0.006864982 -0.028258128 0.016585039 -0.013165575
near 0.03891692 0.009949942 -0.03443886 -0.036673028 -0.018680835 0.017597381 0.047515366 -0.04959287 -0.011944095 -0.046517514
low -0.049282804 0.040826898 0.03642501 0.032742754 -0.010611193 -0.040212736 -0.03870649 -0.032358043 0.014981613 0.033458076
upgrades -0.0051113055 0.04475899 0.004144808 0.005399371 -0.008275754 0.021986006 -0.039781783 0.017336972 -0.039408244 -0.01555856
iphone 0.03869829 -0.01106946 -0.02113317 -0.036605258 0.033969246 -0.019515106 -0.03349583 0.047188938 0.04572852 -0.034309078
stop/loss 0.03033237 0.030237274 -0.009777505 -0.04302247 0.0026854798 -0.016261883 -0.035401385 -0.032230314 0.035864264 0.036186565
#study -0.049993347 0.020063065 0.010538644 -0.00088171486 -0.008982402 -0.0005438139 -0.022659967 -0.014970338 -0.028573688 0.004671863
#qqq -0.00537827 0.012695751 0.04118268 -0.046151306 0.036797423 -0.031755745 -0.007612655 -0.04604412 -0.03551114 -0.027616007
#googl 0.02195181 0.029643336 -0.018420147 0.019790338 -0.0025047783 0.019950395 -0.020155689 -0.049291007 -0.0036517417 0.014842791
ford 0.020182967 -0.015853712 -0.031179376 -0.019158663 -0.032100204 0.0067338967 0.0071437154 0.04723472 0.0059233517 -0.0051522017
motor -0.030931965 -0.008477095 0.001205205 0.013621054 -0.045290396 0.025748273 -0.03478702 0.0038911416 -0.010961323 -0.041290086
uses -0.018923508 0.020401211 0.04668821 7.228264e-05 -0.011656418 -0.04871249 0.006422719 -0.012441531 -0.029524844 0.0041890205
added 0.029140165 0.02565254 -0.047788 0.040911216 0.0138219055 0.042553604 -0.021774692 -0.019725591 0.04190162 0.039268505
users 0.045086373 0.023358535 -0.017068207 -0.021199733 0.031370543 0.022196535 -0.025737772 -0.00890947 -0.032511856 0.029406851
unusual 0.008956903 0.022191657 -0.02248495 -0.017680455 -0.005819338 -0.006417656 -0.009661386 -0.020042242 0.019107616 0.024402592
hod 0.038633198 -0.0063989214 -0.037172902 -0.0042587435 0.009250096 0.0035377205 0.017392037 0.0071611064 -0.010503364 0.029571677
slid 0.04171701 -0.03455321 -0.036261983 -0.019154638 0.041237645 0.021827023 -0.027998041 0.02330606 -0.0052246405 0.015969193
DDb 0.004038304 0.022407804 0.04789262 -0.010533344 0.0065161837 -0.05214527 -0.04379013 0.04407343 -0.039362464 0.04373128
internet -0.042368643 0.04331899 0.0007648757 -0.017443644 0.023301115 -0.04104112 0.0162498 -0.047886103 0.0011652439 0.030063868
average -0.031942323 0.035596665 -0.021996092 -0.0085605215 -0.014372808 0.0052049477 0.0111196805 -0.037563507 -0.035931237 0.01782916
spy 0.03708205 0.02047147 -0.011608882 0.0068471846 0.0073380694 -0.055400282 0.015777119 0.0023041144 0.039105564 -0.007505912
volume -0.05555926 -0.0012787385 -0.050769478 -0.007984831 0.04141756 -0.046327166 0.037815906 0.008601267 -0.027536102 0.013506174
afternoon 0.03716876 -0.025173653 0.013646782 -0.0048656347 0.038328145 -0.03523789 0.012474348 0.0013590042 0.0111583965 0.042147517
trade; -0.046089347 0.014208214 -0.017403092 0.028412879 -0.028636342 -0.041364353 -0.020506129 0.04212855 0.030216472 -0.028494641
nears -0.057010684 0.015901936 -0.0025683937 -0.016224915 -0.0060538314 -0.012962041 -0.037500355 -0.02072106 0.048138164 0.016670348
bears -0.023299461 0.049776677 -0.02100546 -0.04696474 -0.0026729677 -0.0112101985 0.006938675 -0.044087037 0.02021336 0.020717254
almost -0.050961647 0.05261541 -0.011111591 -0.010537333 0.00330595 0.019094879 -0.0041696616 -0.043525904 0.015425896 0.02284112
recall -0.045598753 0.046552107 -0.030581877 0.0025855657 0.035838563 -0.022969196 -0.031351555 0.03761582 -0.002254771 0.040411856
company 0.017423242 0.034903318 0.029515876 0.020581493 0.008377164 0.020940652 0.004173634 -0.040469866 0.025514245 0.0041088886
already -0.05448718 -0.006926042 0.04555679 0.023273291 0.038794015 -0.024659622 0.013137303 0.017441537 -0.035158023 -0.052258335
bearish -0.024156742 0.01838511 -0.038448937 0.02501468 -0.0016789468 0.02717318 0.03335556 -0.015250804 0.0020607007 0.028997686
dip 0.023083402 -0.004595285 0.033755068 0.008700568 0.0029212947 -0.0031352786 -0.04017214 0.022286477 -0.007093958 0.019465856
loss 0.015108289 0.004657905 -0.039366767 -0.04082918 0.046754584 0.004034146 -0.017284395 -0.02765613 0.03015695 0.031455517
double -0.050041977 -0.034880225 0.01603 0.021977628 -0.045833264 0.015181394 0.028233608 -0.030709736 -0.042794906 -0.022359129
far 0.031973027 -0.016981898 -0.015685745 -0.0004571493 -0.012853327 0.036148213 0.046977226 0.0016556708 0.042600665 -0.037972495
got -0.021438131 0.009509463 0.011590981 0.031087395 0.03585941 -0.0165135 0.002152334 0.031390958 -0.033300173 0.00708555
imo 0.02557867 -9.2371665e-05 -0.027907642 -0.033258516 -0.011796365 -0.048654974 -0.01871424 0.00020088768 0.04909456 -0.015642265
alphabet -0.013766701 0.035253298 -0.04110505 -0.026966125 -0.04593845 -0.03216905 0.029233633 -0.0068769315 0.008829049 -0.037106436
stochastic -0.050582867 -0.00044854527 0.021149144 0.03267025 -0.03651369 0.026170384 -0.036236472 0.029338833 0.013929826 -0.051316347
ibm 0.033564832 -0.04310717 0.01874412 0.021060297 0.011735181 -0.018348001 -0.028959537 0.0076586106 0.050494175 0.023699116
cuba -0.046319652 -0.033182487 0.0030228428 0.0041689053 -0.04128671 0.022276694 -0.00729954 -0.034392186 0.026003957 0.0009217954
ahead -0.0017843603 0.017430305 -0.045946468 -0.002134149 -0.046035778 -0.004270527 -0.045353547 0.008532305 0.001379149 -0.0044256295
visit 0.011307059 0.031440306 0.006934415 0.00987845 0.046119474 -0.006759525 0.02363684 0.022703696 0.014888716 0.0234906
billion -0.04987795 -0.028337888 0.028716918 0.017352343 -0.007647244 0.039271656 0.042928003 0.012512826 -0.047174994 -0.035477165
core -0.051034354 0.016602851 -0.008530818 0.0048900875 -0.001082693 0.029772947 0.028196946 0.032792494 0.04559114 0.021459926
trading -0.020220242 -0.0066815433 0.008442691 -0.04933479 -0.04985033 -0.04810858 0.012305682 -0.013397741 -0.04826757 -0.010883623
autocharts 0.02591367 0.024986919 0.001736048 0.048102032 -0.029963981 0.0422923 0.032394983 -0.040582545 0.05122044 0.04332166
#netpayoutyields -0.033205178 0.025749208 -0.030403035 -0.01599927 -0.022812158 0.0140146185 0.040004462 0.042860746 0.008855586 -0.038354807
many 0.04200887 -0.04206754 0.03365448 -0.030999241 -0.0052043865 -0.0139917005 -0.010772982 0.008243072 0.024604192 -0.021267785
shares -0.027506785 -0.0243837 -0.030259762 0.0027926492 0.024590828 -0.031057695 -0.016714169 -0.006911917 0.032513697 -0.012853924
analyst -0.0081808 0.028789133 -0.043646287 0.037594195 0.03372846 -0.029549237 -0.04533873 0.003330449 0.012605849 0.043921147
yahoo 0.018690292 0.04407545 0.0100884335 0.03955236 0.028312149 0.02076269 -0.015014723 0.029112192 0.028104296 0.029832384
biz -0.0034949854 -0.026920617 0.008757582 0.02232306 -0.0036041378 0.0036004425 -0.0060874466 -0.0062119802 0.025891181 -0.04599101
pharma -0.0037598896 -0.03238394 0.017909141 0.0035656851 -0.048365504 0.027420659 -0.01347395 0.00022850088 -0.00026913034 -0.053852964
technology -0.0007083746 -0.03439278 0.029515758 -0.008180591 0.0031882825 0.020181855 -0.04968031 -0.04298222 0.0384751 -0.027819727
curious 0.017019978 0.047438037 0.04701344 -0.025070272 -0.00028704817 0.036888693 0.0015973235 0.007536131 -0.0074823443 -0.05139785
soon 0.041456506 0.039044026 0.031334884 -0.048513405 -0.007856285 0.02156769 0.04314925 -0.01932721 0.034117635 -0.0002531504
taking 0.04810028 0.013549885 -0.0342096 0.03339389 0.046210654 -0.034942474 0.023914048 0.03071533 0.018188087 -0.03676158
wants 0.041096587 -0.017118223 -0.049163446 0.016232383 -0.009601477 -0.038862698 -0.03946911 0.02146813 -0.04593314 0.015243272
co -0.013327234 -0.04150092 0.027887205 0.0437726 -0.013909478 0.0069533302 -0.016340408 0.036847927 -0.007644683 0.027812375
leave 0.028466363 -0.011622339 0.04001809 0.04195741 0.021605588 0.036712293 -0.029224582 0.044198733 0.033470854 -0.032909844
start -0.0002582479 0.04870799 -0.04391954 -0.036310155 -0.026656449 -0.04627728 -0.0056318934 -0.01616639 0.018739257 0.020316325
never -0.04127346 0.037608985 -0.03297703 -0.026521778 0.0061320937 0.0044455617 -0.032851692 -0.0048007555 0.03861504 0.036828898
goldman 0.007201174 0.0390973 0.026599428 -0.042541277 0.012186676 0.017339278 -0.014431735 0.0142543875 0.024120076 -0.005713777
sachs 0.014141255 0.04292924 -0.04666194 0.005248285 0.0164217 0.011110392 -0.008453984 -0.023199115 -0.04597193 -0.01565101
conviction 0.030618785 0.033811294 -0.030876502 -0.001602313 0.036635645 0.03268973 0.03661161 0.00013075369 -0.008795982 -0.033789445
gain 0.003983684 -0.024427341 0.042706706 -0.02302332 0.02391349 -0.015191934 0.04300245 0.046684712 -0.034346215 -0.017527381
gainers -0.03613645 -0.040563893 -0.037748985 -0.034676198 0.011489681 0.022118092 -0.006627504 0.0047726654 0.031083712 0.017319744
option 0.016923355 0.040856335 -0.037001543 -0.019851979 0.0112075545 0.037402686 -0.009734496 0.044258893 -0.008710924 0.02410181
think 0.033547338 -0.024723686 0.01721092 0.000252294 0.012425106 0.007819871 -0.008928046 -0.015690481 0.028185064 0.020190928
lot -0.027995756 0.03479352 -0.01869316 0.027847016 0.022575337 -0.01753502 -0.018063663 0.035758354 -0.021022739 -0.0031001442
NNs -0.007175154 0.03775948 -0.044978794 0.010282698 -0.002224469 -0.024894735 0.0016943298 0.011509774 0.008643894 -0.025515333
retail 0.017914906 -0.03613836 0.011077113 -0.018995948 0.03849881 -0.015830113 -0.02395757 -0.031765826 0.0460915 0.043166257
dividend -0.05088943 0.03542669 -0.032200627 -0.0001887081 -0.0069258427 -0.040684678 -0.0097455 -0.03102137 0.040684957 -0.028843772
shipments -0.01548564 0.04763475 -0.009415208 0.04518709 0.04389906 -0.033328284 0.033688936 -0.013015821 -0.042730156 0.016484942
lowest 0.037386097 0.0468628 0.0011282789 -0.009261302 -0.0030927863 -0.007396499 -0.038043983 0.04224044 -0.013300285 -0.017018193
NNst 0.009042152 -0.028271042 -0.032202274 0.012170139 0.0290482 -0.026112817 0.03436757 0.006110879 -0.030957863 0.009320265
seeing 0.008150633 0.030836023 0.03301179 0.041887973 0.027614318 0.03517293 0.02588285 0.036449924 -0.043162152 -0.046832457
weeks -0.045415003 0.044843353 0.023653952 0.0060944273 -0.030598775 -0.016041392 0.029534992 -0.025280895 -0.01793498 0.028729003
globally 0.023808341 0.0090678055 -0.012684411 0.03138936 0.048520222 0.009528175 -0.011025574 0.014554909 0.037121456 -0.041626826
well -0.04750979 -0.01576291 0.026619205 -0.004680529 -0.017305207 -0.031242128 0.01575914 0.04139118 0.022393499 0.017368842
risk 0.0067611434 -0.018912403 0.007108728 0.044291243 0.013664024 -0.0006175225 -0.026674716 0.023692004 0.03152646 0.013159775
yet 0.011299243 0.0028195842 0.036836214 0.01998042 -0.03479549 -0.036828045 -0.018628793 -0.012363679 0.040230997 -0.043112192
ratings 0.027603058 0.02269435 0.0006954279 0.03597868 0.0031995317 -0.024507992 -0.0026950012 0.0007956827 0.023023888 0.03933319
broken 0.007322913 -0.023551513 0.023078592 0.029560544 0.026761618 0.04515746 -0.023271473 0.028197384 -0.012457066 0.034202453
retake -0.022499898 -0.039332293 -0.043390892 -0.044733502 -0.04704776 -0.01602208 0.012274044 -0.039129797 -0.01495146 0.017534487
money -0.009233335 -0.009077064 -0.037505567 0.040198773 -0.033493176 -0.055403892 0.032638732 -0.04834788 0.010505506 0.020107275
b 0.006071531 -0.03859233 0.033279806 0.020919565 0.0048836805 -0.036573585 -0.025656153 -0.043441348 -0.033045392 0.039448
nothing 0.013747388 0.028752673 -0.023355888 -0.03351047 -0.004546177 -0.03900497 0.045156013 -0.0028170398 -0.03164443 -0.028948633
real 0.0013593308 0.038854048 -0.037378095 0.009617979 0.011655673 0.0006026665 -0.0070553687 0.004841329 0.047393415 -0.021749523
anymore 0.03826123 0.0068355906 -0.041510716 0.04249341 0.0022366436 0.036271762 -0.05031339 0.007459169 0.051924746 -0.041450594
pips 0.028279074 -0.0069611957 0.035917245 0.046407927 0.0024607514 0.011507536 0.04519139 0.0033657104 -0.04586922 -0.025898755
bad -0.004351472 0.04880307 -0.041501332 0.0007283314 -0.029891094 -0.0040288777 -0.03765638 -0.030186469 -0.012747016 -0.045285977
vol -0.025235055 -0.018984476 0.03259907 -0.05214358 0.02553248 0.020873282 0.008979352 -0.029673463 0.007463387 -0.052780185
flow 0.010063858 -0.038395096 -0.02370857 -0.023251258 -0.023530936 0.017983314 -0.041357037 -0.044615243 -0.025770064 0.038773052
agree 0.0014183432 -0.0212399 0.026126549 -0.04309163 0.028238252 -0.013541211 -0.00023784529 0.039935432 -0.0040191268 -0.01244952
worth 0.027729992 -0.020843247 0.04383855 0.038226936 -0.050465956 0.004889273 -0.002409568 0.028639907 0.008572689 -0.021202087
sNN -0.0045818733 -0.00022511563 0.030501809 0.015130844 0.027644934 -0.048125014 -0.03113066 0.013897304 0.044245325 0.03333674
fund -0.023395713 -0.036103226 -0.03504327 0.023688572 -0.00257598 -0.027591018 -0.022668146 0.034990694 0.025856314 -0.015011511
trying 0.03704769 -0.013217699 0.008218393 -0.016279487 -0.023265317 0.020307764 0.032680135 0.025278408 -0.006186897 -0.0434209
failed -0.03010637 0.018085448 0.012610416 -0.023393365 0.037792925 0.043395624 0.009441994 0.008064611 -0.044850785 0.04743912
nasdaq 0.015317517 0.037611246 -0.04989939 0.010264083 0.041731864 0.041171186 0.02561282 -0.037935175 0.051376518 -0.023524776
jan 0.038255434 0.0469028 0.00032018358 -0.007085167 -0.008019066 -0.01459419 -0.006939576 0.022915682 0.03985905 0.02116819
sectors 0.042801335 -0.023281232 -0.020181902 -0.017426446 -0.014635499 0.03521821 -0.010662823 -0.020163633 -0.023572467 -0.020566331
cars 0.004561654 0.023965944 0.0018983419 -0.02441534 -0.03870126 -0.04150889 -0.035004735 0.04283834 -0.008694486 0.012467531
thank -0.030785812 0.010694018 -0.016657766 0.042553246 0.025088418 -0.01737298 -0.0070998557 -0.0048645716 0.013070686 0.031119395
reversal -0.0037167824 0.0005104491 -0.037097514 0.013857833 -0.0014057974 0.015143258 -0.034544818 0.04388716 0.0070510916 -0.016439786
tight 0.025841763 -0.0016100678 -0.03435085 -0.012728905 -9.4968156e-05 -0.0058652186 -0.015343615 0.01574007 0.00123876 -0.037769984
shorting -0.008374857 -0.02505265 -0.0028518813 -0.00043352033 -0.018548638 -0.03397529 0.034279652 0.03290973 0.010584861 -0.023814742
easing -0.048492182 -0.030752283 0.0018014214 0.02484478 0.015353757 -0.03710571 -0.02595686 0.03194371 0.011673066 -0.019268319
get 0.01702585 -0.043423045 -0.0351488 0.006196515 -0.01580305 -0.021444142 -0.039522793 0.04953511 -0.027892934 -0.0024529363
working 0.032755416 -0.0065348004 0.04161145 0.04561056 0.011225027 0.011159021 -0.02926306 -0.039700557 0.012785094 -0.0029887075
obama -0.018552326 -0.021320352 0.014875753 0.01501774 -0.017454231 0.02568257 -0.026581781 -0.0446759 -0.025486315 0.04515883
@emuziczone 0.0469303 0.023527896 0.04658884 0.014772344 0.039109677 0.029872395 -0.033880904 0.0039936937 0.049993787 -0.031826153
@myoffices 0.013326785 -0.025000842 0.008038753 0.043509055 -0.0449941 -0.042198896 -0.049443007 -0.03025739 -0.012889875 -0.017851943
stockwhisperer 0.029630592 0.036955267 0.010104911 -0.041941065 0.036325864 0.033393756 0.017585175 -0.031268667 -0.022720614 0.016381536
marketwatch -0.052342646 0.018074583 -0.022236768 -0.05117401 -0.02959055 0.009283517 0.002949881 -0.030553628 0.009600337 -0.023787009
guess -0.0096839545 -0.045385387 -0.012427424 0.018209346 0.025144573 -0.024986546 0.010040273 -0.02921959 -0.0055169077 -0.030072834
losing -0.00020336066 -0.048487682 -0.008959607 -0.0034581206 0.02671703 -0.046085425 -0.0136627825 -0.0025013266 0.005248336 -0.033151105
way -0.045528006 0.03716764 -0.035907634 -0.0057520047 -0.03927837 -0.017021786 -0.040736068 -0.020566955 0.030636871 0.030100478
consensus -0.011029151 0.02009456 0.022380754 -0.031956125 -0.010092021 -0.0123603735 -0.024055853 0.014692365 0.022611853 0.011795112
green -0.01660866 0.017032797 -0.008567018 -0.050493717 0.025197344 -0.037933297 0.04264906 0.004978428 0.008479432 -0.017736731
online -0.048529774 0.016768808 0.030745015 0.04184092 0.007887547 -0.011772193 0.01931059 -0.001619055 -0.039157405 0.014560511
tesco -0.0068431697 0.038136587 0.030997612 0.012722841 0.03878732 -0.042184424 0.030538902 0.03660569 -0.018719533 -0.05180645
action -0.016580934 0.02421894 0.048726946 -0.007202789 0.024764767 0.0055734767 -0.0079002725 -0.0353837 0.028801931 -0.032793198
global 0.0121423155 0.006617686 -0.009180957 -0.012391808 0.010992396 0.032834988 -0.011045604 0.033039063 -0.0471761 -0.029445004
yield 0.014557976 0.04903032 0.04479361 -0.033805024 0.0053946725 0.009337539 0.02112899 0.04352293 -0.008590548 0.011441684
used 0.010960919 0.02103657 -0.030062411 -0.017423555 0.046499778 0.014653079 -0.046565056 -0.02094613 0.020540942 -0.04848542
little -0.031961013 -0.00012207941 0.047225006 -0.02547768 -0.027492642 -0.0064159962 0.0455332 -0.04047602 -0.03407087 0.019287642
add -0.032920703 -0.030949378 0.033013716 0.045543607 0.049582936 -0.019639295 0.019491557 -0.038265884 0.0121866595 -0.043604136
others -0.051127248 -0.005495634 0.00045058902 -0.03960364 0.0021898912 0.030682167 0.02497675 0.002286575 -0.04082995 -0.03418031
sale 0.036578108 -0.02664693 0.03791626 -0.021316873 -0.005779727 -0.046170935 -0.02317149 -0.012289935 0.045939237 -0.0012895787
capital 0.0022773119 0.028431552 0.04374658 -0.009886402 -0.03261425 0.012067816 0.015105056 -0.0126378555 -0.031476542 0.025274739
cnbc -0.026919253 0.014874562 -0.028689444 -0.016318705 -0.0076385373 0.023117116 -0.049018677 0.031192498 -0.034983173 0.006356708
data 0.018217742 -0.03581851 0.036137685 0.012292451 0.009231393 -0.02555213 -0.008357692 0.013932678 0.0022182874 0.012256987
possible -0.005755711 -0.02020456 0.029802654 -0.010329387 -0.002158618 -0.033072237 -0.011910766 0.03447891 -0.047045 0.03041059
@jimcramer -0.028237514 -0.014192736 -0.029004138 -0.022593386 -0.0052530733 0.019853532 0.028871423 0.041875985 -0.0075855865 0.012824684
#newNNweekhighs -0.023661135 0.003322313 0.045213435 -0.0076830545 0.01793531 0.037261635 0.0008432443 0.0033529347 0.007939379 -0.023621203
fine -0.0034786474 -0.025300305 -0.026754105 0.012285406 -0.019073425 -0.0022531443 0.009904268 -0.04261274 0.011665107 0.0031024325
weekend 0.039516617 -0.042589143 -0.019134128 -0.026494466 -0.0047895676 0.015650852 -0.046835158 -0.03750581 -0.016701104 -0.0037130234
anyways -0.006633362 -0.044760272 0.01690633 0.030543683 -0.038451023 -0.019093988 -0.029317925 -0.039757166 0.017173942 0.03170483
reasons 0.006185265 0.0050902576 -0.03322169 0.0043355688 -0.04670127 0.02972419 0.04022604 0.037074033 0.016220408 0.04089892
cautious -0.043555267 0.04374476 0.00032327918 -0.013237582 -0.013608498 -0.018329315 0.013956135 0.011529287 -0.03850744 -0.013783742
attention -0.028291859 0.04642631 -0.008370417 -0.010305075 -0.00034052556 -0.036857523 0.0056017023 -0.00932282 -0.03365248 0.017005032
makes 0.033657182 0.048037447 0.030846352 -0.023345308 -0.0048393863 -0.046100788 0.04396941 0.039894585 0.04314456 0.013423084
apr -0.044172075 -0.017092751 -0.021803154 -0.014948178 -0.048045263 -0.024862861 0.008480383 0.033499006 0.016874608 -0.02914297
area -0.039461516 0.013976518 -0.014833354 -0.04845796 0.037112378 -0.013032682 0.019601477 0.025654696 0.002711513 0.011575903
wall 0.03212381 -0.026927164 0.008126957 -0.008835835 -0.0068938094 -0.02639848 0.038761668 -0.032100115 -0.046691325 -0.030601641
street 0.0058619864 -0.024815625 0.038132515 0.0055771754 0.017341064 0.025605444 -0.028561398 0.0034545998 0.026245434 -0.051229358
two -0.019067535 0.023638345 0.039200664 0.00841361 -0.010650872 -0.008758032 0.036605384 0.00478666 0.051020857 0.008092466
months -0.026869673 -0.019588677 0.044399023 -0.009700288 -0.005475753 -0.036240615 0.037723377 -0.046500504 -0.0014838402 -0.041116092
#oversold -0.0005039192 0.032977294 -0.025545865 0.010755966 -0.03022439 -0.017989771 -0.049114473 -0.022351213 0.03644681 -0.017920779
tsla 0.029205853 -0.023472542 -0.01013857 -0.012965325 0.03612255 -0.02545759 -0.03208954 -0.025117503 0.04289252 0.020713635
investors -0.036850672 -0.013306176 -0.04114269 -0.044998024 0.032013036 -0.0148076685 0.019437999 -0.002451331 -0.015896518 -0.002665571
let 0.046027046 -0.0048157447 -0.027500674 0.027761448 0.0056269597 -0.0540209 -0.038727507 0.03342208 0.0032185258 -0.021359095
job -0.052135285 0.0053672087 -0.039836656 -0.03304451 -0.010454094 0.047297426 -0.036601074 0.028522106 0.04149047 -0.022150865
profits 0.00033938838 0.030734407 -0.035343513 0.025553998 -0.012176021 -0.016340071 0.020559667 -0.03510629 0.024811368 -0.03252975
breaking 0.047187682 0.036823083 -0.010388946 0.018261751 0.026495608 -0.005648032 -0.047737062 0.022918584 -0.021207657 -0.037690587
highs 0.017822163 -0.018783469 -0.041282002 0.035701104 0.009279288 0.040908847 -0.0075440994 0.03174491 0.013846159 -0.02752545
head 0.005571254 0.032726914 0.008337257 0.014542425 0.019953292 -0.035451774 -0.047927734 -0.0078766495 0.010842433 -0.037107743
citing -0.006856655 0.0100964 -0.036151778 0.02674183 -0.03708952 -0.019947683 0.012126928 0.008518242 -0.04573056 -0.0025229964
level -0.04220048 -0.040441856 0.012517733 -0.043496057 0.031643204 0.013589784 -0.037733704 0.00020718877 0.030219771 0.018759808
biotech -0.0049467096 0.033368982 -0.047225427 -0.048113722 -0.02784351 -0.04544272 0.039496906 0.014008656 0.04237886 0.038440336
@barronsonline 0.035436478 0.029265456 -0.014327719 0.039585575 0.00021321529 -0.03587916 0.030428836 -0.01714803 0.03637358 -0.03807149
says -0.0050628325 -0.009721283 0.049204532 0.01727314 0.032647736 0.037975628 -0.01644782 0.010270447 0.029860575 0.0053901603
followed 0.016557807 0.04430973 0.03414265 -0.049289227 0.014127701 0.007056934 0.037649464 0.024086323 0.012460152 -0.018063406
levels -0.012445013 0.04512402 -0.01917651 -0.052096546 -0.045625065 -0.0057168244 0.001886463 0.041236117 0.047712937 -0.020545397
shared 0.044481203 -0.03465471 0.01541228 0.01831451 -0.04468579 -0.03718394 0.031627066 -0.024284609 0.0074711954 0.029349595
made -0.03632866 -0.041601732 0.03527746 0.0023195306 -0.04362017 -0.048338417 0.042680472 0.042809952 0.04257397 -0.031186022
holdings -0.0014997965 0.0105111115 -0.0018282329 -0.03029345 -0.0152977165 0.01225024 0.014742516 0.047445673 0.032327857 -0.034416545
dji -0.004305088 0.034618676 0.018521758 0.04940292 0.01759527 0.046031427 0.04968308 0.009598327 0.037656866 -0.04827516
people -0.020824544 -0.032374844 0.037311893 -0.045391824 -0.0068179355 -0.044004492 0.0470385 0.04041308 0.002021465 0.02404836
schizo 0.011867793 0.03942733 -0.0025253776 0.0134000145 -0.0041153496 -0.015236776 -0.0068407785 -0.03264833 0.03100052 0.0020067892
finish -0.042837005 -0.04011496 0.04698535 0.011485617 -0.028547063 -0.016371097 0.047566637 -0.04269137 -0.023212211 -0.016067717
video -0.027499167 -0.032412987 0.04840349 0.028590657 -0.04096823 -0.027227186 -0.002345907 -0.00022774855 -0.005394925 -0.016551625
finishing 0.019380976 0.039622467 0.030551419 0.023871366 0.016588416 -0.015928587 0.026324125 0.026867436 0.0018427811 -0.026601994
disclaimer 0.046671145 0.03799574 0.00019511578 -0.027144302 0.013489165 -0.02889254 -0.012324958 -0.04957156 -0.004392147 0.04559951
reiterates 0.012403883 0.0030710495 -0.024157964 0.020079283 0.030755907 0.046279464 -0.04557155 0.0031315766 -0.011245907 0.037053525
baird 0.01269546 -0.036903776 0.019491225 0.024955 0.044783175 -0.01848717 -0.04708187 -0.04969442 0.0014601569 0.023393504
motors -0.033504743 -0.008316159 -0.017623568 0.028621532 0.002748785 0.024943424 -0.010534769 -0.0003678767 -0.036558095 0.013028404
wait -0.024815576 0.051069304 0.005184517 -0.0045271902 -0.04740398 0.006304236 0.027463589 0.022628542 -0.017641002 -0.031414963
notable 0.014644062 0.027606623 0.042211104 -0.028608315 -0.0088587 0.044641368 -0.003410849 -0.016927134 0.047531713 0.043917943
liquid -0.0041282577 0.03438182 0.03774318 -0.004052887 0.016773771 0.0027488396 0.041150585 -0.048302386 -0.044107173 -0.020161184
include 0.02729758 -0.007037419 0.010165151 0.0076728035 -0.006440287 0.047308065 -0.011007024 -0.038939677 0.025821913 0.04201127
activity 0.03005248 0.028772095 -0.022829235 0.040648103 -0.042639945 -0.0040582055 -0.015350484 -0.047656428 0.0068520107 -0.010065398
around 0.026713034 0.029567864 0.0019816284 -0.0354106 0.019771423 0.0069183856 0.039632287 0.031390097 0.0329098 0.048418313
keeping -0.01694541 -0.026777947 -0.021540646 0.034917213 0.048953217 -0.04317953 -0.034916993 -0.001985098 -0.018165547 -0.007785339
moving 0.030556213 0.033996172 -0.010220974 -0.04648451 0.0035311936 0.04662082 -0.0023060392 0.012842675 0.033326894 -0.03638763
gg 0.01630334 0.032974202 -0.04172558 -0.010770856 -0.008351233 -0.00803759 0.03236971 0.028931092 -0.049335863 0.012358547
#pc -0.040085904 -0.011386119 0.044144828 -0.021742132 -0.0005854247 0.018273324 0.036169145 -0.010940185 -0.0055664596 0.020843966
quarterly -0.014584218 -0.0081118625 -0.047886927 0.022452505 0.04523476 -0.04030713 -0.020802507 0.026004864 -0.003859616 -0.0006829305
#dell -0.006543134 -0.0016139672 0.038276125 -0.020228462 -0.013867902 -0.02712369 -0.02466612 -0.034881055 -0.043925762 0.0272017
dethrones 0.032527592 0.042687587 0.03721452 -0.006411226 -0.03152779 0.017974166 -0.042504188 -0.043556005 0.029157251 -0.023753405
decade -0.04805845 0.029736878 -0.006260247 -0.0011331496 0.00756869 -0.013052556 -0.027485069 0.02674959 0.043754295 -0.023053277
goes -0.026465211 0.051423147 -0.035641544 -0.01182431 0.025907576 -0.018953554 -0.013989731 -0.048123233 -0.03317848 0.022143072
picks -0.022534141 -0.035614 -0.038546678 0.006623712 0.0057206303 -0.02988429 -0.034416534 -0.0428043 -0.03311947 -0.047680207
tuesday 0.023814166 -0.00012441142 0.03844582 0.020946944 -0.024726124 -0.018514177 -0.00498181 0.023514803 0.033669177 -0.046530977
#wallsteet -0.02739514 -0.0201415 0.015406929 0.0274776 0.04510682 0.014657501 -0.0051411656 0.030682996 0.020029368 -0.01843873
#stockmarket -0.030095188 0.010037626 0.044476416 -0.029126363 0.026492028 -0.006967839 -0.004245128 -0.045280006 0.023264233 0.0042466368
#finance 0.042587742 0.037326742 -0.015360956 0.022479028 0.03925806 -0.032201894 -0.010741203 0.010483272 -0.036267985 -0.015936336
#cnbc -0.019257478 0.024437362 -0.014880075 0.03967271 -0.030380443 0.040342018 -0.043378636 -0.008980735 0.018513566 0.022254188
#cnn -0.04248787 -0.039274346 0.0024396204 -0.012719441 0.012964093 0.038439967 -0.038544085 -0.049721543 -0.03557434 0.038062915
#foxnews 0.026787214 -0.03006513 -0.029318443 0.038437214 0.03700959 -0.046328057 -0.0066452753 -0.027928703 -0.0036660496 -0.04329911
alert 0.045182634 0.024778087 -0.048459943 0.028070414 0.010440097 0.020300355 0.02709549 -0.007264407 0.01982823 -0.050817657
late 0.027725745 0.04354909 0.011553783 -0.015458404 0.010393537 -0.025829606 -0.011011119 -0.04149129 -0.011382239 -0.036334567
micron 0.028071608 0.05035226 -0.024679491 0.04040984 0.0089891665 0.020755459 -0.026947293 0.024495885 -0.028003106 -0.001408965
ride 0.0437222 -0.036585562 0.0058252835 0.04484362 -0.013244543 -0.035103213 -0.03885548 -0.022932881 -0.04771829 -0.0013035336
share -0.04127044 -0.019657265 0.016293677 -0.022698147 -0.036249813 0.04599024 -0.03373353 0.042988922 -0.011792206 -0.033129275
isolationism 0.016786834 -0.042514645 0.021938039 0.02835032 -0.04362185 0.00034479148 0.010539826 -0.018718002 0.04368874 -0.038573775
qqq 0.028159838 -0.039584693 0.0014800004 -0.042205848 0.03694003 -0.013047774 0.021934602 -0.021858443 0.050153047 0.043627996
iwm -0.0037671144 -0.009310367 0.018963253 0.027762065 -0.03987666 0.030055257 -0.018058265 0.021242607 0.03579844 -0.05299261
several 0.0031425504 0.015723813 -0.02124044 -0.010984733 -0.018253615 0.023506626 0.03828269 -0.032126136 0.030568939 -0.04808667
media -0.007903775 -0.032386452 0.045501973 0.02926663 0.034678653 0.01171319 0.012600893 0.039827578 0.039943825 -0.015254006
february -0.007654084 0.024188368 -0.02796754 -0.01628417 0.03792667 -0.05154682 -0.035148602 -0.045382787 0.0015404543 -0.0069338293
commerce 0.0038874915 0.023324175 0.038588084 -0.028020063 0.045740888 -0.02810911 -0.008688724 0.026012646 0.01980491 -0.028130423
remains 0.027720366 0.04963437 0.019076092 -0.016556755 0.0046900306 -0.043365605 0.0084935855 0.035432998 0.006488462 0.027519222
resilient 0.021113895 0.043900713 -0.002654126 -0.045722026 0.011893637 -0.022475224 0.043819673 0.022729058 -0.041563813 0.0052805617
work 0.03425308 -0.0009314221 0.030884191 -0.049112942 -0.014031394 -0.016914606 -0.0012251585 0.0022685672 0.009962376 0.013315363
jump -0.05083625 -0.021930525 -0.023765413 -0.0094796475 0.027213845 -0.05232622 0.025503531 -0.016856749 8.6686756e-05 0.035154223
hard -0.050748955 0.013047242 0.034610994 -0.04169081 -0.004727717 0.029650416 -0.03592601 0.048438214 0.016744668 0.0069846353
changed 0.02319968 -0.021919748 -0.032410387 -0.043510333 0.0075519904 -0.03291835 -0.013974514 -0.039792784 0.03386521 -0.002844027
side -0.0025383898 -0.032979395 0.01106194 0.03612867 0.025164038 0.011033832 -0.012944088 0.021198474 -0.011894952 -0.025986062
priced 0.027314045 -0.0037498514 -0.03274592 -0.0016910939 -0.019427443 0.046971764 -0.04038406 -0.010678156 0.033690736 -0.004092035
know -0.023446206 0.013859351 -0.015570809 0.020264981 0.017596753 -0.014886068 0.031510275 0.04996024 -0.044909094 0.011274085
ripe -0.012957653 -0.045633793 -0.039068233 0.04477333 0.0127924355 0.03797666 0.027714882 -0.02154391 -0.03233762 0.047418617
@cgrantwsj 0.032962903 0.041539934 -0.04078657 -0.02865125 -0.010381618 -0.042398363 0.044888105 0.017263956 -0.009895819 -0.042490587
highlight -0.01578685 0.024921425 0.048010785 0.032684576 0.018606912 0.019411586 0.019012498 0.0011672059 -0.01622392 -0.024624549
businesses -0.0352473 0.0064964476 -0.048578843 -0.02551589 -0.0024907258 0.00061616243 -0.026485045 0.048714317 -0.03251963 0.006521376
payers 0.027521167 0.0041830926 0.0026959437 -0.018147834 0.03456405 -0.012592478 0.006771558 -0.014749569 -0.019918766 0.020248609
tv -0.042451505 0.021206638 -0.00991762 0.033459168 0.033404004 -0.012265084 0.032679487 -0.022217214 -0.0353838 0.042556774
buys 0.023148837 -0.0031656094 0.028704137 -0.027640237 -0.017915925 -0.044910777 -0.028598098 -0.037269313 -0.030082626 0.037815552
upper 0.006924189 0.030608006 -0.033810347 0.013680674 0.027728992 -0.038959187 0.0073468727 0.010387391 -0.037778746 0.04207961
love -0.0067755114 -0.026664026 -0.044973552 -0.002660678 -0.047191806 0.015614867 -0.038387332 0.042720065 0.04124651 -0.0139500145
$ 0.011464919 0.01373457 -0.048298813 0.003761542 -0.009209602 0.02402628 -0.012780188 -0.030602576 0.007630015 -0.0074271117
twitter -0.043847166 0.04590706 -0.041335184 -0.035752323 0.0028802385 -0.034784492 0.027976492 -0.034585033 0.00056394626 0.03632242
cheap -0.005256943 -0.0243177 -0.011645093 0.009620937 -0.039322216 0.018260702 0.03883344 0.030368164 0.012676399 0.030954706
mark -0.047037248 0.018561698 -0.00784932 -0.026292814 -0.04388976 -0.010893743 -0.026834523 0.0023458127 0.0053223846 -0.0009494274
years -0.038602334 -0.021373283 0.009752761 -0.013532165 0.042868175 -0.0077430014 0.017493492 -0.021971615 -0.035431925 0.0463956
though 0.031770654 0.044022497 0.047091324 -0.026583359 -0.041740406 0.007697415 0.04642996 -0.025952525 -0.0017418386 0.008522942
search 0.04426326 0.00963603 -0.017845303 0.02243556 -0.044775728 0.02922701 0.030768527 0.024906687 0.045008678 -0.011796198
sharp -0.015459353 0.03968859 0.04299738 -0.0023528982 0.010969686 0.0007828337 -0.04932715 -0.023589116 0.016721494 -0.034746125
found 0.038936153 0.018228652 -0.024065727 -0.024559354 -0.024530232 -0.043283645 0.047575198 -0.03795081 -0.021880792 0.010607791
someone -0.01954086 0.031949848 0.04463834 0.024155153 0.0036765565 0.026814448 0.027794536 0.04545458 0.04356108 0.03241277
er -0.02654262 0.034398515 -0.024075849 0.03890966 -0.044919737 -0.030778475 0.023479491 -0.028823141 0.034012105 -0.03475013
dips 0.0085360445 -0.014536838 0.003947818 0.0048172227 0.04620407 0.013734323 -0.020724153 0.0010475379 -0.032555968 0.026786057
helps 0.008520206 -0.033019647 0.041749667 0.01594161 -0.017747557 0.015225294 0.041991726 -0.019722018 0.026984759 -0.040397666
monthly 0.004520488 -0.038354468 -0.013270305 -0.030445347 -0.029799566 -0.034252293 0.00070003484 -0.043557912 0.014672893 0.03168135
business 0.0054222876 0.023033204 -0.041461334 0.03675522 0.04053684 -0.0026583753 -0.030620648 -0.014971808 0.014635665 -0.02891375
yesterday -0.048903435 0.035954483 -0.03146414 0.03298313 0.039155163 0.02800756 0.005889399 0.028715525 -0.029598916 0.016727177
prices -0.046179585 -0.0063321604 -0.0059404634 -0.013979142 0.010991443 -0.0371166 -0.0042891135 0.031117367 0.0062439227 0.013310002
better 0.043920215 -0.044264928 0.048294492 -0.021121917 -0.024662286 -0.04681235 0.0016910115 -0.03529264 0.028474892 0.020876748
idea -0.0034598338 0.01165992 0.018747281 -0.043729793 0.041189674 -0.04526655 -0.047342908 -0.027326917 0.016265236 0.024943365
trend 0.03081044 0.03471482 0.009289708 0.01977993 -0.04888692 -0.028894586 -0.051487427 -0.0009785419 -0.024384081 -0.021270799
profitable 0.01418213 0.013682968 0.018218111 -0.009839605 -0.022962837 -0.03482994 0.027210549 0.0008107173 -0.048777334 -0.013253739
drag 0.008370891 0.049506854 -0.00142004 0.016099082 0.03604075 0.032385115 -0.006128514 0.019444317 0.03661112 0.041380815
@NN 0.000631928 0.034767848 0.040580265 -0.0046715764 -0.03737625 0.002874049 -0.026126944 -0.040046968 -0.04104246 0.048524704
consolidation -0.046242017 0.038896963 0.013715324 -0.03537586 0.031329956 0.0075467797 -0.008375817 0.02429647 0.03709539 -0.016848933
zone -0.009025419 0.014922679 -0.0045459103 -0.010141166 0.012487733 -0.029368203 0.0054961285 0.008041649 0.0018561335 0.025537942
plays 0.048482817 0.017062627 -0.023720989 -0.0053694583 -0.01598641 0.044690363 0.024401942 0.04390992 0.04701474 -0.045162965
scan -0.035851188 -0.035301026 -0.013024624 -0.019824244 -0.018001635 0.022595344 -0.020834979 -0.019018793 0.050872047 -0.04855792
key 0.010432044 -0.028356818 0.03548202 -0.0016182269 -0.03240806 -0.007556399 0.017585486 -0.046430472 0.049079176 0.044634942
huge -0.04102254 0.05343097 0.004008449 -0.027803624 -0.015377308 0.043465175 -0.03769316 0.025777735 -0.014459535 -0.000930043
industrial 0.0061678304 0.032194227 0.046093516 0.024271375 -0.014602559 0.040527713 0.044112958 0.024942942 -0.00596892 0.0134021845
goods 0.0009147794 0.020464376 0.016092028 0.021040265 -0.0067609055 -0.04352343 -0.010458845 0.008485183 0.04681743 0.01393826
position 0.030656882 -0.021061232 0.0458133 0.044572864 -0.01740603 0.034072615 -0.037437383 -0.023847666 -0.034578517 -0.03968549
post 0.02490784 0.02614006 0.0103199715 0.0033742238 -0.016554024 0.043951973 -0.02878484 -0.038797807 0.01685218 -0.0049939617
p -0.012660853 -0.027478574 -0.019932035 0.04122076 0.029679637 0.037430413 0.030634377 -0.014355613 0.033537675 -0.010315624
bull -0.04323661 0.03412542 -0.011143844 -0.008576105 -0.042791698 -0.03172646 0.01632773 0.022113318 -0.024986409 0.032210417
mkt 0.028527766 0.030265337 -0.03650818 -0.032783523 0.046761464 -0.039580286 -0.024429165 0.01792853 0.012124216 -0.00918471
chance -0.038637552 -0.022068761 -0.023180177 -0.016210964 0.035196096 -0.028417546 -0.02515982 0.007403891 -0.00042161625 0.046477694
w -0.039374653 0.019274473 -0.008778835 0.011697101 0.02238109 -0.021113109 0.0036861633 -0.02091637 0.0023791005 0.0048923693
whole 0.037660535 -0.009744392 0.01179261 -0.015055291 0.013702609 0.008998561 -0.01382624 0.04183383 0.029050205 -0.044206847
foods -0.043171547 0.02567171 -0.0029990221 0.015913002 0.048652824 -0.015333956 -0.044281483 -0.04494945 0.018216427 0.028467493
watchlist 0.011464016 -0.01661416 0.00782117 -0.0011941526 -0.018592402 -0.04539776 -0.037081145 -0.017694192 0.016248412 0.035662264
recalling 0.02684123 -0.02467428 0.007250128 -0.010436193 0.04868765 0.00619353 0.047837175 0.047394436 0.020123797 0.03180841
dow 0.04363267 -0.029158404 0.033150963 -0.03202218 0.017370323 -0.0016051956 0.033100683 0.019494101 -0.035615765 -0.042954836
nike 0.03163666 -0.023663187 -0.03469816 -0.01368772 0.029359419 -0.0009782524 -0.013898329 -0.03355015 0.046352506 -0.016921842
borrow -0.03997749 -0.0035547363 0.018411012 0.049163137 0.046360344 -0.011545062 -0.0034144418 0.0010337691 -0.017730549 -0.009043308
means -0.028668933 -0.041684847 0.03395265 -0.02485189 0.0042803637 0.037864476 -0.019205632 0.005022789 0.04772193 -0.031534165
avail -0.022336036 0.044551373 -0.049222574 0.0281311 -0.021122841 -0.013782419 0.042027734 -0.041386355 -0.0056765676 0.04598542
meanwhile 0.041183997 0.010519339 0.029415807 -0.035901736 -0.008939437 0.011651086 -0.03828029 -0.028616417 0.0057075787 0.03408146
deals -0.03187236 0.0012855108 -0.03626217 0.00035693913 -0.023406595 0.0209303 0.035674777 -0.00547955 -0.00148817 -0.04988194
@reuters -0.033696014 -0.015599693 0.003297513 -0.03728673 0.020288382 0.026559688 -0.008004778 0.022599857 0.03413267 -0.050191637
wmwitkowski -0.015806016 0.010306939 0.017841127 -0.031541757 0.034769695 0.013325843 -0.03455312 -0.009955455 0.044757567 0.010522785
Qmark… 0.046286456 0.03812312 -0.002469571 0.013381128 -0.029140199 0.019357214 -0.008093126 0.0131261675 0.01286073 -0.041636035
#NN 0.027659517 -0.025519652 -0.04003905 0.026948595 0.011108846 -0.03494534 0.03206378 -0.04348482 -0.0019282242 0.0024706223
markets -0.0034997226 -0.012342307 -0.0176093 0.038278524 -0.049851425 0.020739837 -0.025901819 -0.025000997 0.0140912365 -0.03526288
black -0.011698461 0.03509957 0.029992223 -0.0062554046 0.034725565 0.014059355 -0.03064337 -0.022900768 0.044140365 -0.014176378
#oil -0.0033599425 7.7066004e-05 -0.029425504 0.024671808 0.02406972 -0.027331803 -0.03781767 -0.020119732 0.031965937 0.040429175
#optionstrategies 0.008580848 0.044248413 0.027160428 -0.022403616 0.047415923 -0.028792698 0.019081652 0.0012924899 -0.04233672 -0.04102622
estimize 0.0026311795 -0.007338629 -0.0024900206 0.047201764 -0.049419876 -0.021652212 -0.018104877 0.048797846 0.031416293 0.010211255
eps -0.011543034 0.0031383096 0.024419997 0.036858756 -0.016221039 -0.003579526 0.047307637 -0.025030307 0.0029612156 0.0012276602
NNc 0.04095965 -0.012982615 0.038766433 -0.038393293 0.012327349 0.036444213 -0.0019997729 0.016735917 -0.026479619 0.002692172
revenue -0.0012395056 -0.029317264 -0.013295648 -0.02941866 0.035856586 -0.016738592 -0.027720442 -0.016968518 -0.02897899 -0.0034261267
DDm -0.048489947 0.010951736 0.032483783 0.0023029847 -0.042205982 -0.03931356 -0.025901804 -0.03812617 -0.022638671 0.035129998
opening 0.031288896 -0.03190144 -0.04552441 -0.022642788 -0.009648396 0.026117872 0.040837426 -0.04830982 -0.03469622 0.017905701
NN$ -0.011154077 -0.048371498 -0.0002469789 -0.011280116 0.02787184 -0.011863782 -0.034162972 0.024854412 -0.03664647 0.0033141351
pushing 0.008219101 0.0050079743 0.00023779392 -0.015879804 -0.026420265 -0.016117286 -0.034565914 -0.03799404 0.03849352 -0.005756084
assets 0.014359536 0.029045304 -0.01619642 -0.010950077 -0.04539562 0.0010579567 0.039126165 0.032143306 0.015127894 -0.025601726
oi 0.008230568 0.011166226 -0.03374204 -0.043912556 -0.027342027 0.00687057 -0.002378659 -0.0035674572 0.042031623 -0.04764685
bollinger -0.02945048 0.046542216 -0.02399487 -0.049233112 0.00088691246 0.025792075 0.011422638 -0.0156210875 -0.033504114 0.003082844
cable -0.012047224 0.048574597 -0.023238992 0.018047227 -0.0064119957 0.0119333 -0.03385757 -0.00085657916 -0.016068948 -0.027585516
single -0.031541333 0.00053291366 0.049948927 -0.004406593 -0.043028537 -0.021063158 0.012983267 0.042395566 -0.013474056 -0.015298075
fcf -0.026099667 0.006860147 -0.041127842 -0.020497272 0.04367565 0.014940162 -0.046633266 -0.04912457 0.029994136 -0.022857735
commented 0.0055490118 0.04496432 -0.04399807 0.04183391 -0.013579221 -0.022406518 0.041948218 -0.046707395 0.046189085 0.024652075
#china -0.026433684 0.028671589 -0.009202442 8.699881e-05 0.025608841 -0.039145485 -0.027534263 -0.040554307 0.042425346 -0.007722316
moves -0.04899083 -0.017665261 -0.04501208 -0.027123613 -0.034834027 0.037661105 0.03258188 0.02210803 -0.004035227 -0.030335832
cup -0.013458953 -0.030240031 -0.0153703485 0.040774334 -0.006587877 -0.027652185 -0.009709766 -0.040129293 0.021607606 0.032379728
handle 0.02267044 0.015105204 0.010053073 0.002566397 0.022523167 -0.021119753 0.008060921 0.015060065 0.026157165 0.047260664
patents 0.03096727 0.030949192 0.014592948 0.04368817 -0.0047180234 -0.016252788 -0.011165204 0.035280094 0.040956605 -0.01046708
turn 0.008067561 0.0014291891 0.01974247 0.046873134 0.011969767 -0.034990743 -0.0018717307 -0.03655694 0.011194737 -0.04152126
signal -0.030724745 0.048953902 -0.043462235 -0.0430473 -0.00089425256 0.04436323 -0.031967938 -0.0010031324 -0.028921226 -0.03963422
@gerberkawasaki -0.037058078 -0.045468267 0.028653044 -0.0012989567 -0.018320978 0.02135063 0.033751912 0.02883366 -0.013498444 0.021898188
theme 0.025209103 0.0028598912 -0.048022904 -0.023658797 0.04762784 0.020058187 0.004267253 0.047452766 0.008723113 -0.016010223
vogue -0.017057711 0.0021495237 0.03283455 -0.03969665 0.02341549 -0.035473533 0.045916226 -0.0069620744 -0.002698109 0.045556597
percent -0.038629647 0.0082347365 0.014114259 0.0038475064 0.003495348 -0.030863577 0.03934347 -0.0063696634 -0.049186815 -0.048290946
nobody 0.033233166 0.02359293 -0.030137872 -0.027184078 0.013130153 0.024733884 0.046656124 0.040458243 0.04901655 0.005127425
hanging 0.032664023 -0.04498554 -0.026313858 -0.049428158 -0.008713244 0.043478385 -0.04753706 -0.04902633 -0.01914662 0.017994616
lift 0.038764358 0.043837648 -0.03528251 0.0074744103 0.0011479754 0.021613544 0.04120432 0.03633681 0.028553674 0.00546803
stake 0.025256405 0.022959175 -0.0107004065 0.026119107 -0.0074226065 -0.035222046 -0.048175603 0.025460266 0.03868928 0.03549582
@fitbit -0.0051773977 -0.01981156 0.0031833793 -0.029296907 -0.02072473 -0.0005339554 0.04948502 -0.03141956 -0.00923527 0.032035675
outperforms 0.0058008903 -0.042464375 0.0396731 -0.04567188 -0.03333666 -0.04395565 -0.042083316 0.03280363 -0.0056173853 -0.018320322
column -0.022997757 -0.005156866 -0.04035946 0.02207602 -0.042837773 0.005080061 0.01752601 0.039784957 0.051275875 0.046278197
highlights -0.011768413 -0.022468185 -0.02107201 -0.01742286 0.0115895 0.042621348 -0.019254029 0.026685158 0.035710055 -0.030065112
provides -0.05151426 0.023704715 0.037608005 0.043240048 -0.013686458 -0.043900345 -0.0052114693 -0.045788877 0.005531108 -0.017494557
favorable -0.029435003 -0.042141207 -0.008205039 0.00046627084 -0.0007092398 -0.033480603 -0.01683086 -0.0040603094 -0.047643304 -0.04991719
citron -0.037991606 0.020453852 -0.011093604 0.003862182 -0.04181827 -0.025170485 -0.034397006 -0.032399014 -0.011615928 -0.047667667
quote 0.03960477 -0.03232866 0.03493612 0.04453222 -0.012511083 -0.007343378 -0.025473893 0.006331348 -0.0075711915 -0.02260733
blood -0.035625637 -0.048464816 -0.04710952 -0.018304694 -0.012095405 0.008681172 0.02223518 -0.0021934698 0.016260717 0.044058852
nov -0.010567007 -0.0010951539 -0.013357264 -0.05010249 -0.042938486 -0.023582848 -0.0047398675 0.037847716 0.011793723 -0.014306187
sources -0.0162237 -0.0034515588 0.032962233 0.024538295 0.022736179 0.016724307 -0.02923146 0.035184056 0.04994707 0.046902314
verizon -0.032997977 0.041103546 0.031521097 -0.028346928 0.022530712 -0.000662418 -0.010228582 0.024917064 0.014419069 0.023863433
#facebook -0.011649616 0.004016255 0.008181648 -0.0019604464 0.012805548 0.041603953 -0.020015394 -0.026823282 -0.0116370125 -0.034168337
falling -0.016033795 -0.024071867 -0.03868214 -0.02976233 0.009747428 0.020780517 -0.042454753 -0.032493178 -0.014135666 -0.0053549847
@wallstreet_rant -0.046881795 -0.017470442 0.026187504 0.019899983 0.028695252 0.028512575 -0.04971445 -0.015964111 -0.035795517 0.020227017
@florentcapital -0.038062055 -0.019109854 0.043725897 -0.04350593 -0.037945546 -0.032137305 -0.04609478 0.035115153 0.010739862 -0.015409054
NN/ -0.015043944 0.010444852 0.028333781 0.037281092 -0.023091467 -0.047613826 0.01042189 -0.019060228 -0.036819216 0.047991864
inst -0.051464763 -0.01802911 0.0020555004 0.04308244 0.017312892 -0.0019957488 -0.03383612 -0.050252456 -0.005728852 -0.01057167
ownership -0.01966376 0.028899452 -0.023524407 -0.008576374 -0.046336714 -0.007945401 0.012859831 0.021157393 0.0047569415 -0.026954472
actually 0.012961132 -0.008412421 -0.024026297 0.042960774 -0.039787162 -0.04081463 0.0022447405 -0.018523967 -0.0048972643 0.04677978
egregious 0.03169477 0.027632745 -0.011288379 0.041082177 0.02399491 0.0017970221 0.0058009457 0.03715431 0.03085677 0.033819966
receives -0.0004912479 -0.04320529 0.032111455 0.026176129 0.026637005 -0.024409184 -0.040122528 0.03698708 -0.01317584 0.025319204
alcoa 0.046683658 -0.047415446 0.04661779 0.048945174 0.0111892745 -0.0160964 0.0114953015 -0.039232656 -0.04292872 0.039408688
kicks 0.039859936 0.013152652 -0.0082377875 0.045277204 0.03940699 -0.031155603 0.032663833 -0.0023582294 -0.0025710212 0.0042491215
rid -0.021397797 0.039480727 0.037613004 -0.0016896209 -0.04506562 0.008274228 0.005784717 0.017092755 0.05126919 0.006249067
generic 0.022194399 0.040622022 -0.022046642 -0.04377653 0.03915457 -0.018565865 -0.049079925 0.0008777084 0.051261924 -0.019451398
sense -0.046880875 0.009785231 0.04227092 0.046273913 0.000709454 -0.050362166 0.01140871 -0.0076357657 -0.01926541 0.005884364
plus -0.032472573 0.02530447 0.036403477 -0.04148749 -0.035273965 -0.05039762 -0.012561661 0.037227444 -0.042052917 0.005839522
irish 0.0450536 0.0023598261 -0.034422737 -0.05190112 -0.049782854 -0.017926732 -0.027528327 -0.011475589 -0.019243296 -0.03409243
based 0.0032773903 0.01616458 0.0014905513 -0.0055736606 0.046777423 0.015243326 -0.025746662 0.044967882 0.03908856 -0.016931584
fees -0.018764783 0.03112258 -0.03402746 0.016335763 0.04122339 0.044125397 -0.019140545 0.030101664 0.044225115 -0.050927643
picked -0.0087341815 -0.011801174 0.007623177 0.0065773455 0.046535447 -0.012093564 -0.046938207 0.016595343 0.049771473 -0.03886888
hot -0.011030942 -0.010461764 -0.04922951 0.015692238 0.0032965126 0.04214418 -0.013187311 0.019843118 0.03201833 0.03236436
program 0.026545484 0.0067782514 -0.032696255 -0.035797853 0.014448449 0.005007489 0.04148397 0.011925185 0.011649765 0.009012125
boeing -0.018567832 0.016857017 -0.03288946 -0.0031685338 -0.02734994 0.025573485 0.012059026 -0.02874733 0.012809009 -0.0069412584
done 0.030744592 -0.007015814 -0.017125389 0.030097228 0.03932879 -0.027274147 -0.012943262 0.0036312682 0.008721957 0.035781644
need 0.03455479 0.052181784 -0.045514725 -0.007262963 0.042853724 -0.042389214 0.016504137 0.027076315 0.00563556 -0.017944323
consumers 0.0002798966 0.033888396 -0.022519248 -0.014157443 0.0038209022 0.01976724 0.019708728 0.047181506 -0.02993145 0.044922948
airlines 0.0044733337 0.013743397 0.037097316 -0.0066783545 -0.012577508 -0.007678995 0.008616307 0.033558015 -0.044586696 0.019047694
battle 0.01510205 0.025435388 -0.018213468 0.034088876 -0.014157652 -0.034988098 -0.008023566 0.036628883 -0.037737057 -0.044623192
routes 0.041236356 0.048818126 -0.037424766 -0.043844942 -0.026408957 -0.02862591 0.013835633 -0.0074032503 -0.031984955 -0.044060506
technical 0.0041509382 -0.035557095 0.039315876 -0.049986977 -0.0021162133 0.0006300988 0.03719114 -0.045678392 -0.03176036 -0.004849901
comments -0.007651617 0.049179163 0.0108741475 -0.021088162 0.013871044 -0.024581982 0.029030398 -0.008022777 0.030265713 0.0038322294
israel -0.03645305 0.0033084021 -0.025635766 -0.019602217 0.029726079 -0.00569024 -0.028706076 -0.0071397945 -0.004932595 -0.017480405
tax 0.024129748 0.048505757 0.014297949 0.041690484 -0.038219858 0.017398553 -0.0052582137 -0.031858433 0.01398247 -0.041284114
ceo 0.040098306 -0.021174068 -0.04256168 0.033841316 0.0050076055 -0.02207268 0.042917818 0.0017530743 0.030989764 -0.022037532
taxes -0.051032547 0.025985911 -0.000503192 -0.041579872 0.017415252 0.04218222 0.031072201 0.0008909597 -0.019454258 -0.04150137
test 0.023288406 -0.040338032 0.0131416535 -0.036563966 -0.03633778 -0.025499837 -0.035469647 0.02119169 0.042776704 -0.020213619
place -0.03944002 0.019948699 -0.04126219 -0.014349688 -0.029861629 -0.036745027 -0.02850583 0.039842147 -0.004825857 0.028376678
services -0.0060801576 0.029265802 -0.02464577 0.036700435 -0.036051694 0.010887219 -0.0028198343 0.032159615 -0.0014877169 0.017111368
faster 0.024811164 -0.03197589 0.04218141 -0.014573428 0.040980656 -0.05010032 -0.03149068 -0.0064856587 -0.0007462776 0.00022923014
shine 0.043487668 -0.03070562 0.045411788 0.036875 -0.03880075 -0.01839953 -0.011174814 0.00034171736 -0.009524302 0.035622347
words -0.025587175 -0.026870828 -0.04352592 0.03727794 0.023656895 -0.022680696 -0.036650304 0.021134641 -0.021282012 -0.043452196
starting -0.051443387 0.005349896 0.027708631 -0.04320023 0.04331694 0.003659169 -0.03175071 0.022830578 -0.028729279 -0.0006621803
show -0.019770352 -0.012439657 0.039238356 -0.046054255 0.03812723 0.01505635 0.030448722 0.02599783 0.036203902 -0.003998363
relative -0.040855832 0.043163765 -0.0043472103 0.024563864 -0.030867549 -0.050683655 -0.0023220617 0.04228749 -0.005136783 -0.009146516
strength 0.009584297 0.011675609 -0.032069817 0.04243561 0.019514428 0.015357516 -0.015242486 0.031080777 0.013860858 -0.04941132
b/o 0.013403117 0.029066522 0.0016786989 -0.03997534 -0.007490076 -0.017552514 -0.047947254 0.019071896 -0.042123117 0.029275626
outperform -0.04287895 0.034824044 0.015504759 0.018191565 0.041885234 0.00887407 0.02602087 -0.036682747 -0.0025188096 0.028633079
feb -0.014010042 -0.019198813 0.04699303 -0.041318007 0.025514707 0.03021181 -0.0018527121 0.04814658 -0.04713415 -0.010551546
headed 0.016476218 0.021514298 -0.045177154 0.014098049 -0.035250384 0.023399776 0.03341483 0.016404247 -0.04321039 -0.026230345
issue 0.030273112 -0.030135 0.008524619 0.043488305 -0.018682338 -0.014056197 -0.042937584 -0.0324978 0.00013487147 -0.046115395
value -0.028050015 0.023741812 -0.03525388 -0.013612301 0.03479332 0.027188048 0.025582448 0.04443535 -0.016034309 -0.041034374
bear -0.0038312424 0.043456778 -0.04007062 0.010092619 -0.0037716152 -0.01693329 0.024863858 0.016805401 0.026559545 -0.042264994
#datasecurity 0.03647362 0.026774213 0.020092186 -0.041874442 0.029585255 0.023428308 0.014553576 0.034217548 0.030485734 -0.032460436
mobile 0.044614892 -0.046072952 0.020741606 -0.019219274 0.022695567 0.031658128 0.04238898 0.04141557 0.022467174 0.017697217
indices 0.04596115 0.045726165 0.035628956 0.014719161 -0.00087678886 0.049333204 -0.018644108 0.019504957 -0.0015684968 0.043879095
rallying -0.035276055 0.00045710552 0.044287764 -0.026856808 0.012383597 0.028273268 -0.037246794 -0.01591331 -0.035269544 -0.042738542
highly -0.029134072 0.0493979 -0.0050166002 -0.049265962 -0.0066213254 -0.012023816 0.0041315 0.013236045 0.042198006 0.013117947
underperforming -0.007934919 0.018696237 0.014754336 0.009083601 0.04278132 0.014183316 0.0023882485 -0.03578583 0.007642446 -0.05010831
hold 0.04024605 0.024887525 0.04832979 0.00613418 -0.04911326 0.0026275537 -0.019141888 0.003587535 0.003115204 0.009552475
open 0.02330372 -0.029384702 0.03768974 -0.023679765 -0.023358943 0.047603812 -0.015401289 0.030232701 -0.04449633 0.038931224
r/g -0.022987396 0.045226607 -0.031847835 0.042633466 0.039760113 -0.051586755 0.008461711 -0.02745471 -0.03270327 -0.045167055
points -0.0042739753 -0.0044334647 0.01687881 0.024162583 0.009605067 -0.014003335 -0.028339442 -0.042738233 -0.036483876 0.017974112
@netflix -0.009331625 -0.006792013 -0.009902498 -0.003970345 -0.042774085 0.029166052 -0.021843767 -0.03510089 -0.03363663 0.031044228
purchase 0.007855679 0.00096161064 0.035557244 -0.04295458 0.022687731 -0.042127375 0.0015495333 0.021101834 0.0030628347 -0.0090296855
@viacom 0.005129806 -0.024564736 0.004477832 -0.048706923 -0.0040434306 -0.052590314 0.036547672 -0.044571385 -0.0036336693 -0.0024812147
mktcap -0.01864191 -0.042188242 0.04810361 0.018188287 -0.022689966 -0.04447817 0.020736562 0.023718191 -0.043622267 -0.041370973
size 0.03720843 0.037493534 -0.026741 -0.014889826 0.005459955 -0.030761193 -0.021978475 0.036379844 0.004540657 -0.024614584
might -0.036420695 0.048469048 0.028525125 -0.040337548 -0.034778707 0.019624284 -0.0053365156 0.0023485066 0.043257475 -0.02916157
cheaper -0.050284717 0.04815643 -0.033528548 0.0432304 -0.04713507 0.040190585 -0.0013634181 -0.03390713 0.030728003 0.03834279
content 0.0031127818 0.040356655 0.022432936 0.026746668 -0.047525972 0.045080964 0.021184644 0.0009931042 -0.040267862 -0.0028517763
produce -0.031946126 0.010056806 -0.042202123 0.028749425 0.005184583 0.008394484 0.04323084 0.019672312 -0.035006765 -0.0028134012
competition -0.018756812 -0.036894824 0.01263427 -0.01995035 0.047387842 0.036216132 0.004699608 0.012073008 -0.031926412 0.0042833593
enjoyed -0.020438042 0.031222248 0.022336101 -0.023849674 0.045373335 0.0019075995 -0.03361164 0.03009082 -0.025417492 -0.04130919
lets 0.033068478 0.02132902 -0.048870742 -0.03554536 -0.04672589 -0.02231638 0.039606214 0.020800665 -0.03751581 0.033670466
rsi 0.014235677 -0.0015824803 0.022488756 0.046764523 -0.004219014 -0.0030296312 0.01409926 0.029629745 0.04091804 0.00863361
downgraded 0.01837658 -0.033295315 -0.021967856 0.02294653 0.037966873 -0.05250343 0.023251856 0.004041962 0.0145164495 -0.006941099
drops 0.046084214 0.020956662 -0.039002948 -0.048992343 -0.02979167 -0.02559871 0.033823956 -0.045814116 0.018128335 0.036070295
pass 0.02582018 0.02338832 0.044905655 -0.026280321 0.024132462 0.018309416 -0.049832426 0.033775367 0.031396065 0.00707965
name -0.015763577 -0.040076826 0.001543263 -0.050754145 0.036910433 -0.022159986 -0.028929187 -0.01899553 0.036656946 -0.0012534307
judge 0.004147604 0.046488885 -0.04065232 0.022015562 0.041467134 0.046400864 0.046221036 -0.019452773 -0.021683354 -0.007991362
case 0.042581305 -0.026424939 0.03060871 0.015639704 0.012673512 0.034588657 0.036243647 0.018853348 0.01417745 -0.028477216
things -0.03139079 0.02751689 -0.00071560196 -0.010169374 0.033615075 0.04576765 0.010013452 -0.0402848 -0.03909238 0.019447869
results 0.046285734 0.034847945 -0.029094841 -0.011481682 0.024035616 0.04228677 -0.0007986801 0.044691984 -0.0013235398 -0.04257811
reported 0.034620073 0.04550302 -0.030676808 0.025720948 -0.015822655 0.04254229 -0.02958351 -0.012038113 -0.022074057 0.027882665
bmw 0.005174379 -0.015342779 -0.020577533 -0.011178094 0.043255005 -0.024311353 0.036483634 -0.025469812 0.010420562 -0.005860031
entering -0.010988095 0.027544305 -0.024004549 0.01592153 -0.029915597 -0.01976712 -0.039816104 0.03477626 -0.04496582 0.010769863
iNN -0.00019794347 -0.04064926 -0.04266922 -0.020051626 0.006881101 -0.025640847 0.016930168 -0.03365088 -0.028292127 -0.024258526
roll 0.0059921257 -0.03700507 0.00020824379 0.016615957 0.04437847 -0.021196458 0.03210008 0.014188432 0.004551243 -0.030210715
announces -0.045807954 0.047547743 -0.008969256 -0.04394191 -0.034047026 -0.023925163 -0.009740447 -0.0032278006 -0.025860425 0.016424723
missed 0.01719264 0.004536777 -0.047993883 0.0044671167 -0.022936054 0.021841763 0.046378676 -0.011491859 0.015704725 -0.031546194
alerts -0.017438592 -0.029953739 -0.018729579 0.0018840462 0.012638975 0.020559132 0.037552416 0.047988147 0.032896746 0.04697094
investorsobserver -0.043023124 -0.012561206 -0.03284849 0.000776346 0.019427238 -0.0066500506 -0.04175037 0.034537897 0.0359074 0.043868553
#optionstrading -0.032982893 -0.012297233 0.031305585 -0.04708617 0.008621152 0.013081252 -0.013479301 0.027685685 -0.020657342 0.02851872
#coveredcalls 0.018765226 0.003879276 0.04242174 0.0062243035 -0.04572097 -0.039449226 0.035482448 0.042579602 0.049398206 0.005717362
marriott -0.021431493 0.04422197 -0.009101524 -0.0074376306 0.0037605655 0.026496464 -0.032277983 -0.010002014 0.0063774465 0.023219302
opportunity -0.00874418 0.023662826 0.045955975 -0.035581134 0.027397435 -0.0048993044 -0.021913135 0.036479972 0.009386228 -0.024624065
awaits 0.031278357 -0.016056353 -0.0045106746 -0.04145732 0.045548398 0.011385411 -0.036850963 0.03944174 -0.0038249423 -0.013431051
progress 0.030882604 0.036665577 -0.02708917 -0.038971607 0.038977187 -0.015788024 -0.03426695 0.047429904 -0.020721056 -0.005489738
mail -0.04544642 0.042626522 0.02542786 -0.03764742 -0.0045238184 -0.0020929456 -0.04712671 0.013070757 -0.018554028 -0.022432344
#tesla -0.04416586 -0.012690858 0.0026786516 0.019144924 -0.037687942 0.017692287 0.025776964 0.03836708 0.011665906 -0.0040537077
anyone -0.022490902 0.031336416 0.014197778 0.019443093 -0.012703833 -0.0028573296 -0.025556162 -0.020847373 -0.0059615006 0.010260471
red 0.037834506 0.025956735 -0.042219643 -0.017185418 -0.018989969 0.010890877 0.021251073 -0.013337365 -0.037887845 0.022717074
@immigrationca -0.001649326 0.00349628 0.037901733 0.0087145055 -0.027850345 -0.033629544 0.031035619 -0.0031395587 -0.029414617 0.026519159
h -0.00446002 -0.024777764 -0.032909203 0.02394237 0.03578254 -0.031464227 0.014267632 0.01024252 -0.006609655 -0.014985909
r 0.017924646 -0.043990303 0.017566813 1.5480233e-05 0.00039148363 -0.016666643 -0.031279843 -0.03189135 -0.03193735 0.042512264
finance 0.046090633 -0.021210043 -0.04994215 -0.044944182 0.048186906 0.017582431 -0.02268537 -0.044422276 0.024768503 -0.039920103
eecz 0.025190212 -0.008512066 -0.029407844 -0.01725405 0.042793665 -0.050263055 -0.049720872 0.0063212 0.017738437 0.046314165
ecosciences -0.015566108 -0.039634377 -0.008887684 0.040513657 -0.024369266 -0.037741594 -0.016215593 -0.027962841 0.046597652 -0.006862528
fall 0.031091385 -0.040185865 0.046253 -0.017023617 -0.0017861753 -0.006362459 -0.009318419 0.0013512968 0.023008725 0.028402228
recalls -0.03064648 -0.046328124 0.03346997 0.032182664 -0.0053107934 0.011085853 -0.0068623135 0.0333473 -0.03813612 -0.012595723
scenario -0.017705863 0.031126812 -0.0061809313 -0.00087763695 0.03357878 -0.030483376 -0.0082571 0.025287442 0.049512457 -0.04379296
cap 0.035620667 0.03444582 0.009904378 -0.032656536 -0.045597617 -0.028398644 0.030037181 -0.001690871 0.0064432975 0.037826013
history 0.023702543 0.036811873 0.021657087 -0.016357325 0.025991945 0.025357679 -0.030256338 0.026244255 -0.00041477382 -0.0312132
world -0.0030320727 0.025065891 0.044046346 0.040451583 -0.016127016 0.046987277 -0.028485902 0.020715125 0.030772205 0.0166098
impact -0.027366964 0.031255007 0.015233718 0.01637017 -0.0077653956 0.016042963 0.031260576 0.047410235 -0.02721169 -0.041743793
weakness -0.022392448 -0.008178144 0.036148265 -0.045947935 -0.03688573 0.033616208 -0.034848608 -0.03908448 -0.018810851 0.032723162
continues -0.031724866 -0.013557294 -0.038103655 0.0018430419 -0.04737358 -0.008096674 -0.021255296 0.045239408 -0.004082498 0.019581519
ever 0.025359709 0.045720346 0.0060066665 -0.04887679 -0.002872014 -0.026724894 -0.044595987 -0.04532778 0.013569443 0.020119943
issues -0.033164572 0.05068506 -0.036194514 -0.01276484 0.046815213 -0.016753752 -0.01695849 0.048352197 0.0145274615 0.048426487
seat -0.005016173 -0.0050845463 0.02146494 -0.009146957 -0.016391322 0.007636144 -0.0039710705 -0.025604904 0.002615783 -0.044325724
traders -0.019571437 0.040229175 -0.0063773384 0.0080311615 -0.04574992 -0.0064108456 -0.028424736 0.007927923 0.025958436 0.020395115
NNth -0.0351066 0.029211365 0.04138896 0.035956092 -0.0072674844 0.019667974 0.0046656323 -0.036826856 0.038025323 -0.04230015
ambitions 0.0026124911 0.046572305 0.03856744 -0.001307805 -0.027878972 0.008981251 0.048113596 -0.02199804 0.033976424 -0.004873818
arm -0.017407652 -0.044567205 0.0043197465 -0.047538236 0.0234174 0.042899877 -0.04392338 -0.030254181 0.0515718 0.04050835
amd 0.02256688 0.050730884 0.026901461 0.014568237 -0.024119819 -0.03448349 0.004863582 -0.030470764 -0.01856093 -0.0059423135
begin 0.03468946 0.03252149 -0.027247064 -0.04607946 -0.04694864 0.037968766 -0.031674728 -0.015234198 -0.008423577 0.045342244
assault 0.029445812 0.02614441 -0.0101104835 -0.029250769 -0.039810255 0.017682023 0.002440337 -0.0010012013 -0.016367663 -0.02699363
server -0.046416048 0.02569031 -0.046182506 0.033277094 0.0041983197 0.007975559 -0.037427403 -0.007390692 0.013527503 0.021316437
franchise 0.00704701 -0.030405052 0.043395236 -0.0026391868 0.046435446 0.025705691 -0.036358256 0.047051474 -0.0015800141 0.04528298
trades 0.012391582 0.03113637 0.00079914444 -0.02066227 0.01317633 0.002731602 -0.035214312 -0.042371877 0.034599442 -0.049122773
@jay_NN_ 0.023581706 -0.0003125994 -0.0060060844 0.048601832 0.046232473 -0.045239303 0.00065835245 -0.005043759 0.015736971 -0.00040436423
governance -0.04731495 0.01833769 0.021482406 -0.008159885 0.043800518 0.034624476 -0.03956327 -0.043675367 -0.035387464 -0.045386344
confident 0.036841683 -0.027564451 0.00011813689 -0.013875148 0.0087040225 0.013514191 0.034136284 0.0048657614 0.030726345 -0.03345834
industry 0.033530544 0.049747404 0.02303153 0.045222398 0.016146906 0.035137054 -0.050150465 0.010819079 -0.021655299 0.02804758
swing -0.04677673 -0.04752448 -0.04650459 -0.047784425 -0.012758479 0.02488283 0.008527298 0.037294377 -0.014341962 0.032768708
fri 0.04380983 -0.03103638 -0.022941392 -0.03529755 0.017977647 0.01913218 0.0075037796 0.027800482 0.046164777 0.0017288292
@anthonymaceroni 0.021853194 0.018099379 -0.01898015 0.010804196 0.031178735 0.014759518 0.03587334 0.0032163041 0.039829955 -0.017012736
technically 0.039467037 -0.01925698 0.0443178 0.0004990569 -0.0043105665 -0.042254016 -0.004719304 -0.0039447965 0.022493787 0.044924915
recessions -0.045974176 0.0108931875 0.03548199 0.025428219 0.049623385 0.031821568 -0.047275312 -0.019986397 -0.04256487 -0.047759496
consecutive -0.04771579 -0.034251526 0.022732567 0.006280594 0.009490688 0.029312763 0.048414763 -0.036436178 -0.010965184 -0.012393447
qs -0.050323308 0.031029357 0.022540528 -0.0103289755 -0.0034792572 0.006449703 0.034722805 0.040610366 -0.013805564 -0.018753191
declines -0.040771887 0.018458076 0.048357297 -0.045946762 0.0052419365 -0.035417184 0.015010486 0.031815425 -0.015774505 0.04452785
suvs 0.043928068 0.040584017 -0.016941868 -0.037798353 -0.008901337 0.0063053793 -0.013420229 -0.036151424 0.002099545 -0.011931613
expected 0.024064505 -0.030246591 0.013828063 -0.036656525 0.035457235 -0.016121753 0.031962067 -0.018897202 0.035254117 0.022960389
track -0.009105768 0.009108972 -0.031026559 -0.037910827 -0.038838603 -0.027659295 -0.031037172 0.016536873 0.017398681 -0.034054123
three -0.010706978 0.031333692 -0.024079967 0.048569005 -0.03225518 0.008082871 -0.046024747 0.024415815 -0.0042047887 0.04417815
lead 0.02457536 0.04798426 0.0048021935 -0.00089555414 -0.045348447 0.03419809 0.049005806 -0.016170364 -0.0060584424 0.018477973
details -0.01246114 0.048079528 -0.006468396 -0.013971828 0.018206015 0.03466862 -0.026259873 0.037692748 -0.03465785 -0.04978955
increasing -0.02478712 -0.00037720878 0.030677583 -0.010022082 0.023221582 -0.038323194 0.0006742901 0.0036411036 0.05131118 -0.023317652
deutsche -0.0044884556 -0.030829096 0.007406571 0.006647316 -0.0243137 -0.035444185 0.015414709 0.014905435 0.006671599 0.048739158
bank 0.029668733 -0.037101876 -0.009316529 -0.0014904082 0.03783013 -0.029217508 -0.0019967374 -0.046107877 -0.024889939 -0.019564535
hits 0.025535101 -0.02986852 0.004637649 -0.02465134 -0.039650258 0.019927526 0.026648713 0.030840555 0.0015619218 0.029734313
view -0.0324619 0.014457429 -0.041201364 0.004038805 0.03213545 0.024089282 0.0031438246 -0.008405528 0.03897049 -0.0439553
trends -0.0010678847 0.045598984 -0.010884507 -0.0340298 -0.024634913 0.030495709 0.041382622 0.0116854375 0.012279141 -0.02527074
win 0.03852034 0.005545579 -0.025631452 0.014374003 -0.0065788315 0.03492316 0.034359086 -0.0024973017 -0.028530914 -0.0071942303
mix 0.0042788032 -0.026124595 0.012899453 0.044474952 0.050239388 0.02295728 -0.030925045 -0.006821601 -0.0025469097 0.013569395
totally -0.049961843 -0.033297002 -0.006613484 -0.01571559 -0.049670793 -0.027857704 -0.027055359 -0.026359763 -0.047133617 0.0034631821
DD/sh -0.029305115 -0.027193323 0.019535478 -0.039868653 0.021124199 0.03319141 0.04615568 0.0128219575 -0.019662617 0.024464237
#fedday 0.04821205 -0.015361322 -0.04410715 -0.048803903 -0.03343421 -0.02386372 -0.050309148 -0.04977524 -0.0015088853 0.028073788
equities -0.025966214 -0.034659393 0.044111133 0.02708486 -0.044604283 0.0065981937 0.013524371 -0.0010227227 0.014172559 0.04053073
hammered -0.02047991 0.04564935 0.027255727 -0.008699353 -0.014495849 -0.023123443 -0.03741469 0.010289466 0.02472656 -0.030552411
momo 0.030108245 0.01309692 -0.0059521063 0.02612429 0.045767307 -0.0115137985 -0.046366777 0.020201817 0.036340196 -0.026589528
movers -0.0058961585 0.01852228 -0.042660564 -0.016700463 -0.020177538 -0.021023182 0.042416602 0.0033453628 0.02263615 -0.011693656
slips 0.04335373 -0.03866451 0.012936658 0.02052282 0.048146605 0.007972982 0.046948202 -0.016677082 -0.030518925 -0.029022833
downgrade; -0.042249717 0.022971418 -0.02109444 0.01745263 0.008090089 -0.040972408 0.0047249715 0.008394536 -0.038490247 0.028708525
arcelormittal -0.017002465 0.0042980006 -0.048008107 -0.042813875 -0.029658088 -0.025918832 -0.0026228533 -0.02165055 0.012038538 0.028613726
mon 0.046996076 -0.015992155 -0.027529426 0.03084158 -0.0024414784 0.01868154 0.019972796 0.046920966 -0.0054358053 0.03767572
ok 0.008783865 0.025515681 0.028004963 0.014991241 0.035454985 -0.036532745 -0.0118433125 -1.42391955e-05 -0.0444706 -0.0033579692
gamble 0.018649079 0.020940317 0.011149695 -0.025400693 0.025086755 -0.015906002 0.035529044 -0.031423986 -0.013674317 -0.023407653
$$$ -0.042761642 0.0024305172 -0.008652174 0.036668975 -0.009435755 -0.017724954 0.021846168 0.03083813 -0.033200324 0.04863674
deep -0.015640384 0.005756975 0.013127931 -0.005314425 0.036461357 -0.008648468 0.03475675 -0.021793624 0.03213617 0.03834769
upgraded 0.039635062 0.009999764 0.029704504 0.045517568 0.037454758 -0.015107115 -0.008363629 0.013051525 0.02168238 -0.027693579
trader -0.0062025916 -0.022857986 0.0009975322 -0.04288695 0.038588483 -0.022795215 -0.04679715 0.0033729349 -0.00041104062 -0.016657174
NNRR -0.049999647 -0.0020481253 -0.02848198 -0.009486188 -0.006427725 0.040202934 -0.015532318 0.031072652 -0.03276463 -0.044108294
research -0.0114756785 0.018313576 -0.007648234 -0.021400498 0.021869581 -0.034931168 -0.023129934 -0.02324292 0.037110843 -0.032015566
sees -0.0147258965 -0.03585354 -0.026936783 -0.012806903 -0.046378694 0.035453696 0.017206762 -0.016073428 0.029748034 -0.02500922
DD; 0.009114095 0.049002398 -0.03720602 -0.008584228 0.02103425 -0.018290486 0.01576786 0.030627666 0.03704082 -0.028554395
zuckerberg 0.043166548 0.014376577 -0.024031147 -0.02134587 -0.02589136 0.0010184546 -0.02559981 0.021809248 0.0459982 0.00398726
man 0.029601824 0.04227985 0.032137293 -0.03730043 0.03701458 0.022742586 0.0026794875 0.0066556307 -0.047643136 0.034530148
wks -0.04185408 -0.020568544 -0.046044767 -0.0041241883 -0.014445128 -0.014720071 0.030676223 -0.045643296 0.0386137 -0.03326741
inflows -0.03546063 -0.02347189 0.028017703 0.0025215931 0.040239047 0.031142961 0.034384083 -0.04781686 0.02136551 -0.029734876
graph 0.0013324458 -0.016042575 -0.00983257 -0.0033117759 -0.017509228 -0.03299696 0.0063017746 -0.044024684 0.018981444 0.018501043
damn -0.011849715 -0.029111166 0.031056872 -0.016558986 0.02736593 0.039469097 -0.023278179 -0.004278926 0.0034342723 0.0022951262
net -0.019295942 0.033573937 0.042720944 -0.006341037 0.01759216 0.026528863 -0.04876267 0.005316163 0.04499944 -0.009667763
fwd -0.04635694 -0.016730247 -0.043584384 -0.004035489 -0.0054863025 0.004607875 0.03280035 0.015530651 -0.034202173 -0.017935827
pe 0.019352864 0.038143087 -0.049947023 0.021413105 0.021200802 0.025693845 0.03937521 -0.008958757 0.04887837 0.0063069146
line -0.049712718 -0.018457191 -0.031682797 0.029659843 0.03366392 0.022884367 -0.006041171 -0.04784467 -0.017219301 0.037146512
broke 0.030523365 -0.03683394 0.030658053 -0.01061201 -0.002469962 0.03154156 -0.022716872 0.029965742 -0.04779834 -0.0025423884
res -0.051681526 -0.0027010788 -0.049409326 -0.02809326 -0.04578175 -0.02303786 -0.016764006 -0.03720124 0.030039838 -0.0032479444
stop -0.047616113 0.008416197 0.042910576 0.012037133 -0.014878736 0.04370989 0.033572897 -0.035638645 0.035795532 0.014786086
min 0.034060806 0.038251415 0.046792578 0.02021631 -0.020143956 -0.031313904 -0.0025635846 -0.02982057 0.015461626 -0.03782836
currently -0.02418348 -0.030593667 -0.001435597 -0.03688614 0.028323721 -0.030331917 -0.028722879 -0.044666853 0.034210697 0.017878044
hype -0.035582066 -0.038941998 -0.023568418 0.03225004 0.0068428647 -0.003376922 -0.03091848 -0.018342383 0.0010643371 -0.024742974
run -0.03893759 0.022412369 -0.034486208 -0.04477891 0.045121964 0.037044518 -0.03372885 0.04092743 -0.019097906 0.037518967
congrats -0.02292481 -0.018397648 0.0245598 -0.03891844 0.01827789 -0.012280192 0.0052409363 -0.043287676 -0.007862996 0.041492812
downbeaten -0.046418913 0.027463729 -0.043344744 0.025247661 -0.01340831 0.041499432 -0.0410271 0.011059733 -0.0074619227 -0.033580936
fill -0.052510627 0.043799482 -0.029307231 -0.02978894 0.02721207 -0.01206088 0.005035085 0.047350008 0.03354 0.017742444
/ -0.044800576 -0.031249527 0.044904422 0.0026674333 -0.0017776979 0.0020075308 0.01044042 -0.008390569 -0.008845498 0.013176427
days -0.00881106 0.036623485 0.019821746 0.016649993 -0.0050711157 0.013525873 0.0055219466 0.01052815 0.0024076486 0.037926253
@alphatrends 0.015561928 0.02863046 -0.03597685 -0.028535798 -0.04824741 0.029113786 0.036089066 -0.023424497 -0.004229736 -0.0075551705
vmarkets -0.049860243 0.01118804 -0.0013779157 0.017331509 -0.028453073 0.032110054 -0.037905686 -0.005662911 -0.0058527943 0.0025126564
acting -0.0025807521 0.018858576 0.0442396 -0.038203213 0.006888575 -0.000772289 -0.04674393 0.017790146 0.0059170756 0.04016846
dont 0.04264564 -0.03882861 -0.030526765 -0.025122533 -0.024434134 0.022510605 0.001817691 0.019401073 0.0001976861 -0.039704323
listen -0.013131468 0.0050714216 -0.025212035 0.04601856 -0.016774645 -0.04811269 -0.0370042 0.00973483 -0.0041490183 -0.048854277
twits… -0.03163793 -0.027076652 -0.02616307 0.0026845003 -0.041551374 -0.0190365 0.025175396 0.03702273 0.037916712 -0.028421853
funny -0.019786086 0.0040048 -0.046104416 -0.04575222 0.03639452 0.04379955 -0.034780744 -0.008011064 -0.030682266 -0.012816612
approval 0.010039261 0.037852325 -0.019709012 -0.015974391 -0.04156228 0.04496404 0.020388223 -0.04167299 0.008129725 -0.029850662
bit 0.016328013 -0.026062999 -0.043646824 0.018361272 -0.033904996 -0.04173541 -0.020659488 -0.00842944 -0.04063551 0.016601728
bet 0.03419793 -0.03534819 -0.029682998 0.007546798 0.016998772 -0.020163242 0.040970188 0.04763462 -0.034676142 -0.04281801
jmho -0.010765112 -0.03597967 -0.04410019 -0.021254314 -0.007324877 -0.03298668 -0.021656016 0.011021062 -0.028910585 -0.037556082
tech -0.026758263 0.035828434 -0.012319707 0.0019826102 0.0019923672 -0.044403892 0.012352809 -0.026951076 -0.027973251 -0.012532511
finally -0.04120951 0.013382031 0.038417514 -0.04410397 0.028257657 0.0010953173 0.022268325 0.009333892 0.0486531 -0.012512196
rest 0.021364752 -0.039386988 -0.00431389 -0.023995437 0.039610952 -0.0068861325 -0.001013667 -0.024852417 -0.013492859 -0.046545886
careful -0.023567948 -0.023361601 0.0072077895 0.025773043 -0.034180015 -0.00027812476 0.028472317 -0.040340755 -0.038474075 -0.020820068
say -0.033726647 0.046721555 -0.04279187 -0.014778252 -0.007658234 0.015922444 -0.022305986 -0.04389652 0.014115071 -0.018332591
heat 0.03681082 0.014585615 -0.008507194 -0.003595991 -0.024541333 -0.021246705 -0.037646893 -0.02127524 -0.036500636 0.039440595
fb 0.020835618 -0.038304888 -0.048010837 0.021095112 0.037661232 0.025280824 0.046064295 -0.043241538 -0.0020682788 -0.048062377
following 0.012270145 -0.03880196 -0.010205012 -0.0026922252 0.019223792 0.016742183 0.021170963 -0.007705968 -0.030216468 -0.032567054
half -0.04538669 0.019717194 -0.010848669 -0.02985011 -0.03189751 -0.013191533 -0.034385577 -0.010660143 -0.01951908 -0.028063916
turmoil -0.037780326 0.04916554 -0.0048116115 -0.05012408 0.01275785 0.032793123 0.0060315905 -0.0070055644 -0.0316252 -0.047077563
volatility 0.00040599133 0.044980597 0.024004241 -0.04931621 0.040490977 -0.006165428 -0.01195519 0.013521237 -0.025873479 0.03808673
usually -0.04168167 0.023103323 0.0199987 -0.029735088 0.030663365 0.021815225 0.03837937 0.02746793 -0.036185253 -0.03623851
debt -0.04419891 0.024610277 -0.04794335 -0.035932608 0.041152645 0.01544922 0.0076262048 0.038554966 -0.046933077 -0.047442187
typical 0.039185748 0.015735898 0.03057876 -0.0028917457 0.01575636 -0.011201703 -0.011034947 0.025375454 0.036681816 -0.011485397
&quot; 0.002556696 0.028021894 0.0030760895 0.018102987 -0.0065765874 -0.010684906 -0.024275891 -0.0028704144 0.042479467 0.04327144
seen -0.021384466 0.005912342 0.042536344 -0.02069093 -0.020616585 0.024711076 0.0103610465 0.016970122 0.012457322 -0.0019324913
indexes -0.05192428 0.03004842 -0.047370426 0.030741785 -0.019029522 -0.01764659 0.004854011 0.02167191 0.029149884 0.021735894
pullback -0.031167515 0.012750508 0.04676172 -0.03339694 -0.023963116 -0.032908995 -0.028124021 -0.040298317 0.016727963 0.031360935
$$ -0.049071833 -0.00050188217 0.040176712 -0.023814967 0.0126722045 0.045064427 -0.02107161 0.020097714 0.03287408 0.023590155
dollar 0.011934694 0.048883095 -0.02657661 -0.02893509 0.037940394 0.008377961 -0.037452612 0.040581007 -0.014796242 -0.028978858
book -0.02634091 0.0011457758 0.04792004 0.025117964 0.015300818 -0.044797275 -0.02821888 0.03279064 -0.041390922 -0.044910677
jobs -0.044423528 0.04516931 -0.038604707 -0.025686227 -0.04765369 -0.0023031218 -0.022007156 0.017647022 -0.027606629 -0.020000046
multiple -0.044107128 -0.017452719 -0.046152633 -0.046195086 0.04588392 -0.014640649 -0.03639195 0.016655296 0.020987708 0.0052186293
bs 0.015488811 0.033422507 -0.040186193 -0.0029393525 0.014276713 -0.049613386 -0.020412102 0.03189786 -0.04301494 0.029041167
monday 0.031618156 -0.024303194 -0.03108627 -0.008322926 -0.01907257 -0.02188854 0.012380874 -0.014169798 0.05008362 0.04730644
read 0.030633846 0.0161412 -0.008334245 -0.007965554 -0.02595789 0.0063561597 -0.0026354492 -0.031700175 0.020347599 -0.005856472
reason -0.027410818 0.012867038 -0.009764915 -0.045240905 -0.042244107 0.00045146895 0.012618398 0.012431724 -0.001843329 -0.02280897
Emark&quot; -0.013274 0.032760892 0.009257178 0.011365734 -0.021420386 0.03465029 0.034548678 0.0048628966 0.048255924 -0.030547697
p/e 0.025732225 0.037223026 -0.012240717 0.016234517 0.0066402927 -0.04951536 -0.0040179035 -0.022379253 -0.023825344 -0.03753742
aapl -0.01331756 0.05122634 0.042135734 -0.04565035 0.042420737 -0.022980556 0.008425588 0.046927996 -0.039579812 -0.005668036
^ -0.02144649 -0.042681213 -0.04396592 0.008200426 0.011054563 -0.029093172 0.007672971 -0.0322488 -0.007322376 0.021773215
NNinute 0.04575353 -1.0827931e-05 -0.034253176 0.0450068 0.029800838 0.02783342 0.044497058 -0.011337049 -0.0135357315 -0.045262318
favorite 0.015845565 -0.019636258 -0.0330461 -0.030598965 0.043767273 0.030429289 0.0069997115 -0.045890793 0.03294741 -0.05173039
coal 0.0077818846 -0.019031812 -0.008115367 0.01678897 0.0037810695 -0.0119265355 0.018321706 0.018928347 -0.013673014 0.03698183
earlier 0.0052714776 0.028839456 -0.011846343 -0.007877528 0.014437937 0.020764023 -0.017366849 -0.014193726 -0.0009046979 -0.0055591515
tops -0.05163858 -0.04558614 0.0031360248 0.038386863 0.024485717 0.04270521 -0.03285448 0.048182216 0.04907211 -0.038517553
