3307 10
NN 0.07905353 -0.22323194 0.15300974 0.04721201 0.20027581 -0.048251756 0.253108 -0.0017239916 0.0108254105 0.039560474
RR -0.04457816 0.0096462425 -0.0641081 -0.061783686 0.0075868415 0.047369473 -0.07432751 -0.020677468 0.023484724 -0.04588581
Emark 0.11780625 -0.073471166 0.1209533 -0.03828193 0.07267007 -0.049598165 0.16674198 0.007455543 0.043468412 0.007810962
DD 0.11346306 -0.19680308 0.16221125 -0.0053942157 0.20758623 -0.0331927 0.327965 0.03533719 -0.018706385 0.016764129
Qmark 0.11104978 -0.13522615 0.13412766 -0.036238704 0.07952757 0.008759049 0.20978588 -0.039283156 0.04072154 0.015568286
long 0.043544788 -0.109352715 0.11762373 0.0095860185 0.1308905 -0.017535085 0.24210416 0.03667718 0.040553633 0.03395025
buy 0.02363431 -0.06723051 0.15349819 0.0500379 0.13071512 0.009970258 0.17242081 -0.0047690426 0.0513716 -0.0119089065
short 0.102631025 -0.15799026 0.10727837 -0.01759827 0.11849063 -0.06606283 0.17355932 -0.03623382 -0.036678154 0.032549042
stocks 0.02738161 -0.05859226 0.12765707 -0.030208997 0.08271954 -0.06513413 0.11886949 -0.009750947 0.020149976 -0.048294198
today 0.05982555 -0.13976455 0.12810193 -0.011529324 0.13688357 -0.007863193 0.21684326 0.011612052 -0.023024086 0.034857158
day 0.07940168 -0.093954675 0.09430995 0.037372045 0.09617962 0.028664766 0.19541179 0.0014001034 0.038578913 0.017502144
good 0.05537691 -0.12639262 0.12730044 0.0007685688 0.08012965 -0.030840842 0.19787487 0.014759107 -0.0051348326 -0.031203361
stock 0.07450502 -0.14589919 0.14378098 0.06011236 0.10921818 0.00011584158 0.19905128 0.0054822047 -0.024109 -0.029203929
still 0.0928685 -0.0713929 0.10806073 0.025726724 0.143606 0.011321757 0.1855156 0.009341614 -0.036236733 -0.033694226
new 0.09075286 -0.07708117 0.0851575 -0.0033933525 0.15022942 0.023317808 0.19637793 0.034274552 0.038212877 -0.04539277
like 0.10917775 -0.13429497 0.11638079 0.048176456 0.12368876 -0.0007832559 0.17233008 -0.04849424 0.0147480825 0.02510661
market 0.053163417 -0.14589292 0.13687865 0.062069107 0.14009489 -0.07124167 0.21707955 -0.039320815 0.021653153 -0.02988192
rt 0.016043985 -0.08020673 0.043886937 0.01492049 0.1270667 -0.010630282 0.09198934 0.007541623 -0.042036515 0.021760866
looking 0.02581956 -0.117970295 0.103366874 -0.040293213 0.102696456 0.015936252 0.19760439 -0.015021999 -0.043044735 -0.020995416
week 0.065140896 -0.12412844 0.13534936 0.02599138 0.09427158 -0.04816332 0.18164738 0.010977156 0.00757672 0.038645647
nice 0.009201862 -0.056437008 0.10293224 0.009703949 0.02258884 -0.023602739 0.11882029 0.03890874 -0.046980735 -0.052200954
back 0.0806526 -0.06721703 0.11145235 -0.021736901 0.13512783 -0.03930509 0.1210389 0.020071406 0.030936653 -0.049660265
sell 0.094738565 -0.10883829 0.15648589 0.019209303 0.1357974 -0.03222236 0.17428088 0.026578065 -0.025435565 0.032739755
may 0.08989865 -0.12357537 0.16013253 -0.0049406365 0.1547007 -0.0783095 0.18453208 -0.036145214 -0.04520171 -0.052521348
see 0.052959077 -0.09687098 0.122670256 0.0077091223 0.053168826 -0.036917128 0.21680722 -0.023704281 -0.003663255 0.039257247
would 0.042206906 -0.10333914 0.08033168 -0.0034533914 0.08647749 -0.0635924 0.17111814 -0.020521095 -0.020491756 -0.014091947
next 0.103681535 -0.074262194 0.058799937 0.05682803 0.076138124 0.0057600285 0.19084267 -0.02958424 0.02480107 0.04158507
watch 0.09765244 -0.095194474 0.13464692 0.010979813 0.12380035 -0.005981546 0.13431384 -0.0318501 0.049826182 -0.00076114456
high 0.022500873 -0.036734108 0.10770262 0.011033544 0.041412607 -0.016837813 0.19149011 8.103575e-05 -0.0050706672 -0.027072094
looks 0.052327164 -0.1260574 0.06184589 0.04043752 0.124803394 -0.0032884195 0.12220404 -0.046509154 0.0072506233 -0.047053967
time 0.077269346 -0.10328612 0.090174355 -0.020721523 0.07233865 0.017583331 0.14116889 0.024860254 -0.017805692 0.04316648
one 0.0492292 -0.08388109 0.14344627 0.061374974 0.14987318 -0.048456855 0.17735845 -0.040617343 -0.0062329513 -0.0073289135
bullish 0.020825246 -0.096661925 0.09119703 0.045907605 0.12318243 -0.039221805 0.13920766 0.024922939 -0.04373657 0.032489493
u 0.05890409 -0.11895868 0.15903258 -0.004777787 0.11981096 -0.05304179 0.20924449 0.050610695 0.008710717 -0.034634415
call 0.0679147 -0.10150779 0.057647917 -0.035006788 0.081761345 -0.01830226 0.067035176 0.014465851 0.025615158 0.009775709
NNx 0.14838319 -0.08960177 0.093685865 -0.00017350001 0.16286647 -0.09361967 0.11100435 0.070528276 0.07459655 0.059470348
go 0.050521616 -0.1303348 0.056319527 0.043579962 0.12586863 0.0023564654 0.1749506 0.012796452 -0.0035028502 0.0043900204
could 0.012893569 -0.06296611 0.10686006 -0.015852235 0.14231944 0.023592295 0.14225408 -0.0077433204 0.027216593 -0.051616393
via 0.08581185 -0.048836138 0.10815899 0.039797876 0.106731884 -0.0020567898 0.1698015 0.032284714 -0.014153594 0.042948425
&gt;NN 0.045229077 -0.17461593 0.07250208 -0.04036921 -0.089250326 -0.037800595 -0.007696244 -0.10836661 -0.065144785 -0.092013
get 0.029574368 -0.08615811 0.09611406 -0.030683171 0.033344414 -0.053058226 0.16355972 0.0087583475 -0.022191573 0.045820765
year 0.055242516 -0.13934417 0.08300611 0.03907916 0.039609756 0.006910075 0.10389833 -0.007908948 0.020971578 -0.011346693
shares 0.013174829 -0.037654232 0.053284403 -0.0009996841 0.10801314 -0.004410343 0.1347225 -0.0013691724 0.04540684 0.03733695
term 0.08151795 -0.10698735 0.030895164 0.04189739 0.099070325 -0.06390247 0.10154443 -0.030620992 -0.0011993062 -0.009233938
close 0.02974715 -0.0647906 0.039951514 0.008381866 -0.005649909 0.010867353 0.055336818 -0.03782804 -0.040326394 -0.024849227
top 0.09180644 -0.06819545 0.12065972 -0.03279291 0.065463275 0.01513267 0.1541084 -0.0440617 -0.022662595 -0.032666944
RR/NN 0.010817777 -0.060229257 0.06747157 -0.041266147 0.041329317 0.01260884 0.14471674 -0.05688864 -0.036488023 0.023700826
support 0.076140754 -0.064700626 0.041404452 0.05820403 0.022134574 -0.016124094 0.082377516 -0.030326609 0.018628536 -0.021963557
big 0.037814505 -0.055128157 0.13041028 -0.021945776 0.041456953 -0.030118657 0.13445127 0.041655652 -0.045701787 -0.022169452
higher 0.063441105 -0.09476662 0.10356266 0.03465627 0.019160256 0.025148332 0.15978682 0.018876022 0.04892146 -0.01348341
take 0.03427155 -0.058639616 0.10378047 0.015906703 0.012668875 -0.03081861 0.12309604 -0.028974717 -0.025374476 0.006288706
china 0.0848701 -0.05019405 0.06490138 -0.020620074 0.09026324 -0.06662244 0.15806118 -0.012891866 0.026713617 -0.043756302
run 0.059056774 -0.066343136 0.10242818 -0.034436893 0.0848961 -0.0028494084 0.077566534 0.026957551 0.038775872 0.016190788
earnings 0.028586524 -0.09490616 0.10499333 -0.036584266 0.07368508 -0.061608482 0.13751036 0.030488204 0.02155221 -0.030947633
buying 0.019071365 -0.06474412 0.061893884 -0.010494928 0.011972736 0.024157925 0.11655137 -0.028144691 0.0436545 -0.03013882
going 0.054601245 -0.04823175 0.0878743 0.056357305 0.040177725 -0.053479634 0.10812782 0.00055702665 -0.0014395838 -0.030647177
chart -0.0030428958 -0.06649009 0.09259623 0.004342899 0.0397378 0.031745043 0.13407168 -0.006187193 0.011730194 0.010599605
last 0.08964532 -0.0707571 0.11810831 -0.002693287 0.070908405 -0.056752425 0.17284463 -0.032229554 0.02628201 -0.03538382
oil 0.03113341 -0.10089525 0.023422554 -0.024622278 0.03849258 -0.0032712296 0.1228183 -0.02964462 -0.03166786 0.008351995
trade 0.053448085 -0.09299641 0.0819654 0.025360912 0.07218945 0.033885196 0.07385655 -0.012201243 0.04661175 0.014748138
days 0.03034862 -0.07886482 0.08648633 -0.026201757 0.09774806 -0.06213918 0.07619138 -0.0046805358 0.027330033 0.009831936
lol 0.06795219 -0.10630959 0.11101743 -0.030837938 0.07360526 -0.0027578864 0.13709351 -0.00030707035 -0.0351331 0.009347081
well 0.013287244 -0.047907222 0.05370252 0.034428343 0.0617306 -0.057339005 0.16399978 -0.01002681 -0.044304248 -0.03784205
#stocks 0.08437613 -0.040593248 0.08340895 -0.030252248 0.091764376 -0.049390707 0.115696184 0.014714682 -0.02319393 0.03775892
unusual 0.007804584 -0.078013904 0.07706854 0.021657782 0.01758623 0.020131703 0.050605144 -0.042140745 -0.0306887 -0.037342727
holding 0.07514328 -0.11210793 0.031398993 0.025806732 0.083228566 -0.031761725 0.08271392 0.015085354 0.015348541 0.020050883
highs 0.01636184 0.00020088477 0.102843836 -0.009685056 0.080302835 -0.041796964 0.13254213 -0.039838515 -0.012397048 -0.0054358435
&amp; 0.08866024 -0.07068225 0.027511159 -0.004766279 0.07669752 -0.04302583 0.0662945 -0.03814044 0.033129413 0.033433788
news 0.08318964 -0.049972158 0.054743633 -0.040474348 0.06115228 -0.026291287 0.13405637 0.031915445 0.034443058 -0.02340175
end 0.07230327 -0.01686693 0.04915765 -0.032434136 0.038440447 0.012790933 0.031226551 -0.012623128 -0.035030868 0.03649668
puts 0.0059928484 -0.08318256 0.07155757 -0.005912168 0.012680557 0.022242915 0.04810188 -0.009904906 0.006895631 0.016934851
morning 0.016077096 -0.07362785 0.042465176 0.023254203 0.018155381 -0.015230199 0.08744162 -0.011462386 -0.017115459 0.04819928
volume 0.0421959 -0.044630162 0.020469096 -0.0372209 0.022007208 0.0034514356 0.11032742 0.03459758 0.033375364 0.012294512
potential 0.033963103 -0.11997653 0.108218126 -0.042952847 0.09098084 0.00048260557 0.07388728 0.01191847 0.04388605 -0.02348884
breakout 0.06603302 -0.08916534 0.061800174 0.018149788 0.010163612 -0.033456005 0.13553713 0.02796262 0.039817657 0.03351938
i&#NN;m -0.0057348595 -0.096713655 0.055235613 -0.019801386 0.08304988 0.019842692 0.04169167 -0.026592832 0.023334851 0.0068582315
& 0.05865995 -0.027669236 0.058103416 -0.008802359 0.069965646 -0.013072223 0.122578464 0.004830017 0.043944485 0.028768193
lower 0.028251925 -0.11317249 0.046684954 -0.017132213 0.08856124 0.016098289 0.15887843 0.030528447 -0.0037410173 0.017218988
rally 0.027340168 -0.0075898473 0.035454247 -0.025240978 0.07128241 -0.03744969 0.08048137 0.046891022 0.049197905 -0.043211445
getting 0.048072975 -0.06376168 0.10480427 0.04685995 0.092537455 -0.04500681 0.095565766 -0.0021884104 0.018673077 0.04735821
activity -0.029628998 -0.054624867 -0.003237537 0.035387397 0.046330348 -0.06240097 0.06632955 -0.007444244 0.0013894836 -0.024230553
@ 0.004109543 0.0046798983 0.033715975 0.025055027 0.007327242 -0.030522468 0.069624536 -0.02800523 -0.031078052 -0.039327778
gap 0.08435695 -0.11271444 0.024199836 6.0263574e-07 0.10741955 -0.05804452 0.06850496 0.019009352 -0.015048615 -0.0032643178
calls 0.038351588 0.001969764 0.09373173 -0.024888663 -0.008848392 -0.010171307 0.09245387 -0.017044533 -0.03596694 -0.007992091
since -0.011595349 -0.021480152 0.061433084 -0.008516827 0.07377266 0.016873918 0.07894876 -0.010473259 0.026091922 -0.033276748
price 0.03781097 -0.0482911 0.08095574 0.038310226 0.10334609 -0.02793344 0.10097543 0.051134862 -0.03567973 -0.011901457
upside 0.056255374 -0.008105503 0.01079359 0.03602516 0.02345241 -0.052548602 0.10252584 0.036479246 -0.04462691 0.011713584
bought 0.07996123 -0.056617092 0.06410469 -0.008342044 0.02964938 0.02336563 0.109411165 0.005431701 -0.035706326 -0.04720622
small 0.04889432 -0.041606527 0.09879474 -0.019608475 0.056619536 -0.036734905 0.07751524 -0.0077254646 -0.03410834 -0.005660147
play -0.023771144 -0.08484867 0.08774362 -0.040358637 0.027668273 0.0028869202 0.044209745 0.008182857 0.033535022 0.017837236
longs -0.036035776 -0.021795841 0.057518058 0.040896885 0.026121395 -0.033810873 0.060123187 -0.005635586 -0.039097022 -0.03015101
selling 0.03918721 -0.049164817 0.059687387 -0.012063817 0.060356382 -0.018055096 0.06258969 0.043632854 0.017895453 -0.005523317
make 0.06486262 -0.06118214 0.07194325 0.052168302 0.02682135 0.008205134 0.11539801 0.04178151 0.0445336 -0.0032253982
money 0.04779229 -0.027573714 0.022361053 0.058938965 0.10312479 -0.0069913915 0.14944585 -0.015458108 -0.033104908 0.046060417
target 0.01402869 -0.04854095 0.0058775553 -0.010876708 0.060966603 0.016218489 0.09172877 0.051149607 -0.011577123 0.007616611
break -0.015280792 -0.059855957 0.060579132 0.0493351 0.049692214 -0.03008844 0.047058884 0.008142366 -0.051232085 -0.03948843
resistance 0.0009861299 -0.024665337 0.0578692 -0.009031307 0.07690547 -0.009732344 0.06959138 0.02574637 0.03195878 -0.052129682
near 0.010227249 -0.104234576 0.0353966 -0.03719297 0.09903791 0.036590766 0.07323974 0.021427102 -0.015614412 0.03901459
vs -0.0061283815 0.010397335 0.07590524 0.013161823 0.044614274 -0.005835971 0.09252007 -0.007301066 -0.036649417 0.011580122
sector -0.019708773 -0.03248034 -0.0014019707 0.044229414 0.0073052356 -0.027960243 0.05389179 0.04114508 -0.027196014 -0.009166254
positive 0.049079325 -0.0725943 0.0910726 -0.017131336 0.0046704314 -0.020945985 0.06599913 0.008243865 -0.013137033 -0.01949969
companies 0.0039766785 -0.020541636 0.032962855 -0.023844678 -0.0007721798 -0.0479848 0.10729407 -0.032404047 0.008935506 -0.04776205
around 0.04862689 -0.037100263 0.06554809 0.03418131 0.09117422 -0.06142611 0.076065876 0.049821008 -0.035409298 -0.04761257
soon -0.018184507 -0.055686183 0.06320785 0.052386787 -0.0027504198 -0.038048316 0.102197275 0.015526896 0.016166275 0.013263257
think 0.044812918 -0.06065865 0.09663419 -0.020270176 0.08368286 -0.00035846164 0.055437632 0.00537495 0.0015100722 0.008748881
gold 0.04869127 -0.0040642763 0.014242079 0.05227106 0.014584758 -0.04409562 0.09409664 0.006502133 -0.03925903 -0.042553246
much 0.079433486 -0.093273275 0.054520622 0.048741594 0.061633028 -0.0051257163 0.11856275 -0.025976064 0.026283985 0.03760715
apple -0.0106535535 -0.08528673 0.09823811 0.05022688 0.028631475 -0.057984743 0.12459751 0.020157674 -0.027436264 -0.00551263
i'm 0.050515596 -0.02478976 0.048818 -0.021201624 -0.012706466 -0.008713594 0.0043795602 -0.02609154 -0.047062486 0.031073783
facebook 0.03847223 -0.0075206384 0.098554 0.051339686 0.019782048 0.00038996746 0.106256425 0.051109377 -0.04504349 0.0057078577
trades 0.04100653 -0.04096427 -0.0021884232 -0.030639004 0.07016105 -0.016346686 0.09170645 -0.034799404 0.016925007 0.030832345
&gt; 0.053382367 -0.033452023 0.09225408 0.053187497 0.09000247 0.018707257 0.036706563 0.005113083 -0.014632051 0.023577569
bottom 0.053729888 -0.046069928 0.038698908 0.024761427 -0.0016071578 0.021222295 0.051117115 -0.013262424 0.003907311 -0.0045889593
overbought -0.0032653601 -0.028668914 0.01785899 -0.038648155 0.072989896 0.011102879 0.0028628304 0.041723233 0.026108468 0.0036746978
sold 0.03639816 -0.0760257 0.052183323 0.037521616 0.0028089494 0.033310715 0.08532922 0.007741287 0.016793044 -0.027393887
know 0.02075636 -0.061265767 -8.259144e-05 -0.020786718 0.05326325 0.017177572 0.113734744 0.023934288 0.02354279 0.007391647
shorts 0.068964824 -0.07736384 0.031631857 -0.026006598 0.06673027 -0.02349633 0.12762861 -0.012642268 -0.018376466 -0.0143628735
position 0.020952012 -0.004194427 0.01580827 0.0443801 0.06074619 -0.02281282 0.039573353 -0.025967468 -0.038428143 0.024678778
cash -0.024749069 -0.014754288 0.055115312 -0.033132166 0.05595586 -0.042939294 0.06334623 -0.0013327878 -0.026660943 0.022857467
coming 0.025828844 -0.017057052 0.056585282 0.026412018 0.013836491 0.023032593 0.12035108 0.008227397 -0.0458365 -0.04595415
right 0.054822482 -0.051283833 0.0033917602 0.053531803 0.09511732 0.02907424 0.09921655 -0.041967407 0.044830564 0.042535644
tomorrow 0.06775271 -0.030375822 0.0027907547 0.012906679 0.03864793 -0.004946254 0.067534074 0.0129346745 -0.01663693 -0.016269049
great -0.0042380886 -0.07754967 0.027132941 -0.04144608 -0.0062755 -0.04733963 0.042299192 -0.023388207 0.015920943 -0.037411027
sales 0.030765995 -0.06146368 0.05774528 -0.00033031337 0.0194971 0.018330932 0.052943133 0.04483052 0.028730553 0.036349773
look 0.025572505 -0.040861744 0.054280747 0.038096026 0.093572624 0.0038915372 0.0791788 -0.019864643 -0.012468057 0.04307024
added 0.003765734 -0.030210974 0.020912819 -0.047152087 -0.00018325468 0.026862875 0.02087208 0.043740645 -0.042026747 0.024054943
growth 0.07848039 -0.093441084 0.053637326 0.05430889 0.013784638 -0.05650622 0.078483455 0.03570215 -0.020144852 0.038144782
friday 0.061365906 -0.055479597 0.060974773 -0.0029060156 0.0126344 0.040484894 0.06700692 -0.0044833394 0.049802292 -0.046439964
another 0.012370835 -0.043106966 0.08815703 0.0032749102 0.08187715 0.037408266 0.10186217 0.010263682 0.041575767 0.0061199106
strong 0.05555126 -0.043463424 0.08623948 -0.019264584 0.02987287 0.03904412 0.08974008 -0.010474276 -0.024466451 0.041247502
weekly -0.0050032167 0.004775476 0.031199766 0.02937133 0.022871278 0.022874098 0.060674436 0.018698387 0.04288253 0.04111806
qNN 0.07110871 -0.019171374 0.01084958 0.038467474 0.05147985 -0.038997177 0.08621163 -0.03890318 0.042863492 -0.0401363
weeks 0.051946364 -0.081486 0.07218199 0.016893726 0.05868203 0.022568904 0.10606683 -0.019327579 0.003470381 -0.026836537
better -0.014760421 -0.09491535 0.052338604 0.049964543 0.016264264 -0.021360131 0.06006389 -0.0012749088 0.021893827 0.0030690643
watching 0.051103685 0.012058436 0.04844762 -0.0037058755 0.081323326 -0.0102566695 0.020789256 0.025072707 -0.009353313 0.027461978
need 0.0076887696 -0.0007167216 0.09099841 0.05195204 0.02852711 0.036045335 0.025560964 0.041593067 -0.018330023 0.046942137
ready 0.06916256 -0.04833754 0.048692815 0.031829204 0.036575012 0.020941138 0.10268186 0.036004037 0.017683107 0.030881392
setups 0.01222987 -0.061207216 -0.01120372 -0.0055335597 -0.012205867 -0.028243527 0.029950187 -0.023729835 -0.012356447 0.03558671
| 0.05774745 -0.03439573 -0.0069557335 -0.020282196 -0.018096918 -0.010452561 -0.0065367282 0.020500574 -0.020564765 -0.008351842
yesterday 0.022822145 -0.08066663 0.0674309 0.034220584 0.03894942 -0.0051608784 0.06843355 -0.04655988 -0.034041237 0.042607624
stochastic 0.049223367 -0.07175001 0.05596447 0.016655909 0.040891565 0.012907404 0.10368262 0.013742633 -0.00051474944 0.04605797
add -0.017408784 -0.063505344 0.059685063 -8.4830375e-05 0.08339373 0.040174168 0.10368799 0.0071488945 0.01924113 0.0014740768
prices 0.03374091 -0.06516307 0.058572184 4.2529864e-05 0.032423854 -0.045706432 0.062251825 -0.0041033025 0.00095875375 -0.011956235
start -0.017579205 -0.021937301 0.09527048 0.024190482 0.0093525825 0.037813053 0.10103325 -0.0051602568 0.016139662 -0.01350192
got 0.010578235 -0.017709369 0.074419856 0.005464582 0.045509916 0.033301316 0.08579236 -0.0072513972 -0.039661784 -0.04976946
way 0.029835308 -0.02622023 0.07078429 0.04290103 0.04580025 0.02787075 0.07768722 0.012883504 0.01243715 0.027322724
—&gt; -0.010157394 -0.062461093 0.05742336 -0.036283065 0.015852403 0.011888251 0.105954856 -0.009771534 0.008556908 -0.034881033
google 0.011239237 -0.059587628 0.031413183 0.030667359 0.0055378126 -0.030421684 0.061641354 -0.039342016 -0.04293013 -0.023955347
march -0.021001708 0.002816098 0.03893061 0.05143869 0.061813194 0.02830197 0.040003657 -0.048296656 -0.027025744 0.03460417
best 0.02740151 -0.026687335 0.024307728 0.04039401 0.055399973 -0.02742387 0.06029992 -0.013681436 0.036632884 -0.027443307
technical 0.013873296 -0.06796678 0.012357592 0.012626437 0.0067146593 -0.02966243 0.044098783 0.002213197 0.035567965 -0.0062301876
stop 0.00843758 -0.03500159 0.04193901 0.034452412 -0.015081326 0.025351634 0.061031565 0.0052602068 0.046236534 0.004190596
even 0.05794932 -0.022623781 0.04539186 -0.006535396 0.08440147 0.016327964 0.067768484 -0.014892585 -0.03056739 0.009469944
also -0.004715883 0.00798463 0.009667264 0.046825744 0.08468626 -0.008661228 0.023991745 0.024824414 -0.036907867 -0.034262788
swing -0.00278163 -0.014016972 0.018420659 -0.0069698617 0.031339582 -0.0414967 0.07331259 -0.006498238 -0.04413606 0.026288658
might -0.0015474599 -0.07401844 0.02120834 -0.0149644185 0.023725659 -0.03699298 0.08406796 0.033775818 -0.028768348 0.03387874
eps 0.059090465 -0.08894245 0.09174894 0.024090452 0.04467721 -0.042635318 0.093949534 -0.012368485 0.05262668 0.04728046
scan -0.0181578 -0.062333677 0.05519259 0.010201229 -0.0074911746 0.03327148 0.030118773 -0.044768374 0.034330897 0.0018594492
japan -0.019023301 -0.07113891 0.06302083 0.026181929 0.023542395 -0.0118408175 0.026003651 -0.02289015 0.0036254409 0.033348784
hold -0.02259636 -0.03322837 0.061529424 0.014781919 0.0013408846 -0.0026741864 0.1040849 0.019235222 -0.035776712 -0.025318874
/ 0.06672123 -0.00023862436 0.03775742 0.0469862 0.030085454 0.030154016 0.025028678 -0.027569346 0.030477632 -0.0133325625
fall 0.010119442 -0.0762982 0.01704253 0.05220978 0.03850447 0.0062694172 0.104600504 0.012688396 -0.029397538 0.02488778
moved -0.033156354 -0.063961394 0.054985836 0.018855197 0.01650391 0.010338337 -0.0063310275 0.022462277 0.010739345 0.035692368
names -0.018810617 0.0041296706 0.047189157 -0.0064487173 0.060363878 -0.053696617 0.02623752 -0.028874034 0.030428791 -0.04552806
signal -0.01464269 -0.05196234 0.07610556 -0.0363986 0.045657773 -0.025607355 0.057411123 0.03972521 -0.0057328297 0.0054758843
dividend -0.021751015 -0.015541956 0.058950108 -0.009620987 0.08053561 -0.0045838254 0.038373612 -0.024209244 -0.009703499 0.009276789
losers 0.011767088 -0.007947016 0.015127848 0.0029420168 0.033419106 0.010541654 0.039503045 0.027725503 0.013337837 0.0043976824
needs -0.009405769 -0.040578425 0.051874116 0.006151333 0.065864414 0.01960202 0.02260007 -0.038406685 -0.033682793 0.004146703
company 0.047943152 -0.01086836 0.011380711 -0.012775481 0.007920408 -0.032345556 0.0434099 0.01772868 -0.03550792 -0.008816571
weak 0.0064146603 0.0012387447 -0.016104542 -0.03901449 -0.011212043 0.031290926 0.050342273 -0.008762344 -0.005036438 0.0010650996
deal 0.054668885 -0.0064686 0.07698951 0.0025885932 0.032346 -0.047723442 0.05223845 -0.04373345 0.045179974 0.042519797
move 0.03735385 -0.040882424 -0.019604266 0.008168867 0.016614536 0.029537072 0.025240641 0.04487638 0.04160776 0.013106726
really -0.024160562 0.019131567 0.009764239 -0.0439023 0.04307691 -0.022225963 0.09584243 -0.013750389 -0.007565592 -0.0034250258
tech -0.016671615 -0.03996175 0.07091819 -0.024752868 0.0517345 -0.059709594 0.078279585 0.039650157 0.017298903 0.014070477
markets -0.006032633 0.02227967 0.046999853 0.042045288 0.07104995 -0.055429135 0.039129578 -0.0008645934 -0.01669095 0.034002237
says 0.008150547 -0.015857438 0.007123306 0.051675044 -0.011835849 -0.019076748 0.03046705 -0.032917768 0.0026938254 0.04435676
trading 0.058099214 -0.070338845 -0.009467101 0.029270312 0.07280387 -0.041826975 0.09177987 0.011132525 0.009450903 -0.02762935
keep 0.02837585 -0.035290323 0.06771201 0.04663393 0.05820994 0.0023998627 0.09771035 0.011292642 -0.018271634 0.01452157
bad 0.068625286 -0.010680346 0.047460847 -0.0054015717 0.050809536 0.011139819 0.09436315 0.028067162 0.019562995 0.027350295
gains 0.05665788 -0.07987238 0.034002375 0.027622458 0.053491294 -0.020638244 0.093210146 -0.024804663 0.04548205 0.020780897
$$ 0.013287221 -0.028307093 0.025309123 -0.0303553 0.049577538 -0.008672235 0.05603056 0.043887462 -0.04958881 0.029616263
large -0.024419563 -0.06534219 0.06789446 -0.014978751 0.054198768 0.006986487 0.06211366 0.018537514 -0.0016338557 0.021644544
cap 0.055946957 -0.08299503 0.034421194 0.00046210422 0.010820146 -0.017832238 0.08104408 0.019050453 0.017827967 0.018584248
business -0.014543864 -0.061308373 -0.0042595104 -0.034398988 -0.0088001955 0.041380137 0.08228785 -0.0054812045 0.044619754 -0.033313937
drop 0.046610616 -0.06741498 -0.0077315276 0.03307657 0.04434219 0.02889045 0.018219512 -0.0026039442 0.011428534 0.018817266
setup -0.0029439956 -0.023017753 0.073226705 -0.011562476 0.05633623 -0.045728467 0.038989764 0.005716883 0.019673482 -0.051449005
open 0.054966692 0.002881541 0.06391915 -0.04160497 -0.0016312442 -0.053363528 0.034957103 -0.033829335 -0.02468759 -0.027208535
point 0.05045452 -0.048591062 0.037952404 -0.022558386 -0.006933439 0.0008382131 0.008498175 -0.014412081 -0.04470291 -0.011171006
inc 0.015812943 0.006058141 0.0019330804 -0.008963944 0.0031198428 -0.050434344 0.028993603 -0.03488208 -0.02819148 -0.018849807
every 0.021679264 -0.035198197 0.045759205 0.012735766 0.065064006 -0.013788653 0.015110709 0.02332792 -0.00682879 0.031078171
daily 0.06752811 -0.07706736 -0.009359378 0.046226244 0.06230784 -0.046725973 0.07620926 0.017866727 0.044668168 -0.036486037
bull 0.014063477 0.008180118 0.073792584 0.0048913076 0.038422685 -0.025697542 0.08444971 0.006319326 0.044536646 -0.027241942
low 0.058902673 -0.06909014 -0.008383915 0.04728959 0.0842467 0.028802387 0.074766 0.034276694 -0.034510355 -0.04517833
us 0.012931214 -0.028906586 0.05033783 0.042745862 -0.009462916 -0.03462798 0.016746745 -0.012324121 0.021903357 -0.03432235
put 0.06658854 -0.048086766 0.07589406 -0.02543241 0.073427916 -0.013371902 0.038454812 -0.016790347 0.0012080851 0.021503197
little 0.022014888 -0.06050484 -0.011587652 0.01577063 0.011571709 0.038990464 0.020492166 -0.021472195 0.018911589 -0.010028624
don&#NN;t -0.011502472 0.006175509 0.028933626 -0.03640199 0.012247313 -0.02959699 0.09033531 0.038657382 -0.026842989 0.0345454
debt 0.031868216 -0.060512602 0.02544398 0.011995802 -0.0146473255 -0.044679478 0.048930798 0.03215272 -0.014377679 -0.045910425
red -0.008005372 -0.055934027 -0.024172189 0.04996185 0.04069547 -0.017400544 0.054825403 0.04938711 -0.023975676 0.037736986
&quot; 0.0015239073 0.012498993 0.051755622 -0.0148407165 -0.010287167 -0.0006121984 0.07159121 -0.009214691 0.023629267 0.019062502
indexes -0.0037075437 -0.068928264 -0.0038820547 0.05421556 0.037477754 -0.04603507 0.08052876 -0.04066965 0.040638078 -0.039965577
breaking 0.04343141 0.017377835 0.057436127 0.007933498 0.035768375 -0.031042421 0.022725403 0.0051797307 -0.03790183 -0.029031312
less 0.03004062 -0.055824116 0.012064992 -0.013283133 0.002230021 0.02607368 -0.0033239853 0.012163955 0.019261017 0.023886302
opportunity 0.059268385 -0.06455486 0.050824784 -0.011624253 0.019883446 0.024028758 0.012425521 0.01705007 -0.028446397 -0.005188763
ahead 0.01675701 0.021657292 -0.009874545 -0.0445347 0.020610094 -0.008685539 0.04481095 -0.036064215 -0.042218633 -0.015663272
follow 0.0038913926 -0.03388303 0.0100183105 0.040788412 -0.005173659 -0.03616148 0.010331095 0.007951778 -0.029077908 -0.010172897
closed -0.025079884 -0.0022458483 0.06458551 -0.0120129 0.03951205 -0.03218363 0.08178956 -0.03534448 0.050800204 0.02227427
band -0.033412334 -0.034462318 -0.010507317 -0.008831177 -0.03448218 0.031507578 -0.017953213 -0.028032135 0.012837756 0.01318282
range 0.008737593 -0.0076842266 0.036964506 0.01571459 0.075836174 0.03331368 0.018474853 -0.011310572 0.021527838 -0.031139024
yet -0.024956072 -0.03520835 0.031614028 -0.0014941456 0.04609983 -0.0189539 0.035299163 0.026495537 -0.017422806 -0.033304133
people 0.055593915 -0.009556607 0.0130484365 -0.03828219 0.004146305 0.022554196 0.03987019 0.028238503 0.036042783 -0.034100447
pre 0.022080615 -0.053792696 0.024076581 0.029331831 0.03771005 -0.021162892 0.09485212 0.017873764 0.024892593 0.025518894
w 0.03694021 -0.030866314 0.053523447 0.038853616 0.07949145 0.009817043 0.06502131 -0.031035367 -0.045289557 -0.014177388
sure 0.05492578 -0.077492826 0.006003654 0.05257179 0.015630575 0.018363755 0.058086034 0.027817434 -0.009092609 0.041959096
retailers 0.028242502 -0.020920968 0.011096514 0.037449524 0.06017086 -0.0006831487 0.012616162 -0.024322903 0.027656654 -0.0016518618
seems 0.054399952 -0.021400958 0.05792833 -0.04667385 0.03442372 -0.0074554333 0.04116197 -0.027317932 0.016584255 0.045369238
it&#NN;s 0.019090204 -0.04780495 -0.014325981 0.0020854487 0.060457297 -0.0010394423 0.032366592 0.035761535 0.03432728 -0.041600786
hope 0.021226648 -0.008362162 -0.006382584 -0.001696241 -0.0124876425 -0.038793568 0.022789989 0.03964252 -0.024276884 -0.0059988415
jan 0.05606909 -0.051819373 -0.03109832 0.013544586 0.06758936 -0.046984185 0.01567823 0.037388775 -0.011666594 -0.018643202
entry 0.058999073 0.029035084 -0.009386243 0.03359255 0.059685614 0.022264 0.032350186 -0.031791992 0.029244756 -0.03576712
record -0.011899965 -0.058949444 0.0033212975 0.017413931 0.052069716 0.021469176 0.085356414 -0.009145757 -0.03324719 0.012967736
split 0.05691647 0.010554877 -0.013881513 0.013042 0.05453713 0.013100068 0.086845465 -0.03474655 -0.021671947 0.045806147
sees 0.001749608 -0.040270347 0.073178634 -0.030201146 -0.006254221 -0.018294849 0.0014356569 0.02331367 -0.0140269855 -0.028782899
today's 0.03486833 0.028051604 0.017289875 0.0450994 0.051652014 0.0077560227 0.061840437 0.02515317 -0.013519166 0.0358966
major 0.06580917 -0.0005297593 -0.021383675 0.042708926 0.02773923 -0.037432358 0.087560475 0.017840235 0.04224753 -0.046698466
average 0.060549 0.017899588 0.03162201 0.03492473 0.01911553 0.025755076 0.011127887 0.039025098 0.022718806 -0.004859026
commented 0.019248608 -0.008484597 0.04707561 -0.047092557 -0.018595172 -0.008261388 0.040287916 -0.023617178 -0.009197794 -0.016354337
lots 0.043871343 0.021348216 -0.0009288898 -0.04118309 0.011723716 0.00829133 0.06032625 0.02112463 -0.026693769 0.03382047
total 0.01508154 0.0020068833 -0.007944452 -0.009072704 0.013444595 0.016548794 0.002977119 -0.038217794 0.0056978893 0.0010508338
NNRR 0.014805283 -0.07013447 0.008456439 0.040397387 -0.014281443 -0.001294167 0.034998696 -0.022517428 0.010345308 0.018944306
ah -0.009140353 0.01765915 0.0074569015 0.050830174 -0.03771174 0.0265855 0.035346676 0.04298935 0.0144447945 -0.035233155
taking -0.009716026 -0.029277029 0.019507512 0.0229283 0.056039575 0.014165055 0.04794068 0.0040991628 0.023299862 -0.015253301
wait -0.034464028 0.009557263 -0.0063149766 -0.007935031 0.055244237 -0.004263684 -0.0038466018 0.027452467 0.036049232 0.0010011492
million -0.031484324 -0.0016425638 0.054154504 0.03645709 0.011450584 0.027503721 0.06225155 -0.009787265 -0.04483632 -0.038469493
bear 0.031243226 -0.012999211 0.015060906 -0.044149186 0.021182522 0.0022977984 0.06182082 0.034116037 0.0049990495 -0.03393158
fill 0.031398613 -0.015275071 0.011270752 -0.009608512 0.008320915 -0.03083413 -0.019300966 0.021823894 0.04676222 0.032728296
longer 0.058986135 0.006555321 0.04830733 -0.024647115 0.0015128592 -0.0065181367 0.08053179 -0.0057354416 0.00050245936 0.019798007
report 0.021390254 -0.06379913 0.012560003 -0.030951722 0.027187342 -0.0030350448 0.021808723 -0.029637238 0.021173129 0.03234829
green 0.049114782 -0.059359346 0.029817546 -0.043118548 -0.01346971 -0.018250523 0.08229465 -0.047362644 0.0023020126 0.031628523
rs 0.025409143 0.006326395 0.038054373 -0.002345374 0.02191131 0.045429382 0.021865832 0.02284551 -0.011949838 -0.010395435
nov 0.021177953 0.0031692015 0.00052153796 0.047993448 -0.018239006 0.0051065474 0.09212974 0.030588733 -0.03349277 0.043912563
cheap -0.035772804 -0.013212173 0.029461194 -0.036625564 -0.018562252 -0.020168621 0.07338426 0.028997978 0.04280694 0.037562218
line 0.051560167 -0.020686483 0.023270203 0.040139318 0.04328314 -0.031937692 0.08185159 -0.04133192 0.0026079912 -0.013908683
charts 0.023747442 0.0027070981 0.038743444 -0.043441497 0.06302082 0.04482551 -0.015219891 -0.040075954 0.0143525805 0.041121025
channel 0.02627422 -0.023534466 0.05319271 0.039564345 0.065771945 -0.046184916 0.03762692 0.017589388 0.040784206 -0.010053479
level 0.038588032 0.023764461 0.029186096 -0.04648106 -0.013406486 0.04358889 0.038833782 -0.023492226 0.040373374 0.03434481
squeeze -0.033595596 -0.0057813236 0.054104384 -0.010053741 -0.02255267 -0.025121497 -0.005530233 0.04719641 0.024355466 0.008608225
possible 0.01193804 0.0032941794 0.022148067 -0.0012602075 0.072382055 0.027714094 0.060138352 0.040608045 -0.0016481507 -0.022728609
index 0.06233748 0.006824395 -0.022951666 -0.027482552 -0.01949793 -0.024194926 0.016334232 -0.018705709 -0.01962995 -0.043637984
upper -0.012492753 -0.062954865 0.054142937 0.018626764 0.0065603773 -0.012702189 -0.0005918361 0.005427995 0.0313154 -0.016661152
bollinger 0.014069751 0.01990807 0.0028840634 -0.04813491 -0.013012729 0.036612105 0.057253066 -0.037013374 -0.023387594 -0.013324173
bring -0.020225188 -0.048676066 0.06853754 0.033234943 -0.0161515 -0.01464946 0.03904782 -0.014393319 -0.015869223 0.026242435
real 0.047627583 -0.08178069 0.02858381 0.033141848 0.051188435 -0.04550296 0.07914574 -0.04710251 -0.0052613867 -0.0465172
NNk -0.013677398 -0.04425747 0.007360322 0.006282584 0.031907037 -0.026430488 0.023568353 0.0071857376 0.037688147 0.0013704769
loss 0.020626502 -0.05598525 0.0061076325 0.04175637 -0.002498197 0.020826263 0.013132118 0.037051566 0.003374469 -0.024130147
momentum 0.027050659 0.0034548473 0.018104129 -0.042605255 -0.027169073 -0.011638742 -0.019025834 -0.0051518134 0.0431478 -0.023173718
#investing -0.03096629 0.03100753 -0.019774744 -0.014128138 0.027355924 -0.036742948 0.049132288 0.02985541 -0.028090417 0.005990835
#tradeideas 0.010475203 -0.04857595 0.035649516 -0.03962597 -0.017520357 0.03838988 -0.009135173 0.0011749278 0.043215018 0.020057807
years 0.034317628 -0.03846656 0.009734097 -0.04330373 0.022342341 -0.01159871 0.01587285 -0.0077281804 0.029437535 -0.035853017
c 0.03953315 0.004954755 0.0027510421 0.013471058 -0.018129177 -0.046624657 0.09146284 -0.035387993 0.017503154 0.012234604
model -0.034626957 -0.007345228 -0.031513654 -0.024984341 0.009933164 0.008270836 0.04565278 -0.04371829 -0.007913266 0.018715648
found 0.04777989 0.0162024 0.02209812 -0.0314983 0.024942996 0.018819096 0.06297056 0.046590254 0.008567092 -0.031622604
revenue -0.032067444 -0.050244864 -0.025255248 0.03865128 0.048503734 0.0036483617 -0.004929694 0.016396372 0.0375366 -0.002611563
NN⃣NN⃣biggest -0.029499901 -0.0027595405 0.01867212 0.033716124 -0.025841989 -0.0007802296 -0.017262798 -0.0069018714 0.015214827 0.01668614
rating -0.026005274 -0.073903 0.028320903 0.04696086 0.014915689 -0.027460068 0.08494856 -0.046616487 -0.01141741 0.00768979
energy -0.016780524 -0.018186966 -0.0019163936 0.0022952864 0.054928824 0.03563188 0.047418453 0.036576483 -0.04839072 0.026038976
trying -0.016773194 -0.023732834 0.020993406 -0.031057253 0.0004053887 -0.017623654 0.031002153 0.029553678 0.042168465 -0.018447515
talks 0.047810555 -0.019568393 0.069700144 0.040353365 0.03891668 -0.05121188 0.07619476 -0.020530341 -0.049214717 -0.039970193
class 0.017493816 0.013197897 0.04384305 0.012266657 0.054132372 -0.0031638704 0.054245804 -0.023669435 -0.022062892 -0.0018630984
hod -0.04310539 -0.058283266 0.012314452 0.005312746 -0.024264086 -0.050730508 0.062212 -0.03768965 0.018231273 -0.030824495
twitter 0.015082342 -0.04088978 -0.0081082955 0.043944 0.057546575 0.028827682 0.028094294 0.01899634 0.037729338 -0.012156317
x -0.020491654 -0.055335842 -0.0029198725 -0.033278998 0.018141404 -0.042577595 0.034390144 0.04245928 0.028313735 -0.0035546308
w/ -0.025785137 -0.046969887 0.050935008 0.012119362 0.052643698 -0.030898487 0.036350492 0.020864796 0.041323688 0.045164235
DDm 0.041330807 -0.06463032 -0.020222504 -0.0058056186 0.06182566 -0.020935819 0.08727324 0.033136804 0.0272722 0.018305482
mkt -0.013084481 0.009913221 0.018390885 0.026535157 0.008305175 0.016130496 0.016213771 0.019746829 0.047561165 -0.020154456
interest -0.013624499 -0.01629529 0.017788129 0.026029753 0.042990223 -0.019185374 0.0023285593 0.03407107 0.016537376 0.03397557
vol -0.032148518 0.014673513 -0.034000583 -0.007976479 -0.026216274 -0.025463354 0.061146583 0.032742955 -0.043690413 -0.029980134
bot -0.028712451 -0.029957635 0.051414695 -0.050071016 -0.0029924675 -0.050366357 -0.017869068 -0.008800407 -0.047236048 0.045767307
online -0.026868135 -0.056937207 -0.018723462 -0.03234295 0.007617229 -0.041908596 0.0879004 -0.018532762 -0.010964302 -0.0027718549
gonna 0.025777567 -0.05993789 0.009957272 -0.03592686 -0.0020211195 0.02898562 0.047535587 -0.02460284 0.017666802 0.041787144
hot -0.036019973 0.021485671 0.038619664 0.022363765 -0.00581684 0.033930045 0.04516014 -0.048933454 0.021344524 -0.0042820456
beat -0.022843402 0.016247831 0.0254599 -0.022900173 0.03547417 0.027741969 0.06765536 0.032971527 -0.008744489 -0.01425933
broke 0.0040846607 -0.015349112 0.04270698 -0.044597164 -0.025773527 -0.03433883 0.061249353 -0.049711976 0.020115612 0.021581143
gets 0.018094506 0.023167126 0.07105094 0.048731145 0.06899561 0.010735134 -0.0034990895 -0.006239126 -0.0058983173 0.023233356
goes 0.025036614 0.011546314 0.017047677 0.0062461062 -0.022187706 -0.016751265 0.06277088 0.012376671 0.024190161 0.002596251
two -0.0035707692 0.0008592509 0.018772537 0.033383045 0.075073324 0.018018216 0.072529316 0.014713677 0.016492452 -0.046216194
happened 0.069214694 -0.031227725 0.016372481 -0.042007126 0.038696136 -0.027812798 0.068641506 0.020770112 0.009445193 0.007851182
NN&#NN;s 0.023833219 -0.015697056 0.018336102 -0.032199733 0.0138532175 -0.053378854 0.05559825 -0.009669229 -0.015608657 0.017252471
biotechs -0.0020731385 -0.038338423 0.013048323 0.021436865 0.03279974 0.003421573 0.003934427 -0.046584435 -0.031288125 -0.042324677
load 0.039208632 -0.049921107 0.044666808 -0.047598112 0.03741999 0.0011913968 0.007865817 0.037452757 -0.041466154 0.021339925
investment 0.017708333 -0.07508701 0.022498215 0.0021302048 0.033052895 0.0105992295 0.025997633 0.026443694 0.024084225 -0.020048978
rate 0.009932253 -0.044087928 0.03139118 0.04345445 0.03543797 -0.01806363 0.030421166 0.00034970383 0.029821686 -0.043824874
work 0.03893332 -0.071081676 0.05279132 0.037284136 -0.01829724 -0.044467952 0.057437763 -0.030806955 0.04807866 0.005556169
name 0.07429697 -0.057161435 0.06364039 -0.017624596 0.03073103 -0.037950188 0.037836876 -0.037705384 -0.0300587 -0.030773096
tmrw -0.026894266 -0.033188008 -0.018627223 -0.03842092 0.0561749 -0.0535538 0.079029225 0.034842897 0.03456382 0.030061627
lot -0.025813188 -0.047868215 -0.011845013 0.019073628 0.0023189082 0.0047964836 0.05482203 0.03992146 0.0042319433 0.006289482
buyer 0.06221342 -0.008219695 -0.02031824 -0.00041038264 0.041187804 -0.030242473 0.045073975 0.048935972 -0.040251177 0.040123533
quality -0.030339325 0.0066535966 -0.01655438 0.04451489 0.050420143 0.028181793 0.01636635 0.030934166 0.009132293 -0.014659454
winners 0.002848185 -0.038191225 -0.0021826557 0.032639045 0.033414695 -0.008392162 0.029234705 0.03922998 -0.0230075 -0.009999965
track -0.018575097 -0.0135543775 0.07251721 0.046370286 0.005007399 -0.037981644 0.015149448 -0.009629696 -0.03404995 -0.032068077
bulls 0.053034913 -0.021534748 0.048518077 -0.0032407555 0.07267325 0.020858219 0.040502876 0.027356705 0.029441638 -0.027145648
alert 0.05900196 0.019085167 0.070355214 -0.01014918 0.07116164 0.02029433 0.080314234 -0.013924177 -0.010686859 -0.028709367
NNc 0.012611829 -0.01875932 0.06441759 -0.01083212 0.05728908 0.017874504 0.054788135 0.005669748 0.049781848 -0.028381677
breakouts -0.014182287 -0.06359395 0.0016159236 -0.015252259 0.053075742 -0.010696213 0.0493288 -0.04873946 -0.027290603 -0.05076838
tesla -0.0030359123 -0.026303666 0.060757406 0.00802542 0.07018259 -0.030828591 0.01360139 0.01771037 0.050245155 0.0083214715
cautious 0.042714063 -0.02810403 0.056124505 0.01477741 0.030933602 -0.012736607 0.08216902 0.012969351 0.021851055 0.0027406334
caps 0.02112607 -0.014053266 0.05316593 0.0417931 0.057483945 -0.054994274 0.0831738 0.025885269 -0.0321487 -0.021843305
first 0.0028659757 -0.027929014 0.060062643 0.00019163545 0.036878843 0.034519836 0.05133407 -0.016941102 0.01395794 0.049226273
among 0.04393012 0.0062673106 -0.0012962881 0.016768802 -0.019294048 0.013844527 0.06733431 0.011718011 0.041194424 0.0267108
anyone 0.022420794 -0.021710858 -0.037805475 -0.029225878 -0.032860596 0.04313945 0.003822297 0.007218539 0.025835142 -0.020614833
side 0.022790194 -0.05693195 0.02755122 0.04117931 0.020749457 -0.048273727 0.025216604 -0.0063861636 0.028303187 -0.04149609
moving 0.049711164 -0.060915276 -0.01622117 -0.01898394 0.036995653 0.005036526 0.024620315 0.006065082 0.04380262 0.032915186
reasons 0.02187172 0.030749256 0.05563314 0.034453284 0.003114765 -0.0053376225 0.056961328 0.03163892 0.03022429 -0.0022610945
worth 0.017643642 0.01699777 0.055341408 0.03135177 0.040860962 -0.051139347 0.033286903 -0.014586922 0.008104765 -0.018304266
share 0.023939816 -0.005531638 0.06795789 -0.006552121 -0.00464118 0.02494087 0.025602795 -0.025388798 -0.044714972 -0.05001873
worst -0.007920667 0.028337697 0.0015032672 0.015064814 0.020401338 0.007182906 0.033296242 -0.04006952 -0.012990133 -0.01065393
performers -0.02305856 0.03927059 0.0022087744 0.048697513 0.028931875 0.0010170196 -0.011221199 -0.023494774 -0.04631693 -0.026086284
yahoo -0.02700108 -0.024204578 0.051103745 0.034412555 0.05242 0.015063284 0.064680725 0.013378386 -0.04063745 -0.04168706
NNst -0.012297409 -0.04903417 0.024553442 0.007976488 0.006460661 0.0285534 0.093247995 0.023796186 -0.012267419 -0.027089026
quarter -0.002575661 -0.059617113 -0.0020064018 0.050311465 -0.0069092712 0.013852767 0.07762536 0.029799841 0.038745727 0.041857928
results -0.023153031 -0.037843555 0.05898113 0.050529767 -0.009067569 -0.020413471 -0.021493645 0.00047035806 0.009303776 -0.036481902
cloud -0.019947283 -0.031579968 -0.021573601 0.045392964 0.008739362 -0.025116106 0.034006923 0.03895056 -0.042853136 0.004140189
keeps 0.052439038 0.027381081 0.062814265 0.023122335 0.015579433 0.018477239 0.025772046 -0.016005632 -0.004913913 -0.033533003
internet 0.060635243 -0.036988113 0.038657323 0.0044189515 -0.021079976 -0.05012235 0.045098558 -0.018487792 0.028443862 0.01141742
users 0.049197882 -0.070478104 -0.0048108893 0.023432888 0.028726118 -0.055318695 0.07067416 -0.028414486 0.02649936 0.04388556
reported -0.030369377 -0.066504866 -0.0072776712 -0.0076498375 0.032305162 -0.00956622 0.009805632 -0.042376608 0.004920362 -0.011751226
offer 0.0316806 -0.072269805 0.048819847 -0.029196965 0.06445285 -0.026409682 0.016851183 -0.009943575 -0.043675613 -0.036295407
spy 0.00028982013 0.009832207 0.026946852 0.030885242 0.04647932 -0.034930542 0.052593756 -0.012747177 0.012397735 -0.011408961
dip -0.023216229 0.0045100795 0.03700193 -0.029296169 -0.02038673 0.019775318 0.050636843 0.0090908175 0.041045234 0.029479131
black 0.032808855 -0.039245676 -0.01081834 0.0018747165 0.063887395 -0.017911801 0.0049073994 -0.007735802 -0.040485222 0.038403004
order -0.023747869 -0.0069196075 0.028693767 0.02863507 0.06146732 -0.042051587 0.05716719 -0.006016485 -0.02870002 0.031845488
recall 0.045836717 -0.0166564 -0.0017848588 -0.02929415 0.0068157604 -0.017264681 0.017948346 -0.023395011 0.04990114 -0.047756255
intel 0.004369164 -0.023754887 -0.0019080571 0.025565445 -0.021779131 0.013116944 0.035152588 -0.011688946 -0.009186567 -0.044837724
hit 0.046754345 -0.045181897 0.005898305 0.014441346 0.043295547 0.031609822 -0.02569298 0.048203636 0.033743445 0.042493287
lows 0.032020528 -0.027521752 0.018130045 -0.026847601 0.022538532 0.011215777 0.025689747 0.022375824 -0.021129776 -0.030654484
dont -0.03740859 0.0018006666 0.060666285 -0.047677636 -0.002647908 -0.012175308 0.044971686 0.008892275 -0.048657823 0.02285647
guess -0.014705653 0.012067068 0.015236674 0.04280294 -0.021448666 -0.039661154 0.07096704 0.025044858 0.018567229 0.0413479
production 0.019605147 -0.025784153 -0.021230567 -0.028499171 -0.02867419 -0.034595586 0.0034333004 0.01004857 0.030892089 -0.049256664
stores 0.010222196 -0.0490856 0.0018243123 -0.041757867 0.05055628 -0.045430426 0.03265661 -0.03848465 -0.026584417 0.04988862
macd -0.03261427 0.022092868 0.03733036 -0.037913635 0.041206047 -0.024535678 0.057250775 -0.018348541 -0.038055066 -0.012447789
percent -0.02240553 -0.03560158 0.05759393 0.009740504 0.0121538285 -0.021312473 0.05203595 0.040357463 -0.014043153 -0.034758337
outlook 0.035922572 -0.052303992 0.008098677 0.027470445 -0.014996803 0.00028528261 0.017449755 0.0020135927 0.0056841476 0.025655178
running 0.02373113 -0.041395538 0.039778978 -0.01999066 -0.03315175 -0.037060164 0.013565864 0.0017661792 0.04369097 -0.040397234
@montisumo -0.024947144 -0.022781529 -0.02711197 -0.025040554 0.055710506 -0.0068439646 0.047043726 -0.03343504 -0.0035059222 -0.049141925
confident 0.035906434 -0.025865478 0.069255635 0.035538696 0.019923026 0.012496616 0.012824 0.032303493 0.044440337 0.032013793
agreed -0.012664949 -0.001841596 0.056161292 -0.0016791782 -0.010565573 0.041307308 0.030170081 -0.0015812092 0.0028594683 -0.04286674
downness -0.020218901 0.036153246 0.057655677 -0.024374064 0.058930445 0.04060339 0.035801876 -0.018680025 0.05011043 -0.03323958
ca 0.05679673 -0.06067003 0.05246832 -0.0051348545 0.014269093 0.014939943 0.02199272 -0.0401223 0.03831021 -0.019788086
find -2.6652284e-05 -0.018541351 0.034966648 -0.014429466 -0.02082225 -0.024433983 0.037921425 0.03023713 -0.009654502 0.022198867
without 0.04898756 -0.024237178 0.076079 0.03981517 0.030138798 -0.031393155 0.0049465355 -0.0017598263 0.038693912 0.0025644735
gain 0.039334733 -0.06200185 0.03297183 0.0145721575 0.06365221 0.040236488 0.09138977 0.028608209 -0.0037935688 -0.00869969
capital -0.012943826 -0.075188965 -0.0008393688 0.010263563 0.010127685 0.007021848 0.08529291 -0.004440085 -0.02242601 0.043220248
waiting 0.0048721763 -0.052595597 0.027313892 0.023527557 0.010300582 0.042847026 0.0014881305 -0.029275334 -0.046910297 0.014628497
downgrade 0.037558164 -0.059978634 0.003278972 0.032223035 0.041254573 -0.03309552 0.06882183 -0.031180147 0.030788535 0.04156112
early 0.0018451115 -0.05654679 -0.0051090303 -0.020688869 -0.027621342 -0.034962952 0.027645072 -0.0026138697 0.038701274 0.028761802
continue 0.0276262 -0.008471066 0.031316698 0.031244328 2.5540474e-05 -0.019044776 0.07942457 0.003180904 0.027721174 -0.044156015
second 0.030397017 -0.016784118 0.05009709 -0.024139075 0.004353288 0.0066930843 0.04510713 0.039564505 -0.035576668 0.011550641
possibly 0.059666343 -0.012431558 0.068556204 0.0033726674 0.035983223 -0.0050518564 0.0814133 0.04806028 0.030042963 0.031184087
least -0.008941146 -0.06276936 0.0658011 0.027059555 -0.008209902 -0.030778183 -0.012499039 0.042606976 -0.044475403 0.012947944
european 0.03090876 0.014602925 -0.02269664 0.0020851044 0.04422863 0.013157916 0.062039737 0.035874523 -0.008710022 0.027255144
phase 0.017576355 -0.018548748 0.04847157 0.024585102 0.024524357 -0.018043583 -0.010766378 0.047040172 0.028822714 0.017919982
area -0.0037865022 -0.006463748 0.028637866 0.03248753 0.05457359 -0.054331098 0.025467584 0.037810232 0.010254279 0.0059788823
seem 0.027877215 0.028429205 -0.019053606 0.014947617 0.038387366 0.026345853 0.078235514 0.035297595 0.0011674874 -0.016577987
month -0.022240276 -0.024729993 -0.007916603 -0.0022794188 0.03937049 0.0390094 0.040129572 -0.013800335 -0.035293527 -0.03283158
highest -0.024915285 -0.0003741033 0.011602768 0.010480261 -0.009416275 -0.049750965 -0.021860378 0.020398006 0.036903024 -0.0016596982
rise -0.01961316 -0.063916236 0.017567266 0.00082199747 -0.014146784 -0.010931389 0.07735894 0.015847884 0.020624094 -0.024860192
^ 0.035334926 0.029032916 0.05472031 -0.044368777 0.06608873 0.003298329 0.013154867 0.016000813 0.04400617 -0.031223522
fast -0.03227696 -0.039482847 0.048282847 0.036869157 -0.0268828 -0.04944259 0.0177548 0.0011040892 0.0030280133 -0.043859612
bearish 0.026926905 -0.05902757 0.06039675 -0.0005311476 -0.020789932 0.008526251 0.04174803 0.046135716 -0.028485376 0.043302536
bears 0.033401214 -0.06937786 0.012249819 -0.028417652 -0.029976223 -0.039305016 0.06281221 0.04544416 0.0037151077 -0.01797697
triangle 0.017646553 -0.072075866 0.052196063 -0.03613391 -0.0009968523 0.023647152 0.035684586 0.0059591765 0.047599025 -0.010874651
active 0.026668789 -0.017063944 -0.012313095 0.038448036 0.050348293 0.0025735209 0.07629264 0.023215532 -0.016694037 0.004124344
NN' -0.010898889 -0.06043328 0.037811447 -0.048452564 0.07586284 -0.03040252 0.048601255 0.03359117 -0.028515257 0.015974704
NNdma 0.05319068 -0.039483268 0.053251978 -0.0019925907 -0.004061275 -0.038406253 -0.012081616 0.020678272 0.0039829114 -0.03377481
whole 0.016068151 0.01451805 0.034574825 0.04478698 0.046666447 0.025371393 0.014525819 0.022893908 0.023283577 0.008336227
feel 0.03980244 0.019161066 0.005685477 0.02439651 -0.0042200885 -0.048537426 -0.014076813 -0.043564513 0.014202392 0.009671073
turn -0.043754473 -0.010892454 0.01163841 0.041737556 0.012180185 0.025463343 0.06488707 -0.029986396 0.0024185365 0.008265909
amazing -0.017416868 -0.047291066 -0.03689476 -0.044599917 -0.016076598 -0.02045699 -0.02722674 -0.010185078 0.04075144 -0.03313211
investors 0.0022295304 -0.025161149 -0.002974918 -0.0018678941 -0.012705766 0.0074328375 -0.015076584 -0.03355378 0.045019913 0.02121205
strategy -0.040384043 0.03021804 -0.00745004 -0.04789608 0.04318298 0.019459138 -0.0150713315 -0.014472889 -0.015512671 0.0037280342
guy -0.03051556 -0.03127514 0.007811765 -0.045932867 -0.029716292 -0.031812426 -0.016585954 -0.047067102 0.036180694 -0.0067045847
supply 0.013242609 0.011357099 0.020506075 -0.015554775 0.063614964 0.017709581 0.017647384 -0.009811889 0.012371246 -0.007219902
chain -0.025269974 -0.022930222 0.01028832 -0.006240261 -0.01544298 -0.0258283 0.012051524 -0.040464044 -0.008452303 -0.02265842
chinese 0.0048480523 -0.057796784 0.04662356 -0.022499137 0.03480806 -0.008474948 -0.012150246 -0.025450675 0.04305443 -0.036075424
rated 0.014893874 0.00608097 0.018722992 -0.039589807 0.017775033 0.013558915 0.05192267 -0.030607345 -0.023526661 0.03365723
numbers -0.03290487 -0.028075736 -0.011904042 -0.009358897 -0.011511611 -0.027791947 -0.0038576561 0.035756778 -0.0373146 0.03979081
fine 0.032184713 -0.041813623 0.0038838848 -0.032600664 0.06780478 -0.0062155216 -0.0069229254 -0.014500295 -0.020901768 0.02217554
insiders 0.041990064 0.006497764 0.0028302262 0.018556073 0.011533836 -0.02479997 0.04858266 -0.033794727 0.04329387 -0.021049649
bid 0.031038418 -0.064390935 0.004158509 0.0038051333 0.0042706756 -0.053194877 0.035737667 0.018299812 -0.019052533 -0.018976402
recently 0.016291019 0.013925126 0.007472145 0.011750599 0.031372823 -0.031425424 0.01290374 -0.009568601 -0.04365 0.01431607
allow 0.004105768 -0.066845454 0.0432663 0.047492605 -0.022216141 -0.02692976 0.09026822 -0.027759872 -0.02014367 0.0074677793
pt 0.013646162 0.034440156 0.047015257 -0.03171467 -0.03018853 -0.009155174 0.05544629 -0.047422867 0.0298729 -0.023125201
ratings 0.057477467 -0.023311535 0.062257804 0.034588758 0.03968094 -0.007932568 0.049408652 0.0075613293 0.007538385 -0.048536494
adding 0.0156774 0.015589468 0.0062606046 -0.030642828 0.059537224 -0.003331444 0.03546972 0.03901341 -0.042355187 -0.027153663
adds 0.041011672 -0.021314505 0.008605903 -0.039036304 -0.016960697 -0.020693773 0.018748123 -0.048451025 -0.047747955 0.0480288
afternoon 0.042180024 -0.058846533 0.024831695 0.011331008 -0.02473183 0.011134204 0.027250854 -0.03071525 -0.020932963 -0.011529219
post -0.007535237 0.021826494 -0.036209553 -0.028543904 -0.032561056 -0.0022720604 0.031639356 0.022127697 -0.04002701 -0.04908867
DDb -0.044680458 -0.02226785 0.014574592 -0.005742323 -0.00065607845 0.03748191 -0.012689997 0.009033848 -0.027788308 -0.004957925
three -0.009462695 -0.02232853 0.031691626 -0.0008887368 -0.023350088 -0.022752108 -0.012239031 0.033447206 -0.0015596616 0.0051514227
imo 0.06082465 -0.07016217 0.061398745 0.010337953 -0.0026192195 -0.051380176 -0.013519159 -0.013510308 -0.045509014 -0.013472138
outcome 0.022513561 0.0063791005 -0.0041352753 -0.024365552 0.011462663 0.02912813 0.0033060652 0.0035318478 -0.029628694 -0.004132806
NNd 0.031665005 0.011927938 -0.0016374105 0.04300691 0.025248304 -0.023929477 0.026966196 -0.028406883 -0.022224892 -0.011448547
missed -0.020502282 0.037236527 0.02072656 0.042041875 0.010190521 -0.005085484 0.05629108 -0.027426155 -0.010167427 -0.011020649
tape 0.0067148567 0.03487245 0.044171803 -0.04838509 0.035123296 -0.047752995 0.0013657592 0.006998741 0.03846462 0.0056410283
$ 0.012111936 -0.01773684 0.007367622 0.033685427 -0.025254305 0.017080786 -0.026727587 0.003632813 -0.050133027 -0.012317521
today&#NN;s -0.035772238 0.021876814 0.047484018 0.0053423103 -0.009359079 0.023285223 0.005967017 -0.0020854801 -0.0030851543 -0.029011821
basis -0.026672522 -0.002443125 -0.027683228 -0.023696437 0.015337131 0.04719676 0.05420221 -0.027730701 0.033600822 0.038597222
compared -0.013032479 0.0072856727 0.04882174 0.031155102 0.020331832 0.0009735391 0.037741773 0.003393335 -0.030535134 0.014779113
cover 0.013507155 -0.011746367 0.06562555 0.03350669 0.036198873 0.036628455 0.031631015 -0.047162056 -0.017140668 -0.019266265
rsi -0.00045263194 -0.008835713 0.015631514 -0.02509571 0.063634165 0.04484907 -0.019090481 0.045346763 0.0032550353 -0.037156805
pop 0.04334075 -0.0538275 0.028255017 -0.013230308 -0.013841151 0.03184437 0.030557243 -0.009558214 0.033947263 -0.040382307
uptrend 0.051058676 -0.061617434 -0.00819811 0.030013502 0.060896393 -0.05163992 -0.0062850043 0.01538327 -0.04869811 -0.030534634
base -0.033694178 -0.00060057465 -0.025240922 -0.0002028055 0.047232427 0.03060475 -0.014396927 -0.03656098 0.017937433 -0.0040305946
yoy 0.049744308 -0.010606541 0.06668945 0.039674394 -0.008614463 0.013471205 0.021680243 -0.0153136775 -0.009891086 -0.025867164
er -0.016297063 0.0038086136 0.03183177 -0.03832553 0.030998267 -0.03274542 0.0759989 -0.0010378396 -0.017918909 -0.050136376
shorting 0.049629606 0.028778082 0.048658993 0.0037033954 -0.034207135 -0.029919874 0.014361446 0.008611209 -0.046029136 -0.020802999
earlier -0.017579244 0.010567783 0.056867443 0.029799715 0.023686355 -0.048882645 0.060864143 -0.0101177115 -0.031333502 0.03041601
exit 0.012724757 -0.056845933 0.01696356 0.049946938 -0.017674802 0.03155041 0.052955512 0.0030348036 0.0012169539 0.017589603
&gt;&gt; 0.044186857 0.0069234744 0.04089863 -0.026600635 0.057788074 -0.008113581 0.0060809897 8.4292085e-05 0.034496333 -0.01304483
double 0.028749393 -0.0230907 0.011651612 -0.035433114 -0.00034300235 0.015832786 0.051913768 0.0008660495 -0.04006928 0.030041058
reversal 0.01734509 0.0017914942 0.010118018 -0.0424699 0.04843653 -0.0011524393 -0.0017505684 0.0065394435 -0.045954682 -0.04547144
already -0.021373913 0.007167106 0.05692929 0.039605413 0.040141232 -0.0018271006 0.046460565 0.026735008 -0.040550172 -0.042508565
dollar 0.042283174 -0.062682144 -0.021767503 0.046391893 0.0020217036 0.041867625 0.03498511 -0.047021918 0.023718847 0.029381108
#NN -0.023431065 0.004882444 0.013665658 -0.0044183177 0.067206465 0.012899661 0.053623915 -0.029244967 -0.031353414 -0.013053587
shld 0.042547602 -0.059642136 0.012971814 0.0018323509 0.019454226 -0.05258916 0.06877722 -0.0053985636 -0.044222824 -0.024062607
worried -0.019544054 -0.05089175 0.05163636 -0.040707007 0.048094347 0.010674533 -0.011302182 -0.050727967 0.011651675 -0.05193857
icloud -0.019755851 -0.044222765 0.0058983983 -0.009035109 0.0011790355 -0.017436957 0.016917622 0.017959034 -0.027176468 0.021668535
due -0.026131736 -0.0016658904 0.06980406 -0.009263813 0.014799396 -0.02009383 0.07270174 -0.033556066 -0.03871457 0.025767103
ripe 0.054871622 0.028236367 0.057206478 0.0109357415 -0.002297233 -0.038135342 0.053821124 0.048163965 0.043953598 0.040542938
risk 0.005141017 -0.019846171 0.05572472 -0.007856184 -0.031197594 0.031030115 0.07877451 0.039268952 0.021523518 -0.035924464
weakness 0.056009978 -0.06339379 0.00443825 -0.04562639 0.05744421 -0.008066067 -0.021139566 0.02010009 0.048978064 -0.020141097
okay 0.05447965 -0.004463021 0.0057232073 0.030710055 0.05727144 0.008624664 -0.020615105 -0.006617396 0.049145784 0.022131233
miner 0.0026032887 -0.013567725 0.04015332 0.03294748 0.038732912 0.037937757 0.0064121713 0.039029345 0.016207658 -0.030529153
pe 0.030548794 -0.07821907 -0.0010964071 -0.027010983 0.04950215 0.0276287 0.072676204 0.042329215 0.03509381 0.00944032
close/ 0.010037857 -0.06816084 -0.014550899 -0.038800705 0.05416073 -0.0066016656 0.041091315 0.025982143 0.042102396 -0.006152292
though 0.03198433 0.036103927 0.019204719 0.0036851254 -0.018499171 0.016483568 0.046406757 -0.013838147 -0.03286804 -0.026196865
july -0.031347975 0.029035196 0.041414794 0.010969589 -0.0001865949 -0.0067278394 0.030484878 0.04244825 -0.00036013447 -0.004299907
institutions -0.014380462 0.021947075 0.017517231 -0.03651256 -0.014402605 0.045022003 0.009406701 -0.0012130789 -0.027987136 -0.047389198
list 0.046234123 0.028080676 0.009339295 0.031848125 0.045927797 0.0077697597 0.053494595 0.04853204 -0.042773467 0.042922106
times -0.02568482 -0.044951532 0.049456142 -0.026559787 0.008905948 0.010280409 0.035701763 0.004213376 0.04528667 0.008487971
yield 0.046706915 -0.013413535 0.028587876 0.030233694 0.035359215 -0.023884978 0.03914892 0.0099817645 -0.022377633 0.0077156154
come 0.060036592 -0.009567844 0.044782143 -0.022671035 0.013882657 0.0072419387 0.05091654 0.026153449 -0.027016953 -0.02128978
pretty 0.029944653 0.014450972 0.06636675 0.031887744 0.041816473 -0.051425263 0.017283542 -0.023394791 0.021070883 0.015972707
industry 0.019857418 -0.06657243 0.019803014 -0.02039885 0.03109575 0.0022509506 0.010405186 0.018029299 0.008846552 -0.03298375
solid 0.021066066 -0.004259494 0.00376252 0.038217887 0.03766796 0.04157827 0.044704586 0.04128246 0.01157338 0.011184167
levels 0.027069403 -0.02905314 0.03939269 0.023888644 0.06323575 0.0018537933 0.067401715 -0.008183588 -0.0051844637 0.013007924
points 0.026872395 -0.025364334 -0.03105447 0.028800163 -0.029162804 0.01498535 0.05612905 0.01686891 0.025422849 0.01166834
miners 0.03511908 0.009947828 0.03128486 0.04303425 -0.0072292956 0.044436306 0.03551905 -0.027001465 -0.01622719 -0.004551603
returns 0.005917002 -0.02734142 0.027145233 -0.018416826 0.021624366 0.011675338 0.0007677264 -0.01744799 -0.036209688 0.011170015
reporting 0.0027420137 -0.0049328217 0.044386625 0.03960986 0.042691644 -0.022669755 0.0057526208 0.037398513 0.05107208 0.034956425
light 0.02309619 -0.015451382 0.021753179 -0.04276258 0.031707145 0.021323811 0.005960409 -0.003122818 0.040847506 -0.044656232
jobs 0.024093399 -0.018989826 -0.002547607 0.017131008 -0.015524882 -0.00034209157 -0.0061372174 -0.014386701 0.0051151854 0.03574991
wants 0.02275051 -0.03931419 0.037790235 0.0036970612 -0.0039223535 0.026568078 0.008999987 -0.010787687 0.029054 -0.012728979
expect 0.01365918 0.008216301 -0.01700896 0.03950565 0.048461065 0.029300474 0.017538387 0.036831725 0.04413984 -0.011558012
covered 0.025663305 -0.038117386 -0.035373267 0.02907578 0.04512399 0.0074142762 0.03937403 -0.0026156292 0.015496679 0.027868731
hits -0.012804735 -0.037670236 0.04125738 -0.03885403 -0.00038162855 0.038980737 -0.015429829 -0.011834014 -0.041297544 0.03479787
NNnd -0.00025847988 -0.042868666 0.03567687 0.051296167 0.048897192 0.039243467 0.048161037 -0.027989184 0.009549788 -0.03649373
huge 0.004365408 -0.039297316 0.05357461 0.018775344 0.01577465 -0.043879613 0.030736135 0.027880263 -0.029632216 0.010927466
past -0.038968775 0.01724235 -0.029268494 0.034120485 0.011073684 -0.05094483 0.036559243 -0.021744477 -0.04929032 -0.026751915
cancer 0.038595926 -0.050887447 -0.007884667 -0.023694498 0.016522283 0.0067043058 0.034979712 0.04921647 -0.028804688 0.034720097
lets -0.025436383 0.013672703 -0.011263915 -0.034856018 -0.014705763 0.017422043 0.019062547 0.034759283 0.0055756387 -0.006125634
bell 0.009952961 0.040091258 -0.006465654 0.049237352 0.028994951 0.0108796 0.05436814 -0.00954102 0.020199627 -0.00088537583
movers -0.01662857 -0.011632814 0.032614723 0.024732979 -0.023093399 -0.024108652 0.033060357 0.035329245 -0.03919718 0.028110873
failed 0.055134796 -0.05073598 -0.013998665 -0.042771284 0.004910821 0.032980688 0.011269753 -0.020828795 0.041108914 0.044782408
server 0.04144152 -0.044098873 0.014807446 0.051254846 0.00861449 -0.01201618 0.012553785 0.04477047 0.047598246 -0.03715372
pull -0.019915743 -0.010074059 0.027418934 0.048477903 -0.03231217 -0.018710466 0.044249266 -0.010578584 0.0023655354 -0.00015084461
finally 0.053348955 -0.057267834 0.05044238 0.008234307 -0.0061191074 -0.024323175 0.0002802631 0.033892345 0.025610067 0.0067721624
maybe 0.015334463 -0.05984389 -0.012469224 0.037551817 0.06717887 0.0025886137 0.038216505 0.0010355792 -0.031671483 -0.01749465
watchlist 0.038883865 0.013115317 0.055198893 0.006813851 0.031188346 0.005409587 -0.021831423 0.025771042 -0.016801875 0.007994123
boosts 0.024136951 -0.015810557 -0.023271311 -0.04622892 -0.027510252 0.042427003 0.0046368437 -0.04173492 -0.0049329647 -0.016920269
output -0.027165027 -0.03768627 0.03163194 -0.0032110657 -0.028464986 -0.0015785488 0.045541324 -0.019231586 -0.016068544 0.035779197
@business 0.055166576 0.03152527 0.011222386 0.0052758474 -0.0091096405 0.023039758 0.045134716 0.018211644 -0.038909495 0.0025774958
car 0.00043419228 -0.0037545285 0.0041741864 0.010699574 -0.021317076 0.007211128 0.017121635 0.021814534 0.00662626 0.007812727
based 0.018313294 0.016382048 0.014486719 0.041136976 -0.021095391 0.02591938 0.05757912 0.03826344 0.01597556 0.010632263
competition 0.039901532 -0.045357186 -8.072097e-05 0.04779581 0.044982657 0.041302055 0.061124574 -0.029940309 -0.01974857 -0.034275424
compete 0.0013473339 -0.024399223 0.008354068 -0.01891358 -0.018915955 0.008069807 0.052554265 -0.012555867 -0.045805052 0.03800076
expected 0.011128509 -0.007569992 -0.0036631227 0.019652935 0.03655682 0.005641345 0.042833865 -0.04021925 -0.041089844 -0.0028917673
number -0.017128376 -0.039874893 0.032530837 -0.0076010516 0.014603609 0.017574463 -0.01007031 0.0042978344 -0.030538574 -0.029637668
trending 0.010911307 -0.047829486 0.015949074 0.0054535526 0.054112997 -0.05211492 0.043274164 0.01238099 0.029525282 0.03736481
patents 0.019404734 -0.003972659 0.02790677 -0.0015272956 -0.004060065 0.027006065 0.053152237 0.030969257 0.0153101925 -0.023451127
growing 0.03295882 -0.0026011975 0.002286573 0.001408977 0.048886485 0.032578398 0.0064939517 -0.0151230795 -0.0038724 -0.04998584
problem 0.026828758 0.029623128 0.037305456 0.03210332 -0.0019547266 -0.011553755 0.0012484569 0.01342742 0.019461734 -0.039826617
future 0.051336344 -2.4326862e-05 0.0453648 -0.04293892 0.014876714 0.009582485 -0.0021431856 0.024358278 -0.0013004695 -0.037123524
curious -0.0018656658 -0.016560314 -0.034120638 0.023212122 0.0547846 0.02429206 0.026736448 0.04113673 -0.010416649 -0.0064659384
rumors -0.0050713024 0.024867255 -0.024722412 -0.043103207 -0.03741944 0.011349809 0.0042638625 0.0033534733 -0.011652894 -0.024641296
held -0.016381033 0.028424438 0.018395307 -0.040901996 0.05946087 0.030984167 -0.008529513 0.050967675 -0.04466067 -0.047810603
avg -0.033432085 0.021817967 0.060700934 0.010040113 0.037657548 0.0140096005 0.042216185 -0.019337565 -0.030506857 -0.01709954
data 0.01905298 -0.009305242 0.019258043 0.05053714 0.04743237 0.004616446 -0.022877762 0.04500844 -0.013895588 -0.019602995
ownership 0.052889384 -0.0151155805 -0.024968857 -0.0031130244 -0.015954696 0.030186852 0.06874861 0.015028696 0.014469309 -0.0023638771
actually 0.028623143 -0.04029308 0.045411874 -0.015163497 0.039739553 -0.03696963 0.0556582 0.010791318 0.040649213 -0.032312248
maker -0.0011030573 -0.023123674 0.05413355 0.046295464 0.031735763 -0.02277416 -0.01678753 0.013957409 -0.043052148 -0.04036762
ibm 0.005179722 0.016905446 0.041198306 -0.0072810412 -0.030684713 0.0103926575 -0.000537676 -0.04196038 0.0027026192 0.025897771
picks 0.036000628 -0.0032347678 -0.03646474 0.011951373 0.009723993 0.0067192907 -0.015726706 0.031590257 -0.044891555 0.015941257
parkervision 0.052546345 -0.0015046131 -0.008802292 -0.021182612 -0.002385443 -0.04982986 0.025313517 0.0085472595 0.013819232 0.016327927
aggressive 0.0012039479 -0.027462581 0.02975718 0.02941293 0.0019849285 0.030445457 0.03897491 0.045355093 -0.0037981714 0.04855193
poised 0.042515848 -0.05978497 0.038566303 0.050596017 0.04525637 -0.029536452 0.06015741 0.004041388 0.039287377 -0.031054314
pips -0.046849523 0.032308392 -0.040505473 0.008746532 -0.020626597 0.0030542198 0.049548868 0.023314105 -0.047727544 -0.03774767
months -0.02161205 0.012192125 0.049211614 0.034567535 0.006767724 -0.028943932 0.027881622 0.04365703 0.0049800193 0.008439278
losses -0.03938048 0.037751265 -0.02427474 -0.03564899 0.015248551 0.023280557 -0.026525596 0.026089655 0.021305365 -0.04892661
game -0.015419404 -0.018318117 0.036944885 -0.029816505 0.054547578 -0.00067872886 0.052905254 -0.025991999 0.023493484 -0.037534636
sounds 0.008109914 -0.04734302 0.04009606 0.008642658 0.050976723 0.0134037 0.033142574 0.026721768 -0.012288956 0.00825486
weekend 0.043626595 -0.018168544 0.05798923 0.020593328 0.0023372436 0.021538543 0.0039725844 -0.025663637 0.01712252 -0.003245137
bb -0.024966782 -0.007659982 0.052358717 0.026441714 -0.009349512 0.040454082 0.04969062 -0.036569297 0.024228422 -0.016493421
tight -0.044182215 0.018376654 -0.0073676035 -0.045041665 -0.004250059 0.009957654 0.013596335 -0.0037240891 0.05015611 -0.026875576
analysts 0.012816646 -0.008791931 0.019252397 -0.036692005 0.06117945 0.002311536 0.011459223 0.020866035 -0.022546472 -0.038107816
leading -0.029546207 0.018686868 0.044233587 0.048697922 -0.007873416 -0.014598321 -0.02659463 0.02413145 0.034874436 -0.04950855
working 0.034762945 -0.009242547 0.058379732 0.02749785 1.0697917e-05 -0.020660905 0.034007736 -0.03005421 -0.013206983 0.01868614
eyeing 0.016505454 0.032963973 0.0314067 0.0030416113 0.012669748 0.018002812 0.041164376 0.039426938 0.039026752 -0.018427625
excited 0.040235065 -0.05267204 0.01172994 -0.043329105 -0.023061227 -0.04555346 0.040403243 0.024567572 -0.04146497 0.048209317
#apple 0.022486608 -0.00038985844 0.012941031 -0.030976048 0.042414963 -0.03147302 0.007437842 -0.030182455 -0.049048387 -0.04474535
trade; 0.035396736 0.011788552 -0.021241354 -0.013537023 0.03835007 0.004475285 0.066318795 0.0023509795 0.0039673983 0.0348837
nears 0.01627605 -0.026012473 0.041721165 -0.018615613 -0.010084124 0.011497417 0.015666608 -0.013983032 -0.02917343 0.04656693
thinks 0.038567167 -0.043669444 0.055070642 -0.025227971 0.024022812 -0.020348758 -0.013913798 -0.00019632788 -0.0011538559 0.038743038
pay -0.016895095 -0.060988635 0.021709569 -0.024878247 0.011619803 0.0024986342 0.047147233 -0.046279427 -0.05033964 -0.037641197
div 0.032420658 -0.028724726 0.014980851 0.04279688 0.05586724 -0.04817348 0.07565342 0.0065690144 -0.03485876 -0.029842924
financial 0.045951247 -0.059081573 0.009476013 0.011364718 0.060487516 0.006129031 0.030871881 0.031913225 0.029998027 0.049494453
flag -0.03261671 -0.022534745 0.025421262 -0.040829513 -0.030013386 -0.036566902 0.038177855 0.030441381 0.04955223 0.026932875
lung 0.043936554 -0.015270127 -0.023442877 -0.011477504 0.029802024 0.023175282 0.06993525 -0.033071533 -0.027453048 0.017596893
touch 0.039899454 -0.046003733 0.024913015 0.032910723 -0.011509363 0.016309405 0.026786977 -0.021418177 -0.043696754 -0.019711511
love 0.0506347 0.031506505 0.019803645 0.0018999408 -0.021090968 -0.0017345026 0.054452762 0.04459484 0.04467132 -0.047858283
ur -0.04297767 0.012604053 -0.022500403 0.0366596 0.0018310775 -0.039779413 -0.006474242 -0.018879198 0.045259524 -0.016666912
NN; -0.035371218 0.028490694 0.033310637 0.00780467 -0.01797451 -0.045737647 -0.038255665 -0.032006122 -0.016638868 -0.015985664
net 0.007721475 0.010433822 0.042604234 -0.013111528 -0.0246472 -0.05070422 -0.026723297 -0.025916032 0.023835706 -0.034031704
wonder 0.014850233 0.0022918715 -0.00541256 0.0015944561 0.005632877 0.006812461 0.04612125 -0.03995422 -0.018190011 -0.037217196
overtake -0.026730454 -0.033132948 -0.004130503 -0.031790197 0.05461233 -0.04005914 0.033364415 -0.043370146 -0.02624236 -0.0053785727
largest -0.03906605 0.0071161757 0.029984476 -0.03868496 -0.001767112 -0.012807958 -0.016742285 0.050255988 -0.0055844104 0.038419954
gaming 0.012581323 0.0011267505 0.016338332 -0.048082065 0.02430736 -0.014321489 0.03948485 0.04836473 -0.009163958 -0.03304543
europe 0.030350255 -0.0017103397 0.015771996 -0.030956907 0.006101551 -0.0331197 -0.009767749 0.010924625 0.020606749 0.01450852
stuff 0.004607282 -0.040751655 -0.042054392 -0.019766483 0.046749685 0.027806131 0.028052298 -0.02181352 -0.039637275 0.007942715
flat -0.0309016 -0.0119965365 -0.041588385 -0.009763195 0.051658172 0.026675278 -0.008783527 -0.033646893 0.041256364 -0.0031760756
[RR] 0.0004109784 -0.012438563 0.05228027 0.008125637 0.006721167 0.033090018 0.064795114 0.029038755 -0.040449552 0.03875236
&lt; -0.024243739 -0.023467898 -0.02670369 -0.04701057 0.048557147 0.0027432404 0.07021807 -0.030309774 0.02506383 -0.021236725
something -0.003991021 0.016314058 -0.013371795 0.008959745 0.0022091311 0.021924991 0.035780504 -0.022558987 0.009070387 -0.0018394205
massive 0.022184819 -0.003450118 -0.021976525 -0.0400573 0.00035138935 0.009077809 0.013173055 0.00322006 -0.03308373 0.006831238
candle 0.041264683 0.0329151 -0.016779179 0.02826732 0.02128096 -0.004391603 0.027505608 0.04912136 -0.021198405 0.017698096
&gt;&gt;&gt; 0.009212682 -0.047260746 -0.034435753 -0.026480557 -0.00048367598 -0.040350437 -0.031002693 0.030710684 -0.042616084 0.0069130934
moves -0.020873163 -0.009270331 -0.018391635 0.028651536 -0.00897459 0.028897408 0.06138478 -0.036830697 -0.020164555 -0.0442279
hoping 0.0034414874 -0.036815945 0.03662038 -0.033316746 0.036689073 0.020173183 0.079006806 -0.023067936 0.023280874 0.0068489034
nasdaq 0.031339053 0.0025821384 0.03200767 -0.003505196 0.0021303634 0.038349133 0.03172262 0.025894763 -0.024068477 0.048788697
float -0.021181995 -0.0041269185 -0.03320042 0.013612487 -0.0044676336 0.015925614 0.032643843 0.029184014 -0.021625876 -0.014189339
continues 0.01149128 -0.044631165 0.02248397 0.035545804 -0.008608782 0.03440391 0.02722349 -0.049860552 -0.022150261 0.010489399
downside 0.04837214 -0.03436652 -0.023702433 -0.00051486277 -0.030840917 -0.045279704 -0.032476902 -0.040615465 0.048310164 -0.036969252
far -0.0033138536 -0.04724417 0.05328288 0.009793807 0.03645157 -0.009452488 0.026162224 -0.031064047 0.024743252 0.0047117774
doesn&#NN;t -0.030832518 -0.020476475 0.054010414 0.0014285012 0.015633997 -0.048834417 -0.015289902 -0.022561314 0.0011685846 0.0035011712
positions 0.012227241 -0.004064367 -0.004917425 -0.040057935 -0.01202582 0.0072091534 -0.032926466 -0.012808001 -0.001237373 -0.02222872
@reformedbroker -0.025807157 0.0059760893 -0.012298559 0.029390741 0.0015885454 -0.04779264 0.007902019 0.04078925 0.014229962 -0.016276648
analyst 0.00078162487 0.028627852 0.015606191 0.044794314 0.047809828 0.030336663 0.06477173 -0.043969527 -0.020242134 -0.025621206
accumulation 0.041186977 -0.036751214 0.032334205 0.008618459 -0.024194857 0.01420778 -0.015597203 -0.016650746 -0.013083878 0.005159319
interesting 0.03831987 0.041647017 -0.028714022 0.01490341 0.053930108 -0.027357293 0.05778699 0.03054537 -0.028957678 -0.0036747882
starting -0.005719241 0.029217504 -0.040583275 0.04759522 0.034354374 0.023412686 0.049293824 0.040034648 -0.038751207 0.0072500804
tonight -0.016546384 -0.049440302 0.027650433 -0.022662703 0.047651865 0.014025259 0.06734751 0.01765748 -0.024938755 0.0277363
lost -0.037529398 -0.037692994 0.061543163 0.042176835 0.06482465 -0.01148421 0.05906988 -0.041789595 0.015114292 0.023484144
came -0.039629143 -0.0125424545 0.025982674 -0.008518434 0.036239807 0.012836622 0.0030133505 0.018774763 0.016337616 0.04343331
ceo 0.045426413 0.022320542 0.035127517 -0.027344221 -0.016356809 -0.036179215 -0.026413133 0.032771487 -0.043450058 -0.023725737
announcement -0.01819222 0.036123373 -0.009790388 0.027396644 -0.024131069 0.00082924595 0.024325466 0.03530797 0.042166065 -0.022871327
etc 0.025288 -0.015002141 -0.011122684 -0.0028243342 0.025943274 -0.009812195 0.05649912 0.03994572 0.03152224 0.011154442
please 0.041326158 -0.014567163 0.026638098 -0.023585955 0.057319395 -0.026430037 0.04521571 0.0005904087 -0.041536976 0.004861865
else -0.012443001 -0.0034641558 -0.0055484134 -0.041452136 -0.017278304 -0.029533586 0.0253915 -0.011374107 0.0323202 -0.036880292
pain -0.039241537 0.029122489 0.0069412263 -0.038977508 -0.006657445 0.014493658 0.0070846435 -0.007530106 -0.012601275 -0.043785997
favorite 0.038887955 -0.041134294 0.0076853684 -0.0021931229 0.045721415 -0.045839176 -0.0077527435 -0.04260848 -0.033973854 0.0058455183
patience 0.0069657937 -0.041708644 0.0016117578 0.051407356 0.009137119 -0.04455876 -0.028205348 0.019299537 0.027871579 -0.047571063
sign 0.0359415 -0.007903354 -0.009302182 0.04789389 -0.018770885 -0.04023432 0.0042288764 0.013303789 0.028932998 0.008571635
surge 0.05492433 -0.030785892 -0.010750723 -0.042343747 0.04525303 0.015169439 0.0032958374 -0.010758501 -0.002930959 -0.03935489
gtim -0.031257864 0.051798347 -0.017734358 -0.009852993 0.018419921 -0.022061711 -0.04228626 0.014443122 0.017333515 -0.011360145
redf -0.005069623 0.028526945 -0.010885967 -0.0369732 -0.008769302 0.047929358 -0.037535593 -0.0014609586 0.0024041336 0.00629752
they&#NN;re -0.027387213 -0.038791202 -0.013711661 0.031630825 0.018200867 -0.02677767 0.02321423 0.016779251 0.035418857 0.042983763
relatively 0.033832967 -0.0013611434 0.0007068442 -0.010931891 0.005701122 0.016106429 0.055664785 0.04106451 -0.030250013 0.037222613
broad 0.035196315 -0.010111177 -0.0034668061 0.035219725 0.032455873 0.012571659 0.03455597 0.00710385 0.020063424 -0.03610407
fb -0.0077955467 -0.053273585 -0.012802886 -0.008385024 0.0140240155 -0.021119215 -0.0032900441 0.017683342 -0.039051097 0.03167534
ipo -0.023341384 -0.0030504416 -0.010732668 -0.016852552 0.01123725 -0.025450855 0.007761292 0.045359343 0.010585458 -0.031730138
fear 0.024896346 -0.0041774763 -0.031045282 0.039620057 -0.03145587 -0.026352791 -0.012682334 0.030116975 -0.02049621 -0.047869418
push 0.049310304 0.012267411 0.03946927 -0.032800753 -0.016071668 -0.05219163 0.01431691 0.030805498 0.029655827 0.002802498
crisis 0.005793892 0.024478225 0.05970014 -0.038963743 0.029935233 0.03148105 0.04966913 0.024667153 -0.04965361 -0.045467615
entered -0.029705055 -0.04556248 0.01511066 0.007788868 0.03816722 -0.0287305 0.0013183793 -0.021022331 -0.029920204 -0.0019174662
dangerous -0.0018577495 -0.032216597 0.00047545184 -0.040519897 -0.033385172 0.023488486 0.025288334 -0.040482756 -0.0004406626 0.001283826
stay -0.026260227 -0.048793238 -0.017277708 -0.026218288 0.054912806 0.02276969 0.017278636 0.01620451 0.022984058 -0.006024162
soars 0.049585223 -0.010450018 0.018525561 -0.021033194 -0.01133683 0.00073765364 0.06329662 0.05000293 0.03672701 0.028838515
stake -0.039105166 -0.061676927 -0.014772618 -0.015390921 0.04699487 0.023955131 0.03133992 0.010586748 0.04628698 0.015429285
metal 0.044658367 -0.027003812 0.017777456 -0.011161387 0.039935417 -0.00018372128 -0.0146770235 -0.016835637 -0.03804458 0.039870698
lead 0.053126324 -0.04118053 -0.021685235 0.039531797 0.011229253 -0.04361257 -0.0115965335 0.00094391545 -0.018667707 0.035916977
april 0.02434548 -0.015384724 0.0019107881 -0.043312486 0.00016852436 -0.02219234 -0.04178479 0.045129478 -0.039862197 -0.006821123
head 0.011811178 -0.03049847 0.008297836 0.017116556 -0.012340438 -0.042372968 0.02013279 0.036726534 0.03759521 -0.009922359
triggers 0.02213997 -0.033364397 0.013954219 0.022266813 0.042495716 0.043459058 0.0051047546 0.018270327 -0.015158127 -0.043711748
NNa -0.02782033 -0.03756964 -0.019447492 0.0021336258 -0.03652761 -0.0071890806 0.052073725 -0.028476276 0.026672494 0.04543633
november 0.022229934 0.009248046 -0.02937326 0.017455846 0.04073325 0.0065697306 -0.011094493 0.028194128 -0.04747412 -0.030648353
catalyst 0.0112234345 0.00074984547 -0.012929305 0.016892036 -0.0027793949 -0.0011458832 0.012170746 -0.009432127 -0.0078203585 0.048606046
everything 0.025981918 -0.036604013 0.04240133 -0.006384057 0.05298974 -0.007569571 -0.029532606 -0.025637686 0.03774306 -0.00029883138
what&#NN;s -0.007985475 -0.051103212 0.03350875 0.005440118 0.003528086 0.0140176695 0.013711344 -0.012836303 -0.022308392 0.037093483
bet -0.008589358 -0.013510571 0.017564334 0.0461145 0.025866676 -0.050036967 0.00829385 -0.004668378 0.02512066 -0.020033233
many 0.026654327 -0.0050558103 0.016414631 -0.0010828206 0.005077019 -0.03336729 0.011379512 -0.028565418 0.030280689 0.023434388
sma 0.023249263 -0.061024483 -0.02459893 0.04159989 -0.012379925 -0.008093005 0.009457333 -0.03808075 0.046476442 0.024413908
blackberry -0.0006406299 0.016608492 -0.029088218 -0.042097688 0.0006981356 0.027289461 -0.027186101 -0.0028494494 0.0022255064 0.02004064
yeah -0.011805404 -0.014362812 -0.014424056 0.048399672 0.013977996 -0.052930523 0.0069428817 0.023827422 -0.018822279 0.026331445
versus 0.060827065 0.020713288 0.018736228 0.0077430545 -0.017830253 -0.008274268 0.022880983 -0.009896015 0.02726588 0.012104833
pig -0.005199067 -0.024666911 0.016541703 0.018062672 0.036509663 -0.034480367 -0.010746138 -0.037091896 0.03899636 0.01708428
loyalty 0.0028143378 -0.051280353 -0.0024760938 0.028101964 0.008981553 0.031769548 0.0566847 0.017569859 -0.043415513 0.046164054
study -0.028981477 0.022971136 1.21266785e-05 0.04559217 0.03211676 0.03622732 0.055768453 -0.013380608 0.039488718 -0.049036577
groups -0.034252044 -0.0033135246 -0.00979891 0.029389396 0.001677731 -0.030266566 0.054701257 0.047338083 0.015345523 0.03985929
want 0.026238477 -0.0020371645 -0.038756948 0.04563473 0.0013460052 0.04668394 0.005709633 0.0047784913 0.026235977 0.033672065
left -3.4250144e-05 -0.040701903 0.0052418043 0.018869307 -0.013857035 -0.041694228 0.0029392685 0.0024532797 0.015318527 -0.014549938
blame 0.02888275 0.022152172 -0.009566445 -0.037249725 0.049237218 -0.026363185 0.024751844 0.019767482 -0.0035714677 -0.02147524
profits 0.02533092 -0.04057562 0.045090083 -0.045115102 0.05442812 -0.041491162 0.059811555 0.046089765 0.0057873116 0.04224721
pos 0.016488954 0.025023915 -0.023215316 0.021804444 0.022561032 -0.041466597 0.028460415 0.002517965 -0.02173654 0.02064575
acquisition -0.010975824 0.004151495 -0.004249794 0.017771082 -0.021724168 -0.034966707 0.04830308 0.013273275 0.0018432835 0.026508734
NNcc 0.043122046 0.02267184 -0.043692354 0.017709732 0.03052947 -0.038270254 5.6021265e-05 -0.0071612564 0.012214812 0.028281126
nothing -0.024374971 -0.00841131 0.01140909 -0.028237514 -0.020633817 -0.010680959 0.051456142 0.04293005 -0.036711853 -0.04663088
spread 0.019712124 0.0129154315 0.06350078 -0.027183529 0.00939759 -0.04597477 0.0077464012 -0.00867839 -0.0455363 -0.044581212
led -0.015732799 0.015851403 0.051672515 -0.04869672 0.043555107 -0.007067587 -0.025875134 -0.02199753 0.020106856 0.04203869
bulb -0.0048589692 -0.009824781 0.0140196085 -0.023149557 -0.007129785 -0.048680723 0.03866185 0.039399736 -0.036365997 -0.029018288
remains 0.03609159 -0.024820616 0.020039903 -0.018473476 0.018177588 0.028814241 0.024654359 0.03791751 0.035534 -0.0070195035
clear 0.013448631 0.020398032 0.0073277713 0.03257511 0.062998325 0.03738492 -0.021251822 0.012313738 0.017464597 0.047533374
n 0.0058523384 -0.023652893 0.06417105 0.046540968 0.025105786 0.013610666 0.0065677715 -0.025667397 0.028620085 -0.018064369
everyone 0.049660057 -0.042649675 -0.017966505 -0.024710903 0.03943631 -0.031570062 -0.016579654 -0.033228613 0.020792576 -0.015735792
NNday 0.012957946 -0.060979266 -0.03242662 0.03694973 -0.02979656 0.0147131365 0.03756667 0.011108277 0.03660469 0.0010132238
oversold -0.010714324 -0.045253217 -0.025245184 -0.040147718 -0.037724122 0.02895565 0.04082687 0.010865488 0.04356211 0.022101726
decent -0.006848463 -0.03389629 0.053686433 -0.039665006 0.03335426 -0.012174999 -0.02534167 -0.017277565 -0.026259048 -0.021690058
co -0.016141588 -0.03978915 0.015310325 0.03710028 -0.025905719 0.008079613 0.04247781 0.043925058 -0.03326641 0.044825684
key -0.034760963 -0.013996157 -0.0029134292 -0.037718434 0.025716422 -0.03896949 0.02568787 -0.0326674 0.0164923 0.041862942
goods -0.041325793 -0.009271958 -0.034311593 -0.02116426 -0.0015401699 -0.033043474 0.05327007 0.012000208 0.01292099 0.0045543998
luv -0.027484316 -0.06105906 0.061138142 0.021986637 -0.007062776 0.018535156 0.013362223 0.039972838 0.018215992 0.023784054
went -0.028325632 -0.0029430494 -0.01743591 -0.008307517 0.047620483 0.0049500703 0.0011957908 0.014888285 -0.040691722 0.028875967
likely 0.021551738 -0.05110463 -0.016752647 -0.039353367 0.02956178 0.024706623 0.033258148 -0.03630962 0.04168699 0.0036220942
bank -0.021206971 0.014273748 -0.00070280285 0.035259858 0.03984301 -0.00073853275 -0.009228281 -0.0255123 0.04921079 -0.04155848
multi -0.036579203 -0.04768306 0.027676817 0.023385275 0.00041374267 -0.03502352 -0.029326718 0.0060955794 0.037456952 -0.0008399582
almost -0.029720113 -0.034560807 0.03556769 -0.04338738 0.025882019 -0.021636173 -0.011994609 0.03258744 -0.035176646 -0.043846287
board -0.03440277 -0.0100283325 0.064499915 0.016560175 0.049219586 -0.008101815 0.061402798 0.021306442 -0.027860863 -0.0019393995
engulfing 0.055763885 -0.027416896 0.058401797 0.004200937 -0.024169544 0.025510378 -0.0052915732 0.024230342 0.0035212454 0.047937993
white -0.02006597 -0.039170295 0.069788195 -0.032475658 0.015772285 -0.053729344 0.07314784 0.022094948 0.015014221 -0.007845672
tuesday -0.006006504 -0.0019406532 0.047993988 0.03681271 0.010646669 0.02884984 0.035642378 -0.012094984 -0.016068336 0.03415317
buys 0.059039153 -0.036580868 -0.023025488 -0.011302134 -0.0139756445 -0.046562184 0.033794735 -0.015824782 -0.012384369 0.01124073
hours 0.049470134 0.015341542 -0.01323712 0.033034325 -0.038765382 0.021527888 -0.017618112 -0.025392493 0.005524146 -0.029888188
anything 0.026468439 0.011812709 0.009122869 0.04050395 -0.007346099 -0.028351901 0.0602138 0.030198626 0.04895234 -0.0029535869
mentioned 0.025632184 0.008741475 0.055575434 -0.036480617 0.008578324 -0.038317017 0.077696115 0.026394542 0.02946675 0.045308635
upgrade 0.018687919 -0.03926523 0.0047175298 0.016989954 0.025107386 -0.045117203 0.034937497 0.05011577 -0.009456916 -0.022233538
option 0.05319224 -0.047029823 0.027982743 0.034673497 0.0113366395 0.026462892 0.04264085 0.046746194 -0.013208148 -0.008409678
inside 0.017678458 0.034044724 0.041432783 0.011454214 -0.03246943 0.023931164 0.039023083 0.006259552 -0.008874708 0.03757273
equity 0.0038760963 -0.05164161 -0.01969381 0.017788809 0.0406397 -0.04267193 -0.021169141 -0.027222836 -0.0066152723 0.018631637
#cnbc -0.042531624 0.019178033 0.012266676 0.002700084 0.024712563 -0.0014971517 0.0052475883 0.026599016 -0.018464653 0.013329837
monthly -0.034828316 0.022566363 0.0057717687 -0.04298773 0.036998387 -0.01084151 0.031792518 0.029477915 -0.01140531 -0.03376403
etfs -0.0059673293 -0.03753842 0.01419136 -0.021693967 -0.0034850503 -0.012494563 0.023524407 -0.02612984 -0.035733633 0.029757744
drugs 0.02068267 0.003981906 0.053626563 -0.016736062 0.06475876 -0.046746094 0.053411264 0.0061624623 -0.0031315174 -0.011373202
retest -0.015957996 -0.043894395 0.023892062 0.049834967 0.043810014 -0.048347346 -0.00040034976 -0.013233453 -0.008868235 -0.037793223
aapl -0.005540105 -0.0499447 0.021191042 -0.014116602 -0.028967096 -0.011604531 0.047380123 0.03405019 -0.015337181 0.019106543
descending -0.03637815 0.01710203 -0.036527637 0.041569907 0.049295742 -0.017519427 0.051527493 0.03991414 -0.021004748 -0.03480062
ratio -0.0206966 0.0009578746 -0.005158767 -0.0376915 0.0020427506 -0.03730254 0.058702305 -0.028519956 0.04964733 0.031189036
pattern -0.035150368 -0.038583763 0.035678353 -0.041725602 0.037160363 -0.005330259 0.0035099622 -0.021636812 0.030791955 -0.018212158
#stockmarket -0.027799161 -0.025037656 0.016630461 -0.0451189 0.035087712 0.028271187 -0.007136889 -0.030795371 -0.00790613 0.045334198
starbucks -0.0072939177 -0.021252507 -0.009191571 -0.015208056 0.03656574 0.042856913 0.03454661 -0.0037164688 -0.035384282 0.009923014
@barronsonline -0.02038391 -0.016040001 0.0065139914 -0.00070934085 -0.037410174 -0.047122627 -0.009943106 -0.026640613 0.033860598 -0.010338919
pie 0.050466467 0.020330485 -0.0043346216 0.041677367 -0.012798042 0.03797089 -0.025381854 0.04649549 -0.036441073 -0.016362656
sky -0.023263032 -0.052685417 -0.021004206 -0.0068464708 -0.04294137 0.029581202 0.023706678 0.0001343144 0.012855859 -0.01009209
NNs -0.0011538076 -0.040736496 -0.012254569 -0.030597558 0.013277178 -0.05293959 0.06091901 0.041014023 -0.044301145 -0.037110806
advertisers 0.024342252 -0.036293574 -0.020443397 -0.0074118595 0.0021892446 -0.047861252 0.04398081 -0.048531637 -0.01014943 0.043109763
what's 0.047399793 -0.0594312 -0.026116552 -0.01150875 -0.007708917 0.0065588555 0.00871633 -0.0124197975 -0.014839907 0.03890661
dips 0.006712587 -0.020113986 0.04172081 -0.023362197 -0.01836787 -0.024913255 0.014576137 0.013594345 -0.024870865 0.03952978
foods 0.014612877 -0.05442933 -0.015033723 -0.018525835 0.00029594603 -0.020735089 0.02437881 0.014981173 -0.027291015 0.011059688
wise -0.038723342 -0.05322777 -0.023010312 0.050648402 -0.007040938 0.015680345 0.031409398 0.042824894 0.00609456 -0.002006133
making -0.01961444 -0.0034154286 -0.018635996 -0.0016095751 -0.009399839 -0.04692544 -0.002622443 0.0036582996 0.027387675 -0.008882502
there's -0.002312367 -0.013151604 -0.011302231 0.025290089 -0.028065361 -0.039092306 0.049764894 0.025765073 0.035994116 -0.0010210199
reason -0.013632437 -0.008035238 -0.034502048 -0.035853248 -0.038097627 0.026165187 0.014804953 -0.00327766 -0.027413553 -0.017663036
r/g -0.0025689465 0.014635464 0.042208936 0.039856464 0.019419473 -0.033860616 -0.003126121 -0.014412212 0.01668784 0.02112674
alphabet -0.0048999623 -0.051271226 -0.027895475 -0.01100013 0.051456064 -0.013998319 0.01865138 0.007096041 -0.04648852 -0.023812938
here's -0.0054762904 -0.03329579 0.014861197 0.032329835 -0.04082882 -0.02635562 0.0032796736 -0.0020952176 0.012187175 0.015263843
#investors 0.045418456 -0.015815796 0.05034176 0.0040561478 -0.0104110325 0.0295538 0.0015400549 0.04190835 -0.011390029 -0.04192639
cars -0.03172913 -0.030928167 -0.03005149 -0.028028576 -0.03590491 -0.029743187 -0.023237735 0.032540485 -0.034582026 -0.0038904313
investor 0.04100689 -0.045321483 -0.010798375 -0.025741842 0.046453442 -0.026058882 0.009901876 -0.0073620724 0.04169128 0.010005898
costco -0.0102135595 0.031504758 -0.0438478 -0.044817444 0.022701535 0.009097864 0.04454625 -0.019320091 0.0070450855 -0.0123097785
corp 0.0045244475 -0.024496393 0.05081728 0.050082475 -0.03556755 -0.03482171 0.02885992 -0.0032650519 -0.03126895 0.024574175
ss -1.867139e-05 0.00590895 0.0028905147 -0.0056864633 0.045953594 0.01837372 -0.009198797 0.0015687482 -0.03459583 0.011768264
timing -0.0063251667 -0.045564454 -0.0018858303 0.004043929 0.037223656 -0.0285992 0.034996457 -0.00096370187 -0.023790453 -0.023836855
profit 0.039538756 -0.030259663 0.020041788 -0.047720343 0.04941009 0.047037203 -0.018087884 -0.03133311 0.049035035 -0.0212496
valuation 0.041205533 -0.028389022 -0.016979035 -8.414594e-05 -0.039337374 -0.046317328 0.029514294 -0.017319955 -0.017758796 0.008892447
targets -0.034371153 -0.017640237 0.029991245 0.03883013 -0.030702055 -0.0028910944 0.0065118265 -0.023778172 0.046266723 0.04663696
took 0.05101969 -0.022892399 0.042537235 -0.0097627025 0.021819253 -0.026041739 -0.028492657 -0.0025200217 0.004890617 0.03221849
increase 0.004269874 -0.01894773 0.032541182 -0.041888244 -0.044273876 0.040898878 0.015447369 0.01939684 -0.03730565 0.043984033
#fastmoneyespresso 0.015349517 0.031503268 0.009246145 0.03978902 -0.03924294 -0.028419796 0.004128063 0.019908978 -0.008683986 -0.00033200663
final 0.0024496599 0.027526004 0.050958306 0.029498594 0.039696105 -0.01113753 0.00695142 0.018100772 0.027782185 0.03976998
pete 0.03032268 -0.03660466 0.022121496 0.037739143 -0.024794206 0.036268093 -0.023910338 -0.034673255 -0.009503509 0.026871251
najarian 0.021014433 -0.0039870497 0.05392676 0.049577124 -0.018332304 -0.003286583 0.025210159 0.0045604915 0.025310727 0.029106388
brian 0.0041982853 -0.026865888 0.030276103 0.050752126 -0.00057603256 -0.038150944 -0.015018071 0.011836827 0.019645805 0.0022212218
kelly 0.050844185 -0.023453189 -0.0070912354 -0.01679874 0.03680975 -0.019359512 0.038188916 -0.03894179 0.01956132 0.028395511
karen 0.022044834 -0.014952391 0.05717598 -0.034693778 -0.037811324 -0.05078913 0.042896528 -0.040111672 -0.033296917 0.0142302755
finerman 0.0073712133 -0.049893614 0.05083206 -0.0050009694 -0.033603523 -0.04187283 0.011344115 0.04074924 -0.0492319 -0.031072998
adami -0.030118544 -0.055554867 -0.0121876225 -0.014940233 -0.014526942 -0.03650022 0.046520624 -0.047083564 -0.023538863 0.0042920993
believe 0.03965379 0.0202654 -0.0099392915 0.012797642 -0.041041568 -0.012819018 -0.02206863 0.02297004 0.015273899 0.039149724
i'll 0.04650362 -0.038881414 0.037396435 0.043397576 0.005532144 0.029099764 0.0522801 -0.044966377 -0.014346971 0.00063172996
marriott -0.018442547 -0.010881896 -0.031077849 0.035022933 -0.03674488 0.046786442 0.0396851 -0.027334498 0.017653462 0.0080122575
awaits 0.016964464 -0.03597437 0.016000193 -0.0429848 0.01854807 -0.007391782 -0.015820228 -0.037904993 -0.034584455 0.017179755
• 0.052700523 -0.059285928 0.038916163 0.038066383 -0.02828174 0.0042771255 0.010224712 0.001566028 0.020328071 -0.021618692
demand 0.038916737 0.00536712 -0.014070096 -0.028590588 -0.011937322 -0.05001991 0.03019655 -0.049332082 0.044254113 0.028422445
per -0.015057177 0.033065345 0.02223054 -0.013558561 -0.016636314 -0.008922297 0.020526921 -0.042731844 -0.031649888 -0.042861626
branch -0.026984854 0.036396783 -0.040524043 0.03589145 0.023774568 0.03376449 0.008540755 -0.00941468 -0.028426101 0.019194445
medicine 0.0386133 0.035447538 0.016157322 -0.018656645 -0.03278315 0.02192825 -0.014777937 -0.040069528 0.04782582 -0.016676052
producing -0.030031841 -0.03838219 -0.006613988 0.048222747 -0.023391098 -0.03977013 0.054150853 -0.005667356 -0.014875347 0.032098617
impressive 0.04597369 -0.05374809 0.060682617 0.019602556 -0.0121947015 -0.00030626456 0.028480133 0.023889877 -0.009061396 -0.010438442
@thestreet -0.008558475 -0.025411021 -0.024651641 0.01055356 0.038332045 0.000746632 0.05431918 -0.02454516 0.020894151 0.022050694
visit 0.012023172 0.0018460214 -0.00030588434 0.019179419 -0.030563885 -0.008409685 -0.03309055 -0.023327993 0.045885924 0.029110637
jim 0.053371634 -0.04514905 0.03137337 0.029368984 0.010762251 -0.031731624 0.036493488 -0.04106014 -0.005932692 0.041026913
cisco 0.010763463 0.0041327258 -0.012350065 0.025453774 0.035545103 -0.05037918 0.011661391 -0.044200666 0.04144323 0.0011790035
broken 0.024854667 -0.022947442 0.051547702 -0.006634317 0.018719822 0.018504178 0.020897143 -0.024817824 0.028249517 0.034284443
test -0.0455639 0.00600285 0.004038679 0.02695939 -0.03337808 0.00068874983 -0.025872916 -0.033225033 -0.009063703 -0.027560858
kicks -0.017526112 -0.046910577 -0.036658216 -0.030088412 -0.03235873 0.024763815 -0.00942665 -0.02123345 -0.034943633 0.039902687
expectations -0.029025603 -0.05246804 -0.0014899506 -0.0457497 0.027783027 -0.001483441 0.012140245 0.010599703 0.04384516 -0.037827954
james -0.010513483 0.0049353857 0.014282376 0.025983224 0.049097624 -0.034005027 0.0009947242 -0.021775726 0.013218975 -0.009288969
monday -0.0013133363 0.033669572 -0.026465446 0.003967553 0.020205906 -0.011008465 0.06103104 -0.043280598 0.031449087 -0.024994552
partnership -0.0010696251 0.014099289 0.025926298 -0.0070062103 -0.028381653 -0.008923662 0.007501508 -0.018771557 0.026046311 0.017720073
tues 0.043797046 -0.007786166 0.03309635 0.034934606 0.02318427 -0.027653962 0.0050208424 0.01902124 -0.041090153 0.004675652
catch -0.024565155 -0.017050887 0.046542596 -0.005839281 0.0183348 -0.0011774309 0.035856143 -0.02994001 -0.03992821 -0.044438157
beating -0.0002316382 -0.0049968297 0.039352022 0.0036203677 0.04310821 -0.034917947 0.0594905 -0.03312901 -0.035405286 -0.006252452
globally 0.045658965 0.036367763 -0.027413651 0.030531883 0.005778078 -0.017648442 -0.027696058 0.03678843 -0.0074409754 0.03580228
mail -0.012825936 -0.012884284 0.05232264 -0.027325073 0.048602197 -0.0486258 0.028647672 -0.035645768 0.01592898 0.038368497
general -0.011548698 0.03798638 0.011952311 0.019661937 -0.0250494 -0.02892007 0.054625176 0.019993046 -0.004177119 0.026138404
trust -0.029734295 0.017123958 0.014762854 -0.006511435 -0.025400886 0.04601828 0.039231304 -0.007783675 -0.010571706 -0.028180862
flyers 0.05263864 0.027543677 -0.017706107 0.043554723 0.013124463 -0.006273776 0.065725096 -0.035871662 0.02260782 -0.047618683
isolationism 0.0053005833 -0.018488308 0.007476729 0.04193685 -0.009149148 0.043472648 0.02608237 0.0023024406 -0.04557515 -0.00811556
qqq 0.011943844 -0.048853014 0.054585945 -0.048315976 0.021863589 -0.026758337 0.0077475 0.0043769483 0.004532205 0.047641937
iwm -0.02585613 0.01783192 0.018241428 -0.026429808 0.025852764 0.037021987 0.06086623 0.039941013 0.034859005 0.035378717
several -0.022602575 -0.00030559342 0.0198097 0.020308733 0.036091845 0.027723879 -0.003032606 0.042068254 -0.036580883 0.023955503
leads 0.0542436 -0.051396243 0.0263596 -0.022964157 -0.02226909 -0.017959457 0.00046705361 -0.027259566 -0.008118235 0.040084627
saying 0.053395744 0.018543685 0.048685454 7.874311e-05 -0.016577737 0.014167813 0.012040031 -0.04779187 0.0017586512 -0.013251565
#fintech 0.020267306 -0.013167756 -0.034116223 0.028328838 -0.016063498 0.024795623 0.011937332 0.0054002916 0.046711344 0.048981875
forward 0.00829239 0.019360509 0.021185512 0.0033331201 -0.00089736504 -0.00013629628 0.04357133 0.019136395 0.03147331 -0.005078675
they're 0.0572746 -0.03816957 0.02078418 -0.039101943 0.015959842 -0.022165362 0.029140485 0.00490632 0.047597494 0.03350778
losing 0.03907063 -0.01600607 -0.012782879 0.010991248 0.039229743 -0.014291124 0.022439277 -0.0072080083 0.031629544 -0.011592054
bit -0.03494232 -0.056733124 0.03234708 0.043063425 0.020973042 0.0057324916 0.06305165 0.04916879 -0.0025609883 0.02888773
let&#NN;s -0.027251145 0.02141684 -0.016160347 0.0015399319 -0.021427188 0.0149266645 -0.010200876 0.04628017 -0.04072799 -0.004674208
helps -0.010172949 -0.021509642 -0.033712532 -0.007555919 0.04333778 -0.039776307 -0.033781998 -0.016689325 0.004978774 -0.046372313
speculation -0.03323688 0.0039587673 0.03967799 -0.0076299133 -0.023830945 -0.002047295 0.0055283415 -0.007950479 -0.02634058 0.028924271
studyRR -0.03907778 0.028167555 0.014777451 0.049017318 0.049517304 0.02680536 0.053064156 0.005607804 0.04011854 0.01400875
filing -0.0409401 -0.05841447 0.0053238524 0.002788311 0.04789448 0.038284145 0.057382446 -0.0012693387 -0.041393757 0.012399735
soros 0.033152092 0.03338267 0.05695043 0.0451303 -0.027833508 -0.01450503 -0.010073338 -0.00096156925 -0.0063936473 -0.038521945
icahn 0.03537818 -0.03447478 0.014354672 0.035878222 0.056607224 0.005083273 0.023624482 0.022829523 -0.036199782 -0.016150236
et 0.052049823 -0.04669126 0.042936876 0.0154035725 0.024034642 0.0032858266 0.009827562 -0.039182015 -0.038685303 0.0055289976
al -0.015727576 0.019412646 0.026976837 0.0014927809 -0.0061428896 -0.033744715 0.028356314 -0.008138423 0.046960652 -0.031662967
signs -0.023158273 -0.04775251 0.02949527 0.018844362 -0.031888314 -0.01058788 -0.0044542807 0.0030298338 -0.04052438 -0.027832428
eye 0.029190656 -0.015021774 0.01972508 0.0260324 0.037749972 0.041631866 -0.0088800555 0.0017153972 0.011896822 -0.0046518934
surprising 0.030848173 0.006919973 0.040513996 -0.035760604 0.051318996 0.04624368 0.041367386 0.037110638 -0.008850252 -0.04922391
free -0.013384146 -0.054198988 -0.0190422 -0.013913528 -0.038677532 -0.042974807 0.048640303 0.010526009 -0.033193063 0.012507524
check 0.02219838 0.035975643 0.050213184 0.04598599 0.033429254 -0.047137465 0.03081695 -0.01926075 0.029558519 0.046188805
wall -0.011830919 0.0075878706 0.0008490186 -0.032591786 -0.013018405 0.04482183 0.052143537 -0.039227113 -0.0014198035 0.018482354
rest 0.024571674 0.008306164 0.048801336 0.04851348 0.043139532 -0.051239945 0.0035030167 -0.023700772 -0.04728347 0.0029282055
accumulating 0.006070689 -0.022158353 -0.028895957 0.031533264 0.0563399 -0.039178528 -0.011151603 -0.032777082 -0.037886977 -0.0076666716
pullback -0.0046744347 -0.03612226 0.011474287 0.035921182 0.055891003 -0.028358385 0.007835919 0.022844326 -0.02143069 -0.04370844
bounced 0.012928535 0.02856261 -0.014949095 0.038755074 0.02219428 0.018902496 0.05522927 0.0066018645 0.038433634 0.015003923
thanks -0.01165358 -0.046231784 -0.0069409534 -0.00990877 -0.041350722 0.014973093 -0.004390354 0.035104707 -0.016506035 0.030782565
weakest 0.003497349 0.040021006 0.0014555735 0.05058387 -0.019153614 0.010101738 -0.0021816546 0.025417723 -0.01041426 -0.027614577
patent 0.038459186 0.04192446 0.0027295577 -0.022215214 0.04119979 0.014136369 -0.0014832951 -0.031872798 0.045860764 0.03537132
case 0.040784948 -0.028218513 -0.030650927 0.025878439 0.036789257 -0.01943627 0.0061110384 0.008046316 0.02654291 0.027243624
insider 0.03753233 -0.009762292 -0.0014345705 -0.02616988 0.001915065 0.0066019534 0.0011106546 -0.011765181 -0.034768052 0.04223844
hopefully 0.05040706 -0.061401 -0.018176427 -0.039901596 -0.015205344 0.024051635 -0.01751378 0.0043910905 -0.021058433 -0.00027361943
careful 0.008580942 -0.009632219 0.041864876 -0.0065898323 0.024304437 0.010038465 -0.011928949 -0.0027729238 -0.024708893 -0.018252023
topix 0.02931992 -0.007575386 -0.009461543 0.01988002 0.059648234 0.020847743 0.047907807 0.026786467 0.04348661 -0.033305727
intact 0.0062499824 0.0038021156 -0.005229303 0.026451204 0.052061647 0.045835394 0.052489463 -0.014724759 0.021146912 -0.01494599
oh 0.05118215 0.009291455 -0.0059627695 -0.013445536 0.036822457 -0.017647907 -0.013713527 -0.0067481957 -0.018259488 0.031145362
posted -0.026112135 0.015684914 0.012005937 0.045057938 -0.006891376 -0.0117261335 0.015805725 -0.033033554 -0.009747961 -0.043993916
NNstar 0.053055912 0.038658936 -0.008820091 0.021273814 0.025375506 -0.0043779444 0.03438346 0.007447016 0.007825344 -0.022274664
reiterated 0.013964763 -0.03909072 -0.020150976 0.049818046 0.046089534 -0.023267923 0.0670522 -0.029891178 -0.030160652 0.044454962
showing 0.05080774 0.00080674625 -0.036730036 0.045598533 0.05712961 0.046697266 -0.008400588 0.013957568 -0.020414302 -0.025401851
course -0.009995976 -0.03678283 -0.036986217 0.023211766 0.0061545833 -0.048740055 0.0330304 0.0023542785 0.008916275 0.048584208
read -0.024799317 -0.054564446 0.051436555 -0.0023860317 0.038236577 -0.033016723 -0.03854771 -0.0015338974 -0.004794862 0.0038291395
listen 0.004842944 0.016979799 0.041728757 -0.00922691 0.028260592 0.015350581 -0.013061191 0.002029624 -0.008452157 0.035436638
luck 0.014195929 -0.0056020073 -0.022863502 -0.044904403 -0.035283137 -0.023896076 0.061942436 -0.02491457 -0.02467853 0.023428882
fund -0.032583375 0.0013418254 -0.0023793995 0.03595322 -0.003067192 0.008229601 0.048517317 -0.03504021 0.029879635 0.026281523
portfolio 0.033053033 0.008852374 0.040220466 -0.028551012 0.015138397 -0.012790348 0.0476538 0.046879407 -0.03806356 -0.04174613
wish 0.012595471 -0.027893163 0.05662084 0.00529895 -0.01980327 0.042095542 0.033056896 0.024698306 -0.010363545 -0.03769744
loaded -0.012993568 0.031257372 0.025771094 0.02317848 0.008398198 -0.044743188 0.03536084 -0.027654968 -0.022307148 -0.04989837
force 0.0026497794 -0.046922598 0.028568508 0.010916699 0.031013189 -0.0025072258 0.03672029 0.02847552 0.01567594 -0.037704095
ton 0.036772612 0.026021741 0.059475705 -0.0037522512 0.033317596 0.045822944 -0.010072051 -0.02452346 -0.034580894 0.0057267556
blow 0.054906312 -0.004853088 0.00067051366 -0.022706725 0.050705858 -0.037114594 0.033063196 0.050837237 -0.028066382 -0.04913107
chromebooks -0.004223187 -0.046886306 0.039371267 0.031121165 -0.021392932 0.03382138 0.04572787 0.044050273 0.015601678 0.030920226
walmart -0.040743656 -0.023559859 -0.003393616 0.006773812 0.028558545 0.0066725304 0.019233791 -0.01220995 0.025644988 0.016027045
staples 0.042425223 0.005504206 -0.010050402 -0.025225911 0.051706597 -0.046308376 -0.0060651153 -0.0026107258 -0.014033956 0.036980424
max 0.024469594 -0.04280359 0.020162266 -0.0018442186 0.053168014 -0.040301375 -0.019480025 -0.016455969 -0.007359867 -0.043846156
trends 0.046248026 0.010593209 -0.008002447 2.0608131e-06 0.021622848 0.01634763 -0.0286818 -0.014753528 -0.02624729 0.031172592
